-0.03835414 -0.00947633 -0.01093582 -0.08435182 -0.02059664 -0.00234829 -0.02761388 -0.03997108 0.01741217 -0.0041769  0.04096889 -0.01255505 -0.02623961 -0.0237652  0.00180906 0.017535  -0.04170197 -0.04072301  0.01815335 0.04805435 -0.01448371 0.03761047 -0.02780494 -0.01444036 -0.03106889 -0.01180306 0.03350194 -0.0189576 -0.02918908 0.00207682  0.01634924 0.01038674 0.00951731 -0.00642091 0.05046908 -0.00418835 -0.04847801 -0.06287637 -0.05174205 -0.06293964 -0.02901997 0.03121823 -0.00495132 0.0607482 -0.04391614 0.03301535 0.03704208 -0.03353639  0.0306928 -0.00804241 -0.01647747 0.02931642 0.02462518 0.05581935 -0.01204813 0.01870575 -0.03213839 0.02741235 0.02861125 -0.01569354 -0.04728932 0.01245108 0.03118262 0.02083634 -0.06824429 0.02133806 -0.01813157 -0.00772662 0.01791147 0.02758374 -0.00340295 0.03150332 -0.02482446 0.03276166 -0.01817716 -0.05601274 0.055113  -0.00742798  0.02534829 -0.00709453 -0.01921114 -0.00240777 -0.00457157 -0.00275895  0.04835698 -0.00087769 0.05948505 0.01143879 0.05891942 0.03327564  0.06283805 -0.00052142 0.04279547 0.01405357 0.01503567 -0.00545705  0.0251655 -0.00148773 0.05206218 -0.04116372 
-1.19087950e-03 -3.56378197e-03 -5.03454916e-03 -1.73597336e-02  2.65689427e-03 1.34250764e-02 -2.16016639e-03 -1.43145975e-02  2.51334929e-03 1.34749664e-03 4.72265529e-03 -8.67012539e-04 -2.12390814e-03 -6.06075907e-03 -4.48300224e-03 5.34658693e-03  2.71756342e-03 -1.43125514e-02 -4.18432610e-04 4.62329248e-03 -3.57188284e-03 9.53546166e-03 -3.68956896e-03 -2.16329703e-03  2.31597014e-03 3.87934665e-03 1.11522023e-02 -3.52345966e-03 -5.47209103e-03 -4.47919447e-05 -2.17072945e-03 5.33205038e-03 -1.90327922e-03 3.83084873e-03 1.50287822e-02 -2.02995422e-03 -1.75630394e-02 -1.14210453e-02 -1.03350030e-02 -1.07982103e-02 -1.53242359e-02 4.27723350e-03 7.71849940e-04 1.30677056e-02 -7.30097666e-03 3.62344994e-03 4.31720400e-03 -1.18922228e-02 -3.23034148e-03 -2.55191512e-03 -3.28184129e-03 1.05067166e-02  7.85350334e-03 1.15629248e-02 -8.03037360e-03 -5.13839442e-03 -8.44370853e-03 4.12564771e-03 6.72556832e-03 -4.91575990e-03 -1.29656894e-02 7.37856049e-03 6.60783518e-03 1.35199893e-02 -1.59467012e-02 6.66475331e-04 -2.76582083e-03 -3.70372902e-03  5.08404523e-03 6.71383401e-04 1.40512700e-03 1.33385984e-02 -1.19398385e-02 7.58175878e-03 1.97816966e-03 -1.24404393e-02  2.00525727e-02 -4.00116947e-03 -1.03084673e-03 1.97339279e-04 -9.70250927e-03 7.51687330e-04 5.28630521e-03 5.86686051e-03  1.22685218e-02 -3.91733251e-04 9.52829793e-03 2.56641768e-03  1.00440597e-02 1.48226880e-02 1.05286082e-02 1.11397766e-02  1.00665968e-02 2.74851080e-03 2.93966499e-04 5.89407282e-03  2.52571015e-04 -6.45350805e-03 1.71657391e-02 -5.02988650e-03 
-0.01886049 -0.00319175 -0.01539749 -0.04567539 -0.00980521 0.01678269 -0.02346578 -0.02480328 0.02498301 -0.00387469 0.03818449 -0.00331604 -0.01488672 -0.00775349 0.0002755  0.02695736 -0.01022079 -0.01143274  0.00668801 0.04065839 -0.01513319 0.03715681 -0.04280839 -0.0171652 -0.03313436 0.01843109 0.01250589 -0.00142389 -0.01465276 -0.00124273 -0.00486721 -0.00260629 -0.01060091 0.0052103  0.03455053 -0.01464021 -0.0330891 -0.03408226 -0.0308141 -0.04436665 -0.00959811 0.00291657 -0.01054625 0.02273541 -0.01219452 0.00636863 0.01478982 -0.03258945  0.02130982 -0.00900329 0.00960967 0.00313827 0.02239639 0.01476702 -0.0007021  0.00354374 -0.01193567 0.01825923 0.02194807 -0.01312206 -0.00550853 0.01443968 0.02104625 0.01602655 -0.04240491 0.00551887 -0.0084253 -0.01144169 0.02142241 0.01201401 0.01364054 -0.00059993 -0.00339836 0.02762429 -0.0081432 -0.02499225 0.0579756 -0.00441656  0.0208493 -0.01805082 -0.01336109 0.01197969 -0.00745226 0.00183436  0.00718103 -0.00589708 0.02873061 0.01648099 0.05244675 0.02175052  0.04926849 -0.00140869 0.01557729 0.01120082 -0.01381638 0.01445625  0.01400509 0.0185619  0.03729943 -0.01978481 
-0.01444583 -0.00766635 -0.01915554 -0.02944522 0.01004061 0.0025189 -0.02890457 -0.02011807 0.00677668 -0.02158852 0.01626178 -0.01386815 -0.009228  -0.01121189 0.00531414 0.01497035 -0.0051779 -0.02918482  0.00197771 0.015781  0.0003224  0.0330743 -0.02038186 -0.00966136 -0.03637086 0.00798945 0.00913266 -0.00776877 -0.02627955 0.0050752 -0.01561016 -0.01182417 -0.00828062 0.00471676 0.04246063 -0.00846888 -0.02518565 -0.03366338 -0.03483737 -0.02920527 -0.00432062 -0.00163774 -0.02249592 0.02500522 -0.02366929 0.01462555 0.00514481 -0.03154748  0.02481964 0.00278809 0.008699  0.00064052 0.01969105 0.03582082  0.01322871 0.01001441 -0.00204268 0.00916875 0.00964374 -0.01035344 -0.00937804 0.02767478 0.02727394 0.02767977 -0.02980987 -0.02111331 -0.00614065 -0.01841809 -0.00046118 0.00839283 0.01557293 0.0081978 -0.02019897 0.00357089 -0.00479595 -0.01845357 0.04028634 0.0102114  0.02201934 -0.0112659 -0.01541029 0.00307138 0.00653319 -0.00655784  0.00890696 0.00494157 0.02289952 0.00162638 0.03795371 0.00524813  0.04823243 0.01285476 0.02254072 0.00492971 -0.00249791 -0.00151443  0.01133378 0.01076617 0.01879114 -0.01462612 
-0.02026168 -0.00704728 -0.03237336 -0.07969444 -0.01318746 -0.0082999 -0.02408867 -0.02700591 0.03496004 -0.00245049 0.03960585 -0.02016082 -0.01055185 -0.01433123 -0.00294799 0.03811444 -0.0325741 -0.02784638  0.00249447 0.0499308 -0.01442005 0.03317511 -0.0336793 -0.01957611 -0.0471441  0.01804616 0.01666804 0.00345557 -0.04099677 0.01172977 -0.00363769 -0.01009484 -0.01611529 0.00079328 0.05766074 -0.00537614 -0.04136338 -0.06095369 -0.04144978 -0.07504203 0.00564556 0.00355486 -0.03600825 0.05649841 -0.0488905  0.04135846 0.02580046 -0.0510207  0.03996809 0.01071333 0.01208286 0.01505252 0.02093433 0.08120737  0.00666897 0.02666391 -0.01061749 0.02538539 0.02627677 -0.02131305 -0.02888959 0.03940007 0.05429532 0.03530783 -0.06643984 -0.01627877 -0.03354333 -0.02817188 0.02314262 0.03509498 0.00679295 0.03199184 -0.00506192 0.01561735 -0.0131089 -0.05794434 0.08303754 0.01615202  0.05509161 -0.02068462 -0.01732571 0.02056112 -0.0020719 -0.01307793  0.03647542 -0.00594779 0.06067781 0.01535547 0.06717188 0.03116643  0.08745322 -0.0114761  0.04001951 0.00935995 0.01822479 0.006391  0.02073478 0.01935953 0.02411493 -0.03540665 
-0.02470426 -0.01080233 -0.02572535 -0.07192346 -0.03209837 -0.00255898 -0.03001871 -0.03824581 0.00294444 0.02032548 0.0435201  0.01615774 -0.01152085 -0.03300127 -0.03940926 0.00915856 -0.04428136 -0.05369071  0.00599519 0.0475137 -0.02826658 0.06470603 -0.02776717 0.03368886 -0.06931163 -0.01581864 -0.00427785 -0.02044456 -0.03598909 -0.0113815  0.01680732 0.01131236 -0.0393603 -0.00196148 0.05028463 -0.00063396 -0.05889265 -0.06852248 -0.02051133 -0.0482799 -0.01507397 0.04129447 -0.00622864 0.06660828 -0.03365916 0.02473807 0.05267713 -0.0787111  0.0152461 -0.02945069 -0.02179808 0.0479193  0.01354231 0.06000616 -0.03198759 0.02671095 -0.0366366  0.04240744 0.04634323 -0.02377844 -0.07685122 0.00878319 0.01686521 0.02865394 -0.07181881 -0.00566734 -0.02208005 -0.02467313 0.00346742 0.01024562 0.01138558 0.03258036 -0.03372043 0.07802465 -0.00925493 -0.04514588 0.09112478 -0.01609351  0.01325337 -0.03607933 -0.02661327 0.00497338 0.02015821 0.01721762  0.02477298 -0.02298596 0.06316093 0.02995946 0.06541887 0.04749969  0.06573793 -0.00123887 0.05409562 0.00696216 0.01322476 0.02616117  0.01229607 0.01569478 0.06471516 -0.01049865 
-0.00655789 -0.0009668 -0.01639736 -0.03271698 0.00441581 -0.00584327 -0.01686915 -0.00637468 0.0045227 -0.00371135 0.01131923 0.00368533 -0.00295977 -0.01851656 -0.00450085 0.00204096 -0.01177848 -0.01159353  0.01156404 0.01034619 -0.01598708 0.02204685 0.00336686 -0.00345882 -0.00952386 -0.01099748 0.00375249 0.00085832 -0.01814117 0.0003947  0.02789666 0.00050863 0.00126493 0.00182311 0.01687123 -0.01094037 -0.01353127 -0.0236714 -0.01783255 -0.01636597 -0.00309074 0.01441925  0.01777586 0.02736647 -0.01366299 0.01675763 0.02356406 -0.03016595  0.00367194 -0.00209941 -0.00359503 0.02504969 0.00021307 0.03208745  0.00376792 0.02361334 -0.01213214 0.01265066 0.00040414 -0.01576019 -0.02915989 0.00551048 0.0128863  0.0031994 -0.02132356 -0.00170375 -0.00721112 -0.00411365 0.00817221 0.00898297 -0.00360798 0.02013238 -0.01397959 0.02010182 -0.02080208 -0.03129673 0.03142583 0.00862858  0.00489707 -0.00606738 -0.00220015 0.00920841 0.01581908 -0.00136665  0.01049774 -0.00827625 0.02641012 0.00777178 0.02273375 0.01235898  0.0386388 -0.00672797 0.01243764 -0.00322628 0.0019205  0.00409238  0.00395271 -0.00642916 0.02933226 -0.0103359 
-1.54126287e-02 -2.94083823e-03 -2.53640637e-02 -5.78071736e-02 -9.10858903e-03 -7.18068983e-03 -1.92549750e-02 -3.10613457e-02 -4.35152615e-04 -2.25814246e-03 1.04662403e-02 -1.18626086e-02  3.14326026e-03 -7.54707027e-03 1.13923997e-02 2.21557375e-02 -1.81872509e-02 -1.74084194e-02 1.20152324e-03 4.08863947e-02 -8.94202851e-03 2.72448026e-02 -2.19285712e-02 -7.39772525e-03 -2.06172038e-02 4.79377620e-03 3.67898680e-03 -6.08308800e-03 -2.66511887e-02 3.96117615e-03 5.04699256e-03 1.58140762e-03  2.88620917e-03 -1.69041404e-03 2.53151804e-02 -1.07706171e-02 -4.46576662e-02 -4.07951288e-02 -2.22842991e-02 -3.06795873e-02 -4.29818220e-03 -4.06184467e-03 -1.67155135e-02 2.61432491e-02 -3.48803923e-02 1.20851165e-02 2.41233855e-02 -3.11849285e-02  7.49395555e-03 8.64901021e-03 6.46434864e-03 8.64315871e-03  8.06618202e-03 3.11808307e-02 -1.62903802e-03 2.62075588e-02  5.73659781e-06 -3.83408013e-04 2.46947091e-02 -2.15496346e-02 -1.66746937e-02 3.34204063e-02 2.61751339e-02 3.49234119e-02 -4.87213954e-02 4.81428253e-03 -1.01158153e-02 -1.12896948e-03  2.43074447e-02 9.77504416e-04 -1.09762931e-02 1.35465860e-02 -3.73383844e-03 8.71079229e-03 -7.03478232e-03 -2.85377968e-02  4.40500081e-02 -1.45070553e-02 1.84786655e-02 1.37350243e-03 -5.89750381e-03 -1.78854191e-03 2.10202299e-02 -5.86332893e-03  1.88583657e-02 -1.45077184e-02 3.31440531e-02 1.73112862e-02  4.09583151e-02 1.62571259e-02 4.88978177e-02 1.55769940e-02  3.41773704e-02 -1.67547690e-03 1.18291592e-02 -7.52738165e-03  6.70009013e-03 9.60863661e-03 3.32815945e-02 -2.18106750e-02 
-0.01123482 -0.02402975 -0.03076093 -0.10040256 -0.02500839 -0.01326468 -0.03248547 -0.03688917 0.02788403 0.02528388 0.02740041 0.00276985  0.01858731 -0.03453813 -0.0239975  0.03041426 -0.04585274 -0.03400988  0.03002787 0.04336314 -0.04360886 0.04063154 -0.02519394 0.01704461 -0.04373439 -0.00316491 0.00367876 -0.00341901 -0.04991654 -0.00977025 -0.00095069 0.00084647 -0.03232031 0.00891654 0.04788516 -0.00446769 -0.06882101 -0.06430349 -0.02367854 -0.06174991 0.00953244 0.02203313 -0.00859002 0.07269576 -0.04975292 0.0146947  0.05996818 -0.0681527  0.01482954 -0.01075767 -0.02314204 0.02846623 0.00518448 0.10175125 -0.03095982 0.02803874 -0.04501669 0.0364324  0.04408446 -0.0347043 -0.06651244 0.0429944  0.03940271 0.04351028 -0.07975409 -0.01083086 -0.0402888  0.00347148 0.02044368 0.03965968 -0.01821891 0.06172267 -0.0425348  0.04952489 -0.01113331 -0.06070358 0.09270025 -0.01449513  0.02327091 -0.01589265 -0.02462925 0.01147231 0.02465916 -0.00332878  0.03427984 -0.01999461 0.06425502 0.02897205 0.08827452 0.06293046  0.05693896 -0.0026893  0.06219054 -0.0085164  0.02688803 0.02439595  0.01668219 0.00014576 0.05988329 -0.02285115 
-0.04387428 -0.00615555 -0.02735135 -0.07008945 -0.01771859 -0.01420001 -0.00972915 -0.03999834 0.02947446 -0.0088431  0.04368321 -0.02493056  0.01031227 0.01293434 0.00111709 0.01932821 -0.01498156 -0.05514129  0.01237862 0.07052947 -0.00626162 0.03483772 -0.05563414 -0.00967868 -0.10592891 0.01249691 0.04200378 -0.010577  -0.06362363 -0.00465617  0.0140986  0.00375415 -0.01017869 0.01109733 0.0542785  0.0231801 -0.04367364 -0.03664647 -0.04277002 -0.06364434 0.02661567 0.02215743 -0.04248723 0.07518657 -0.04579984 0.03225269 0.01540665 -0.02113904  0.03942499 -0.01409345 0.02189488 0.00999944 0.02807464 0.05342505 -0.01342484 0.0435072  0.01201005 0.02178128 0.03012231 -0.02292018 -0.03195422 0.0442591  0.01015669 0.04038092 -0.06461432 -0.00820062 -0.00654332 -0.02050673 0.01865305 0.02164739 0.02150187 0.03695935 -0.00607043 0.0161291 -0.01772952 -0.039265  0.06487209 -0.02704036  0.03446959 -0.02093877 -0.04020898 0.00192497 0.00614638 -0.00931323  0.01358845 0.00058466 0.06713697 0.03295855 0.06791314 0.00589046  0.10518023 -0.0116748  0.00559312 0.03649656 0.02485599 0.01682978  0.02436383 0.03038995 0.01384345 -0.03336473 
-1.83736160e-02 -8.43463466e-03 -2.26875097e-02 -3.61847952e-02  1.05437506e-02 1.66336913e-02 -1.91028118e-02 -1.85027178e-02  1.99254230e-02 -4.52138530e-03 1.43271834e-02 -2.12155487e-02 -8.60251766e-03 -1.19328238e-02 9.89922136e-03 1.84199829e-02 -6.21252600e-03 -1.69003382e-02 6.77822623e-03 1.58516914e-02 -1.97365060e-02 2.06083935e-02 -8.17527249e-03 -1.29008237e-02 -8.02669395e-03 1.33304801e-02 1.50979878e-02 4.78741946e-03 -2.47679297e-02 -5.73096750e-03 7.58764381e-03 -5.96419256e-03  5.13047678e-03 3.23039922e-03 3.19604613e-02 -1.78300291e-02 -2.10292134e-02 -3.56393345e-02 -3.11069824e-02 -2.22515538e-02 -1.07919024e-02 -3.13066458e-03 5.69694024e-03 2.34027021e-02 -1.03954524e-02 -4.48411750e-03 1.84354298e-02 -2.34211106e-02  1.05040809e-02 -8.70173506e-04 3.60958092e-03 1.38926879e-03  6.25534635e-03 2.80663520e-02 1.18790409e-02 -5.03562856e-03 -1.85212456e-02 1.06740957e-02 5.20917401e-03 -6.37180172e-03 -2.39198026e-03 2.42803171e-02 3.36721875e-02 2.53663789e-02 -4.16419283e-02 -1.35104638e-05 -1.03919758e-02 -7.76995067e-03  2.44593415e-02 1.53890857e-02 -4.39080037e-03 8.77752341e-03 -1.23469913e-02 1.33302398e-02 -1.64102986e-02 -2.21961215e-02  3.46351266e-02 2.72103847e-04 1.95130240e-02 -1.43277145e-03 -1.22971199e-02 5.40152797e-03 1.28753844e-03 6.07609842e-03  1.45342518e-02 -2.15747161e-03 1.95863806e-02 8.56133935e-04  3.12330239e-02 1.90636702e-02 2.59658098e-02 1.34767136e-02  9.49457660e-03 -1.29971979e-03 -2.42080330e-03 4.15879954e-03  1.10573536e-02 -5.26409922e-03 4.09360379e-02 -1.28681185e-02 
-0.0107444 -0.01841871 -0.01762369 -0.08638433 -0.00701409 0.00896644 -0.00701696 -0.03148881 0.00381906 0.01578498 0.02095034 0.0144459 -0.00263263 -0.03515217 -0.02773075 0.02613588 -0.03740756 -0.03622782  0.00760543 0.0344111 -0.04306002 0.02892727 -0.03552603 -0.00418297 -0.01517717 -0.00625191 0.01648111 -0.01905961 -0.04857245 -0.01384351  0.01803114 0.00677596 -0.02518962 0.00928098 0.0433641  0.00665374 -0.04941987 -0.052433  -0.0240263 -0.02763951 -0.01031936 0.01884356  0.00053962 0.0706253 -0.02750283 0.00358872 0.04729297 -0.06616186  0.01871229 -0.01723409 -0.03379158 0.04872316 0.02056326 0.0640559 -0.04408443 0.03297143 -0.02742077 0.01870783 0.06384228 -0.02867087 -0.0516228  0.03048181 0.02476614 0.02835641 -0.06895588 0.00716125 -0.02404207 -0.00861938 0.00689069 0.04456435 -0.00378062 0.0392451 -0.02213785 0.02820152 -0.01817479 -0.03013252 0.08031313 -0.02764449  0.02100552 -0.02958489 -0.03640655 0.01644327 0.02409548 -0.00120659  0.02949953 -0.01016505 0.06033557 0.01773977 0.06084726 0.03793237  0.07057418 0.0222027  0.03916798 -0.00316938 0.02108502 0.01144916  0.00376241 -0.00866958 0.04097494 -0.01175599 
-0.00716842 -0.00010739 0.00235891 -0.03389492 0.00054888 0.00975108 -0.01239541 -0.02037635 0.0225561 -0.01606534 0.01816026 -0.01462086  0.00143397 0.00519814 0.0005063  0.02446564 -0.00210283 -0.01071385  0.0018129  0.02237392 -0.00739989 0.01049448 -0.00103028 -0.0072442 -0.02373831 0.02268901 0.00643499 -0.00593221 -0.01926181 0.00828643 -0.01391586 0.00214739 -0.01345238 -0.00301649 0.02716549 -0.00318066 -0.01845534 -0.02222753 -0.02297896 -0.03266997 -0.00375944 -0.00796915 -0.01771118 0.00312613 -0.01725071 0.00514292 -0.02115118 -0.01236599  0.0341577 -0.00204101 0.02227768 0.00128673 0.01628893 0.01863261  0.00021578 -0.01353423 0.00021209 -0.00946813 -0.00094573 -0.00508097  0.0016019  0.01630178 0.02449517 0.02553396 -0.01661586 -0.00870728 -0.00862275 -0.00253849 0.01286957 0.00654207 0.02080064 0.00628421 -0.02264528 0.00079763 -0.00105324 -0.00161732 0.02685867 0.02003771  0.01782594 -0.00455496 -0.00919587 -0.0053543 -0.02096654 -0.02287757  0.01261508 0.01203118 0.00369464 0.01301875 0.0227685  0.02245638  0.03051348 -0.00676199 0.0175066 -0.00189355 -0.00866849 0.00236055  0.01935219 0.02962967 0.00310198 -0.00334385 
-1.09200506e-02 6.13238569e-03 3.36011918e-03 -1.58924591e-02  5.82982274e-03 1.21442862e-02 -9.41081718e-03 -1.14705684e-02  3.91699839e-03 -3.06720118e-04 1.06641641e-02 -4.77309898e-03 -3.33707081e-03 3.41683207e-03 -4.49291058e-03 5.68360975e-03  1.26686813e-02 -8.47510435e-03 9.45672218e-04 9.46998224e-03 -3.43478727e-03 3.80974682e-03 -1.26904268e-02 -1.94251805e-03 -6.66211452e-03 7.25609576e-03 4.93836310e-03 -1.41724581e-02 -6.28658663e-03 -4.06344375e-03 -7.70426495e-03 8.80541746e-03 -5.96758304e-03 9.39000119e-03 2.68843509e-02 1.79705676e-04 -1.77055132e-02 -3.73123167e-03 -1.66188926e-02 -5.80732478e-03 -1.73069397e-03 -3.87878204e-03 -9.12729837e-03 -9.94803035e-04 -1.94406183e-03 1.21788285e-03 -1.03745386e-02 -4.89705382e-03  1.26844682e-02 1.73701462e-03 1.50487351e-03 -1.10677276e-02  9.25662927e-03 -4.45347978e-03 1.07590604e-04 -6.34420011e-03 -9.16996039e-03 9.02611413e-04 9.10462695e-05 -4.52774344e-03  2.87062954e-03 8.48242640e-03 5.93559910e-03 2.04247534e-02 -1.72242057e-02 -9.09320894e-04 -3.45262745e-03 -8.22560303e-03  2.14874488e-03 2.95732799e-03 3.00659938e-03 2.55408115e-03 -1.46087836e-02 -4.44086129e-03 1.25107625e-02 -9.88122355e-03  2.30669808e-02 -4.67113266e-03 7.62030482e-04 -2.99143139e-03 -6.83540339e-03 -4.28402796e-03 -3.52450227e-03 -6.62531611e-03 -2.46333354e-03 1.58947017e-02 1.16165285e-03 -1.61413942e-03  1.65458880e-02 1.40476590e-02 6.30014669e-03 1.13472175e-02  6.20176177e-03 1.01062860e-02 -9.50986706e-03 3.19929724e-03 -8.63510242e-04 7.14063970e-03 1.07026966e-02 1.34338224e-02 
-0.00216666 -0.00246828 -0.00025986 -0.01667778 0.00295033 0.00149796 -0.00344743 -0.00571457 0.00305731 -0.00100948 0.00697164 -0.00166667  0.0024994  0.00214197 0.00211093 0.00282394 -0.00214216 -0.01325378 -0.00758177 0.00504098 -0.0002383  0.00302953 -0.00013146 -0.00576976  0.00201903 -0.00392247 0.00830902 0.00262642 -0.00027938 0.0022745 -0.00331115 0.00213415 -0.00021125 -0.00020201 0.00959633 -0.00581152 -0.00823247 -0.00871754 -0.00655543 -0.01928827 -0.00329933 -0.00283301 -0.0079613  0.00669919 -0.00420853 0.00394845 -0.00378308 -0.00986849 -0.00321653 0.00251428 -0.00035113 0.00357799 0.00337963 0.01212942  0.00317902 -0.00472994 -0.00708561 -0.00415167 -0.00164275 0.0007381  0.00107343 0.00686137 0.01117149 0.01925585 -0.00894909 -0.00311262 -0.00517388 -0.00173276 0.01021401 -0.00154604 0.00589587 0.00551683 -0.008485  -0.00213626 0.00686179 -0.0048439  0.01915451 0.0006904  0.00607178 0.0024789 -0.0070139 -0.0010078 -0.00421263 -0.00619294  0.0173399 -0.00072908 0.01247125 0.00665255 0.01101083 0.01386417  0.01043459 0.00293479 0.00939674 0.0049916  0.00149126 0.00159812 -0.00079359 0.00076871 0.00971078 -0.00586686 
-0.00551855 -0.01236698 -0.02964794 -0.04696979 0.00899756 -0.00875717 -0.00283068 -0.03985288 0.02311573 -0.00903924 0.0208848  0.00647592 -0.0049882 -0.01212134 -0.00506807 0.04113091 -0.02683226 -0.01475917  0.01034403 0.04820946 -0.00320347 0.02718377 -0.03678585 0.00181081 -0.04286002 0.01530299 0.01202798 -0.00489214 -0.04511753 0.00351965  0.01436016 -0.00651589 -0.01497434 0.0222422  0.03516683 0.00421197 -0.04738477 -0.03083744 -0.01807043 -0.032051  -0.00338659 0.0106914 -0.01321851 0.0496112 -0.03555464 0.0043201  0.02687136 -0.02822908  0.03286155 0.00545355 0.02279397 0.00887079 -0.00343399 0.04168123 -0.01572464 0.02817865 0.00047505 0.00498818 0.01560817 -0.02854064 -0.0353754  0.02198949 0.02629622 0.02338599 -0.0252182 -0.00074094 -0.00970992 0.01238258 -0.0036281  0.01300622 -0.01541709 0.03666724 -0.01929538 0.00767081 -0.01638901 -0.03472859 0.0364283 -0.00732277  0.02749786 -0.00199331 -0.02253598 0.00856769 0.02497698 -0.01770199  0.00017431 -0.00052703 0.03135823 0.01435584 0.04253425 0.01466826  0.05573927 -0.00317757 0.02678957 -0.00432508 0.00980672 0.01893714  0.00464802 0.01751068 0.02130966 -0.01379314 
-2.92221066e-02 -5.39581291e-03 -1.68346539e-02 -4.36162688e-02 -9.27468762e-03 1.66668445e-02 -3.52097265e-02 -3.85246128e-02  3.46726850e-02 -4.19744989e-03 2.78870892e-02 -2.37594219e-03 -1.29685933e-02 -9.13653057e-05 1.45927928e-02 2.80303359e-02 -1.21976398e-02 -1.43598365e-02 1.10761244e-02 1.73318908e-02 -3.16877128e-03 5.04824966e-02 6.55431021e-03 -1.03832164e-03 -2.77752262e-02 -1.73808113e-02 -2.09001126e-03 8.22028797e-03 -1.30601590e-02 8.19823239e-03 -1.04891174e-02 -8.50307941e-03 -8.93868040e-03 3.31264664e-03 3.70280482e-02 -1.85747948e-02 -4.50183190e-02 -4.28911895e-02 -4.01588492e-02 -4.93486486e-02 -3.74280140e-02 7.41161406e-03 -8.10628105e-03 9.09660384e-03 -2.29166579e-02 5.28218225e-02 7.83347432e-03 -1.28171192e-02  3.00579276e-02 -7.88843166e-03 1.18075898e-02 2.45995447e-02  2.55913269e-02 4.34361175e-02 1.06657241e-02 1.13305887e-02 -2.31859870e-02 1.50330961e-02 1.07014850e-02 -1.80907957e-02 -3.58967222e-02 7.44137960e-03 2.12362446e-02 3.92305702e-02 -5.35105579e-02 1.24314951e-03 -7.98618514e-03 -1.83477532e-02  2.37608571e-02 7.35643459e-03 3.92471440e-03 3.39291058e-02 -4.83061224e-02 3.45304199e-02 -1.59987248e-03 -4.31622937e-02  5.21747507e-02 2.65489127e-02 8.07239302e-03 -3.17613175e-03  1.29414620e-02 -9.18476610e-04 -1.24073466e-02 -1.31288329e-02  2.69407034e-02 -2.97019928e-04 1.96954645e-02 1.39205214e-02  3.87318134e-02 2.93287281e-02 3.62011828e-02 -2.16908567e-03  2.50971578e-02 6.09685434e-04 9.75164585e-03 1.35947345e-02  3.03186141e-02 1.93782169e-02 4.23559099e-02 -1.53167099e-02 
-0.02401635 -0.00346068 -0.03682994 -0.06174508 0.01795112 0.00671072 -0.01376957 -0.03416286 0.03409928 -0.00292063 0.02556285 -0.01918291 -0.00637853 0.00586896 -0.00690932 0.04754  -0.0254086 -0.02374265 -0.00309637 0.06438465 -0.01859816 0.05343819 -0.03705556 0.00042616 -0.04522727 0.02772024 0.01385774 0.00183063 -0.04233807 -0.01044791  0.01451637 -0.00299964 0.00207636 0.00401011 0.05401877 -0.00668402 -0.05930723 -0.06172883 -0.03539285 -0.04385639 -0.00429854 0.00803682 -0.02571239 0.04807464 -0.03468628 0.00727919 0.02717923 -0.05374185  0.04731952 -0.00327411 0.02166016 0.00933509 0.00022956 0.03617977 -0.005324  0.03007395 -0.0153903  0.01867959 0.02406793 -0.04708035 -0.02550836 0.03817358 0.0460423  0.03340698 -0.06232885 0.00370391 -0.02457717 -0.01769446 0.02080252 0.02121566 -0.01601635 0.03208816 -0.02545699 0.0194001 -0.01778273 -0.04846311 0.07044963 0.00011494  0.0361824 -0.00850876 -0.02986304 0.01542985 0.02514969 -0.00928796  0.01084356 0.01121533 0.0331693  0.02745114 0.06517796 0.02437483  0.07863968 0.0094552  0.03084592 0.00522389 -0.0163528  0.02053916  0.01072369 0.00959337 0.05717022 -0.01797137 
-0.03601884 0.01402373 -0.00146051 -0.02444353 0.00667025 0.01783691 -0.01876464 0.00211214 0.01790933 -0.01254987 0.02238622 -0.00475625  0.00270696 -0.01210608 -0.02014492 -0.01273878 0.00177948 -0.01503752  0.00039586 0.01193967 -0.01267433 0.01951921 -0.00234177 0.01334782 -0.02533038 -0.01036874 0.00744015 0.00425588 -0.01289668 -0.02358426  0.00991988 -0.00564168 0.00801258 -0.0055111  0.02200078 -0.01642608 -0.00970228 -0.02117871 -0.01986996 -0.00163604 0.00303267 0.0037444  0.01311873 0.00732743 -0.00909821 0.00505699 0.00107034 -0.02613739  0.00330339 -0.02048322 0.00972255 0.01808161 0.0067681  0.01364383  0.00385866 -0.0057113 -0.01996052 -0.00065081 -0.00397794 -0.00508311 -0.00664133 0.00875779 -0.00252675 0.01518191 -0.02181952 0.00740906  0.00169293 -0.01257016 0.01101523 -0.00537119 0.02529845 0.00634818 -0.02066153 0.00850732 -0.01091359 -0.01269688 0.02534275 0.00286619  0.00911086 -0.00501143 -0.02317541 0.01105532 0.00834736 -0.01068368  0.00379246 0.00914476 0.00939012 0.01729262 0.02624549 0.00531734  0.0228092  0.01608486 0.02656453 0.00972968 -0.02791967 0.0171561  0.01517113 0.02201966 0.02561444 -0.0105027 
-7.1442313e-04 -8.5121784e-03 -1.7656760e-02 -3.2339834e-02 -1.3130300e-03 3.4175545e-03 -1.1240250e-04 -1.3199030e-02  1.3910841e-02 -2.7496458e-03 2.0954609e-02 2.0332187e-03 -1.0825003e-02 3.8160915e-03 3.7797429e-03 3.6635350e-02 -8.2840640e-03 -1.9648191e-02 -3.0649728e-03 2.3324588e-02  4.0082373e-03 2.2786027e-02 -2.6428858e-02 -4.9986551e-03 -1.1142407e-02 8.4456699e-03 1.3561919e-03 4.2465269e-03 -1.6431404e-02 5.5070063e-03 -1.9164887e-03 4.7255461e-03 -7.9538682e-03 9.5982589e-03 2.3410346e-02 -1.1313222e-03 -2.2485971e-02 -2.2641547e-02 -1.2121035e-02 -2.3155099e-02  3.9805747e-03 -5.2404930e-03 -1.6755264e-02 2.8655026e-02 -1.5229192e-02 1.0811657e-02 1.1537763e-02 -2.3321299e-02  1.1659450e-02 1.1521263e-02 -3.0899055e-03 1.4597345e-02  1.0552096e-02 3.2581486e-02 -1.1217315e-02 1.0966902e-02  2.0308627e-03 1.3100024e-02 1.0070120e-02 -1.7956199e-02 -1.6092334e-02 2.0098837e-02 2.9464643e-02 1.9033371e-02 -2.7953893e-02 -1.8671488e-03 -1.2120667e-02 -1.0657320e-02  1.4071652e-02 6.8418970e-03 4.4273995e-03 2.8352132e-02 -6.8136407e-03 7.1046022e-03 7.1474686e-03 -3.3746894e-02  2.8949186e-02 1.5111240e-03 1.0096530e-02 4.5471676e-04 -3.0217119e-03 -3.7555217e-03 3.0635365e-03 -5.6266347e-03  2.2247866e-02 -2.6559288e-04 2.7390514e-02 7.6034521e-03  2.5463028e-02 1.5290055e-02 3.5391923e-02 1.2887627e-05  1.2645114e-02 4.1313800e-03 1.2571389e-02 -2.7369335e-03 -9.1020865e-03 -3.8246238e-03 1.1319116e-02 -1.1431537e-02 
-0.02335853 0.00423635 -0.01820135 -0.00630312 0.00104546 0.00078761 -0.0057167 -0.00675377 0.01953898 -0.00566337 0.01144309 -0.00655369  0.0033177 -0.00835553 -0.00502657 0.01133995 0.00147878 -0.01259898  0.0030403  0.02312189 0.00028742 0.03051203 -0.00871392 0.00855494 -0.03196653 -0.00793797 0.00923227 0.01042441 -0.01199176 0.00017218  0.01262811 -0.00919995 0.00130175 0.01373511 0.01053696 -0.00046575 -0.0138519 -0.00871071 -0.01215931 -0.02772425 -0.00805756 0.0093957  0.00111143 0.02679733 -0.00172096 0.02669855 0.00054952 -0.01513484  0.00666842 -0.0081976  0.01351827 0.01279763 0.00787628 0.01940853 -0.00853671 0.02214309 -0.01630642 0.01674926 0.00138568 -0.00867617 -0.01259613 -0.00118654 0.00721314 0.00760219 -0.02448316 -0.00980065 -0.00393691 -0.01723208 0.02003536 0.00386595 0.00463571 0.00927057 -0.01728843 0.01319885 0.00154052 -0.03108279 0.02253728 0.00468066  0.00537068 0.00157335 0.00038879 -0.00084813 -0.01353403 -0.00225836  0.01454943 0.00585953 0.00647231 0.0154183  0.02829798 0.00487605  0.02862855 -0.00646511 -0.00773232 -0.00046463 -0.00539285 0.00682209  0.01812268 0.01275045 0.02530825 -0.01032795 
-3.53404623e-03 4.27740905e-03 -1.09131029e-02 -3.81794907e-02 -1.52441836e-03 -3.67625407e-03 -6.33309176e-03 -4.86836955e-03  1.45788211e-02 9.55420267e-03 2.75793709e-02 -1.12453487e-03 -9.72354040e-03 -5.01049450e-03 -1.82604720e-03 1.78891812e-02 -1.06637506e-02 -1.42008197e-02 2.44311872e-03 2.05229428e-02 -4.31871833e-03 1.61724836e-02 -1.70950461e-02 3.72224534e-03 -2.01086067e-02 1.34787206e-02 8.72067548e-03 2.91674817e-03 -2.12922152e-02 3.00583337e-03 5.53518813e-03 7.88658392e-03 -6.65232027e-03 -2.48258031e-04 1.70185827e-02 -8.92397761e-03 -1.50346262e-02 -2.09016465e-02 -1.63528807e-02 -2.57531572e-02  7.82509521e-03 6.66335924e-03 5.92781464e-03 1.79622956e-02 -1.31928418e-02 6.65340433e-03 4.11059661e-03 -2.33325306e-02  1.58214699e-02 -1.46364467e-03 9.60743229e-04 5.07221185e-03  5.95560484e-03 1.95090454e-02 1.76438398e-03 1.49792666e-03 -4.08854475e-03 1.08840605e-02 6.86623529e-03 -4.61477367e-03 -8.38325359e-03 9.88264848e-03 1.42130535e-02 5.83906844e-03 -2.62448415e-02 1.39819935e-03 -1.17682712e-02 -6.34478405e-03  9.53997299e-03 5.39336586e-03 8.67473800e-03 1.10331308e-02 -7.55856803e-04 1.30424993e-02 -1.51400045e-02 -1.94279496e-02  3.90022062e-02 -6.23361068e-03 1.44686168e-02 -2.02759111e-07 -8.35619867e-03 1.31433392e-02 5.34557551e-03 -3.57582513e-03  5.16041974e-03 -3.42524319e-04 2.69809216e-02 6.08357787e-03  2.63831709e-02 1.91794410e-02 2.85974015e-02 -9.42716748e-03  7.16271671e-03 5.60543407e-03 -9.13265999e-03 1.54044405e-02 -1.32763002e-03 3.82669014e-03 2.79455669e-02 -6.12800755e-03 
-0.00517063 -0.00401559 0.00072359 -0.00762898 -0.0028479  0.00464571  0.00242652 -0.00331563 0.00189681 0.00444001 0.00241682 -0.00598962 -0.00213341 0.0013955  0.00225036 -0.00011466 -0.00760504 -0.00958119 -0.00572513 0.00774717 -0.00051236 0.0038097 -0.00080414 -0.00585648 -0.00179574 -0.005832  0.00445013 0.00252122 0.00280722 0.00199315 -0.00054929 0.00057733 0.00637085 -0.00327134 0.00679061 -0.00405115 -0.00520919 -0.00507264 -0.00376937 -0.00882969 -0.00301435 -0.00175214 -0.00746259 0.00521115 -0.00589629 0.00580481 0.00211931 -0.00138307 -0.00238912 -0.00382953 -0.00225121 0.00083497 0.00284586 0.00533532 -0.00023642 -0.00093016 -0.00660973 0.00484942 0.00014223 -0.00098739 -0.00349905 0.00546271 0.00283526 0.01322086 -0.01127954 0.00411051 -0.00142783 -0.00082069 0.00542095 0.00152568 -0.00094224 0.00496396 -0.00041545 0.00291405 0.0042598 -0.00968125 0.0101302  0.00198658  0.005237  -0.00035643 -0.00258037 -0.00053773 -0.0007807  0.00022517  0.00810892 -0.00894   0.01079736 0.00539017 0.00380985 0.00206138  0.00614639 0.00351768 0.00490889 0.00515622 0.00123941 -0.00044708  0.00347896 -0.00148287 0.00621042 -0.00627557 
-0.00595084 -0.00114069 -0.04603105 -0.08087195 0.00869915 -0.00622902 -0.01458381 -0.02994291 0.03328737 -0.00283644 0.03093526 0.00440177 -0.00920662 -0.01709725 -0.00998638 0.04181835 -0.01881299 -0.02329997  0.00019629 0.0535349 -0.01426485 0.04798731 -0.03471112 -0.01316139 -0.0312266  0.00224149 0.00611951 0.00528937 -0.04166914 0.00177547  0.03687866 0.00212676 -0.00052788 0.0149571  0.05222099 -0.0096934 -0.04207031 -0.04857227 -0.03075721 -0.05576441 0.01019939 0.01028289 -0.00995356 0.07384778 -0.02834768 0.01925415 0.03837309 -0.0600726  0.02342397 0.01666448 0.00806033 0.03263127 -0.00735389 0.07288211 -0.01482982 0.0504915 -0.02617548 0.02970909 0.00985797 -0.03717295 -0.03900846 0.03447171 0.04446453 0.03047242 -0.05204802 0.00175472 -0.02930596 -0.00891667 0.01774457 0.02912602 -0.00688387 0.05260916 -0.02041077 0.00935358 -0.0099154 -0.07853451 0.08240088 0.01462844  0.03010467 -0.01661117 -0.02728061 0.01136292 0.02877214 -0.01706509  0.03051396 -0.00367911 0.05631535 0.02053813 0.05585314 0.02718685  0.08270893 0.00540933 0.0308231  0.00571566 0.00809636 0.00598083  0.00759242 0.00589484 0.03346806 -0.02635754 
-0.01475942 -0.0076081 -0.03301907 -0.06165918 0.00447248 -0.00506836 -0.01478254 -0.02334032 0.01553061 -0.00401444 0.02426573 -0.00317463 -0.00309976 -0.01555134 -0.00969411 0.02249011 -0.02369219 -0.02297992  0.00381127 0.0381249 -0.01267017 0.03194171 -0.02571673 0.00066396 -0.0468395  0.00651314 0.01249088 0.00238825 -0.04301207 -0.00408167  0.03069092 0.00127592 -0.00620793 0.00549726 0.03503215 -0.00459447 -0.0309973 -0.04126559 -0.03258352 -0.04228818 0.00608422 0.01056698 -0.00711379 0.05689675 -0.0314296  0.01604129 0.02734985 -0.04527817  0.02130162 0.008894  0.01028238 0.02073623 -0.00113539 0.05743269 -0.00751945 0.03429795 -0.01425308 0.02150353 0.0153121 -0.02801223 -0.03274744 0.03407085 0.03179931 0.02088502 -0.05255913 -0.00301514 -0.01489436 -0.01273861 0.00378026 0.01894468 -0.00297828 0.03418203 -0.01108419 0.01484357 -0.01223034 -0.05456544 0.06091318 0.00658131  0.02542181 -0.01315951 -0.02124152 0.01383831 0.02285157 0.00124506  0.02089394 -0.00802747 0.04182003 0.01339006 0.04552646 0.0187205  0.06946775 0.00620026 0.03018259 0.00086903 0.00559396 0.01080419  0.01566733 0.00695976 0.03089814 -0.01935006 
-5.8316193e-03 -1.9478686e-02 -1.3751295e-02 -2.8346218e-02 -1.3040067e-02 1.0725186e-02 -2.4243591e-03 -1.3701460e-02  6.8194079e-03 -5.6309160e-03 1.2264396e-02 -7.9735694e-03 -1.2920462e-02 -7.9748062e-03 -8.1909085e-03 1.9810669e-02 -1.8413305e-02 -1.4176068e-02 -6.0688541e-03 9.6946824e-03 -1.9866335e-03 1.9665765e-02 -2.5289371e-03 1.1362774e-02 -5.3518368e-03 -1.7492316e-04 8.5311588e-03 -4.1355402e-04 -3.6772261e-03 -3.4158262e-03 -5.1839156e-03 2.7614883e-03 -6.6865478e-03 2.7195411e-03 2.4886746e-02 -3.7148353e-03 -3.1977542e-02 -2.7510680e-02 -1.7248964e-02 -3.5467196e-02 -2.0099832e-02 1.3682386e-04 -1.8242972e-02 2.2007924e-02 -1.7041590e-02 1.8335117e-03 6.3394229e-03 -3.3901732e-02  5.5882004e-03 -2.2816609e-03 -1.0547529e-02 2.5602885e-02  9.5778629e-03 1.9359849e-02 -1.3269699e-02 2.8022678e-04 -1.9616542e-02 5.7902941e-03 1.4940314e-02 -2.4407229e-03 -2.3153763e-02 1.2235783e-02 3.0348608e-02 1.1872287e-02 -2.5993340e-02 2.5543168e-03 -1.5000764e-02 -7.6001412e-03  1.3190015e-02 3.2520487e-03 2.4988858e-03 1.3269650e-02 -3.6053259e-02 1.0348926e-02 1.5784865e-02 -1.9485617e-02  2.7040631e-02 6.4280662e-03 3.6514783e-04 4.6994938e-03 -7.3431362e-03 -9.7950902e-03 7.5766916e-04 2.5503817e-03  3.4707312e-02 1.5254868e-03 8.5547902e-03 -1.8501297e-03  2.2490924e-02 2.4619205e-02 6.8211951e-03 -1.9496216e-03  2.4845580e-02 -3.6554290e-03 -1.0303301e-03 -4.0947056e-05  9.8293852e-03 -2.0510121e-03 2.3803083e-02 -2.2684664e-02 
-0.0077727 -0.02237122 -0.02975733 -0.05249885 -0.02268226 0.0001048 -0.01001399 -0.02222335 0.02859443 -0.0069474  0.02603374 0.00053728 -0.01615814 -0.00339607 0.00732989 0.03850483 -0.04016769 -0.0170675  0.00555255 0.03230689 -0.01486967 0.03581956 -0.02087282 0.00491667 -0.01056567 -0.00819416 -0.0006141  0.02088968 -0.01382532 -0.00361262 -0.00255111 -0.00335471 -0.01244345 0.00269688 0.01398011 -0.0095988 -0.03943347 -0.04033155 -0.00805852 -0.05488956 -0.01165894 0.00324057 -0.01200313 0.05141434 -0.02180062 0.0109531  0.02386885 -0.03191624  0.01291728 -0.00999609 -0.00145604 0.03636826 0.00567115 0.05391771 -0.00175586 0.02396792 -0.01325602 0.01743484 0.02262934 -0.00646609 -0.03065607 0.01202351 0.03336166 0.01686245 -0.04311115 0.00199656 -0.01893716 -0.0041715  0.03068664 0.01407081 -0.00480676 0.02267093 -0.02048406 0.03640312 0.0029616 -0.02031036 0.03200459 0.00815742  0.01143951 -0.01206511 -0.00857327 0.00203596 -0.00014053 -0.00435352  0.02897446 -0.02050089 0.02939005 0.02018827 0.03267618 0.02713264  0.04822224 -0.01735735 0.02034332 -0.01247929 0.03101382 0.00332611  0.01302048 0.01719562 0.02981054 -0.03507413 
-0.03478896 0.01386418 -0.01576461 0.0036662  0.00015734 -0.01110716 -0.0022367 -0.02671197 0.00936148 -0.02672169 0.01718617 -0.00884129 -0.00652893 -0.00439939 0.00673962 0.0253341 -0.0318839 -0.04325494 -0.00201663 0.036255  0.02627446 0.04138187 0.00805275 -0.00146077 -0.04510537 -0.0284794 -0.00343206 -0.00935586 -0.02570136 0.00450369  0.02788272 0.00204784 0.00413126 -0.00433914 0.03491531 0.00680388 -0.01528503 -0.04053963 -0.01094503 0.01399464 -0.02709959 0.00329026  0.00164864 0.02731882 0.00084502 0.02473603 -0.00016407 -0.00342391  0.0234646 -0.01882667 0.02805882 0.02677035 0.01361771 0.04288981  0.0019867  0.02642778 0.01687773 -0.00296176 -0.02150508 -0.02119885 -0.00812166 0.02652005 -0.00226986 0.02671699 -0.01663073 0.01601377  0.02215463 -0.0085377  0.01096632 0.01395418 0.03019623 0.02155474 -0.0245452  0.02073247 -0.00073018 -0.00347189 0.02423691 0.01529899  0.02851529 -0.01213336 -0.01198202 -0.01081333 0.0002305 -0.01133985  0.00510058 0.00193745 0.02463833 0.01899569 0.00185699 -0.0245563  0.05882138 0.0081592  0.00920531 0.02499886 0.02279335 -0.00144071 -0.00169126 0.01959591 0.01975461 -0.01151244 
-0.01427871 -0.01538888 -0.01504056 -0.03158318 -0.00782993 0.02760862 -0.01550173 -0.03127022 0.01441951 0.0005354  0.00527063 -0.01331741  0.00071752 0.01352108 -0.00677401 0.00589007 -0.01434902 -0.03469387 -0.0034367  0.01501009 -0.00070797 0.02288813 -0.01079519 -0.00480261 -0.0210177  0.00286275 0.02111596 0.01083263 -0.00883439 -0.01096595 -0.01078628 0.00306497 -0.00223695 -0.00327197 0.01309933 -0.00225783 -0.02588914 -0.03702503 -0.03417913 -0.04437076 -0.01021596 -0.00839615 -0.01373304 0.00971516 -0.02153419 0.00816723 0.02104648 0.00295695  0.00873782 0.00250359 -0.00579455 0.00576336 0.0109318  0.04158756  0.00548374 -0.00829588 -0.00106537 0.00208437 0.00098028 -0.01214271 -0.01526762 0.02328411 0.02682599 0.03626484 -0.03954663 -0.00372298 -0.0097335  0.00061568 0.00904906 0.00724439 -0.01250737 0.01420241 -0.01140071 0.01623882 0.00013359 -0.01390789 0.02009793 0.01276433  0.02178412 -0.00309168 -0.00916708 -0.00599365 -0.00639677 0.01286067  0.03063489 -0.01011982 0.01627445 -0.01126529 0.02457713 0.02987376  0.01873023 0.01017526 0.02476733 0.0053806  0.00700974 0.01229955  0.02176878 -0.00457136 0.03389326 -0.01874347 
-7.13568646e-03 5.96156763e-03 -8.35552067e-03 -1.76895540e-02  1.12413708e-02 1.57483935e-03 -1.67095512e-02 -1.08310822e-02  1.06673585e-02 -9.87677276e-03 6.80775382e-03 4.40502539e-03  2.57999520e-03 -6.34987932e-03 7.84556149e-04 1.03760604e-02 -5.52544254e-04 -1.61088705e-02 4.20937315e-03 1.40387947e-02 -3.51114338e-03 2.20916886e-02 -6.50940696e-03 -4.35026409e-03 -1.54224997e-02 -1.17534224e-03 1.67360401e-03 7.98581634e-03 -1.10750943e-02 -9.82493628e-03 1.00594079e-02 -3.09096836e-03  5.37993910e-04 2.89021037e-03 8.42615962e-03 -1.15746949e-02 -6.80005085e-03 -1.11241359e-02 -2.94878380e-03 -7.25614233e-03 -8.45674332e-03 4.33861883e-03 1.04315942e-02 6.86596148e-03 -4.56137070e-03 7.05032097e-03 1.19849052e-02 -1.50780776e-03  1.84261485e-03 -3.34916986e-05 1.20137967e-02 -7.77051318e-04  2.95677525e-03 1.77052952e-02 7.08030246e-04 4.13885433e-03 -5.38389868e-05 -6.78318553e-03 -5.75385382e-03 -1.46556916e-02 -1.94477601e-04 7.79062370e-03 7.56974518e-03 9.88906156e-03 -7.93300383e-03 2.28038244e-03 2.54456419e-04 -4.49591456e-03  7.24557834e-03 -9.37130186e-04 3.75615573e-03 1.55942757e-02  1.51130836e-04 1.09160738e-02 -1.49962055e-02 -1.91760827e-02  1.44723160e-02 9.69036017e-04 1.22020384e-02 1.09523600e-02 -1.09801348e-02 -2.64674472e-03 8.74242652e-03 -5.59756160e-03  7.34605780e-03 7.19248457e-03 1.15951505e-02 1.20372828e-02  1.34283882e-02 9.44140460e-03 1.81695931e-02 1.79263181e-03  1.12506831e-02 -2.27441516e-04 -5.71222091e-03 4.20125434e-03 -5.72200399e-03 1.99505105e-03 1.65931229e-02 3.84941930e-03 
-0.02856033 -0.00348548 -0.04367586 -0.07597595 -0.01076165 -0.01470947 -0.03148478 -0.03861654 0.02654633 0.00120658 0.02709511 -0.01551326 -0.00377978 -0.01368604 -0.00348406 0.02364173 -0.02090652 -0.02592512  0.01078722 0.04236314 -0.01985583 0.03022061 -0.03005221 0.006043 -0.0670881  0.00987473 0.01426238 -0.00285555 -0.04661964 -0.01164058  0.00754137 -0.00135162 -0.01948397 0.01096999 0.03809864 -0.00720848 -0.0416915 -0.04486503 -0.02832373 -0.04025313 0.00605205 0.00396785 -0.01159763 0.03271646 -0.03847262 0.01957109 0.02658557 -0.02155341  0.01995631 0.00737038 0.01597342 0.00263854 0.00636896 0.05373258  0.00275691 0.01989527 -0.01291264 0.00569549 0.01908039 -0.01879852 -0.02300814 0.04139571 0.02701234 0.03821016 -0.06029118 -0.01203058 -0.01043458 -0.01056286 0.01540081 0.01501409 -0.01555853 0.01664849 -0.00750034 0.02212877 -0.02217893 -0.03139564 0.05606823 -0.00971148  0.02927952 -0.00796719 -0.01874631 0.00608362 0.01914337 -0.00350332  0.00602177 -0.01248364 0.04720192 0.0207623  0.05455285 0.01965329  0.05834498 0.00978973 0.03427067 -0.0009685  0.01676529 0.01367724  0.01738682 0.02918843 0.02923916 -0.01549318 
-0.00824766 -0.00721857 -0.01394569 -0.0192537  0.00278689 -0.00142989 -0.00995732 -0.00323721 0.00568189 -0.00023159 0.00805954 0.00286011 -0.00204188 -0.00987116 -0.01574862 0.00903869 -0.00749893 -0.01295262  0.00966243 0.01614932 -0.00263973 0.02512381 -0.02107915 0.00200926 -0.0337174  0.00183098 0.00399348 -0.00418533 -0.01914758 -0.00964402  0.00662724 -0.00255658 -0.01623706 0.00557522 0.02801506 0.00625002 -0.00782593 -0.01973562 -0.01277523 -0.01206838 0.0040505  0.01781051 -0.00395419 0.02500384 -0.00879298 0.00156149 0.01748664 -0.02756082  0.01731936 -0.00336168 0.00143695 0.00706797 0.0088461  0.02111057 -0.00058639 0.02582452 -0.00010832 0.01243787 0.01916006 -0.01506628 -0.02004662 0.01277526 0.00787412 0.0017286 -0.01364625 -0.00488185 -0.00458554 -0.01300445 -0.01254152 0.01531053 0.0024041  0.00745958  0.00216696 0.01486389 -0.01325005 -0.02243713 0.03389777 0.00051133  0.0153538 -0.0150425 -0.0140424  0.01044826 0.01399091 0.00390798 -0.00543346 0.00072493 0.02132683 -0.00495553 0.02422577 0.0010142  0.03692662 0.0033805  0.01229653 0.007836  -0.00311019 0.01845659 -0.00222943 0.00419228 0.00977694 0.00375249 
-0.02433725 -0.02710956 -0.01292588 -0.06288587 -0.01141685 0.00821623 -0.02465774 -0.02676854 0.02042498 -0.01277653 0.01263285 -0.02147849 -0.01569586 -0.00290457 0.00791222 0.02732483 -0.02653038 -0.02440492  0.01791625 0.04420346 -0.02373819 0.04361218 -0.02767823 -0.00133327 -0.04412381 -0.00129285 0.0185191  0.01056627 -0.02628873 -0.0089753 -0.01015525 0.00194304 -0.0192082 -0.00316521 0.05423512 0.00837571 -0.03743182 -0.03110876 -0.02169325 -0.04345269 -0.01978218 0.02927743 -0.01992058 0.05593159 -0.02562789 0.00644902 0.02237128 -0.04506395  0.04534472 -0.02084318 0.00460433 0.01050349 0.03005449 0.03959854 -0.00267237 0.01955677 -0.01093664 0.02340969 0.03680853 -0.0174373 -0.03406959 0.02372445 0.02831999 0.00826275 -0.05650962 0.00282346 -0.00893585 -0.0236226  0.02644885 0.03717501 -0.00841081 0.01754134 -0.0248866  0.05063403 -0.00951973 -0.03834218 0.04239264 -0.00133175  0.01221729 -0.00260124 -0.00393861 0.00141169 0.00430649 -0.00431152  0.02416986 -0.00015521 0.03301073 0.02247844 0.04920517 0.02100006  0.06176651 -0.0183449  0.01954803 -0.00361865 0.01949953 0.00633907  0.01462561 0.00143126 0.03260133 -0.01841255 
-0.01535318 -0.0049904 -0.05527445 -0.1129175  0.01191971 -0.01593764 -0.04273312 -0.05364352 0.03326553 -0.00404893 0.02719869 0.00078038 -0.01366326 -0.02397548 0.01034564 0.04925308 -0.02616979 -0.01975926  0.0127768  0.06006505 -0.03168641 0.05533439 -0.0346927 -0.02504152 -0.03885921 0.01211322 0.00219606 0.00382954 -0.05139295 -0.00350057  0.03202074 0.00074748 -0.00679   0.01532616 0.06347221 -0.01679832 -0.06366594 -0.06951899 -0.04295631 -0.06301641 -0.00988535 0.00991386  0.00377845 0.07339756 -0.05790928 0.02538344 0.04650497 -0.0524492  0.02778342 0.01945472 0.02664875 0.02024027 0.00749521 0.07689489 -0.00060157 0.05011119 -0.02350666 0.01960463 0.02113419 -0.049073 -0.04180811 0.04771919 0.06158792 0.04095323 -0.07584115 0.00374781 -0.03172101 -0.01950026 0.03421283 0.03874754 -0.01860199 0.05930662 -0.0159769  0.01796068 -0.02354638 -0.08075868 0.09035838 0.00084339  0.03949513 -0.00151572 -0.03167406 0.01104822 0.03738921 -0.01911845  0.03445161 -0.01286514 0.07383585 0.03883464 0.05883558 0.02574654  0.0905463  0.01290436 0.04563316 -0.00264926 0.0287994  0.00297108  0.00579637 0.00905924 0.0516175 -0.03028946 
-0.01751291 -0.00182384 -0.02736867 -0.12158483 0.00939788 -0.01109674 -0.03168628 -0.04127062 0.04008786 -0.00185758 0.04003043 -0.00207309 -0.01213436 -0.00971324 -0.01178881 0.04579196 -0.02045202 -0.03280119  0.00171111 0.05982393 -0.02844667 0.05221574 -0.04933416 -0.00182799 -0.05755882 0.00882675 0.02733778 0.00571498 -0.05920878 -0.00943005  0.02695987 0.00631392 -0.00410184 0.00846258 0.05882964 -0.01478526 -0.05647747 -0.05738086 -0.04737641 -0.07216863 0.00305181 0.0236969 -0.0080867  0.08300687 -0.05033155 0.0306543  0.03965758 -0.07059146  0.05084451 0.00897163 0.00120467 0.01737044 0.00510501 0.08569481 -0.01201358 0.04439275 -0.03476389 0.0371041  0.02061982 -0.04117223 -0.04552119 0.03545214 0.0660397  0.0318948 -0.08255888 -0.0074606 -0.03954756 -0.02603537 0.02348929 0.04231615 -0.00322118 0.0593782 -0.0222112  0.02599903 -0.01856612 -0.08668605 0.09938488 0.00189043  0.04161477 -0.01043763 -0.0317636  0.00959784 0.03215528 -0.02258154  0.0395923  0.00248354 0.07411004 0.03509634 0.08793561 0.04575069  0.10234937 -0.00999846 0.03728225 0.00246215 0.00166657 0.00220012  0.01457148 -0.0011607  0.05072121 -0.02198764 
-0.00875125 0.00504387 -0.02018714 -0.02968769 0.00202069 -0.00114246 -0.01924414 -0.02612727 0.00933834 -0.00557096 0.00975745 -0.00248508  0.00279485 0.00572289 0.00959118 0.01551501 -0.00638096 -0.00885015  0.00477868 0.02458641 -0.00503356 0.01869635 -0.01297903 -0.00617961 -0.02354778 0.00356582 0.00112951 -0.00195825 -0.02068821 -0.00082523  0.00270115 0.00168042 0.00256033 0.00491249 0.01221482 -0.0037858 -0.02227044 -0.01769529 -0.01222582 -0.01549609 -0.00384319 -0.00249368 -0.00276457 0.01114771 -0.01894461 0.00704755 0.00930976 0.00329838  0.00947659 0.006169  0.02100065 -0.00536571 0.00505727 0.01101211 -0.00026459 0.01812503 0.0054383 -0.0062828  0.00406565 -0.01868939 -0.00408075 0.01335738 0.00967698 0.01959176 -0.01976728 0.0012073 -0.00222141 0.00406108 0.00943195 -0.00181381 -0.00887376 0.01193871 -0.00131428 0.00358609 -0.00178442 -0.00566489 0.01531097 -0.01044139  0.01777535 0.00966204 -0.01172406 -0.0013326  0.0132951 -0.00860505  0.00144907 -0.00632377 0.01304151 0.01294154 0.01229058 -0.00052075  0.02372619 0.00805021 0.01268067 0.00311543 0.00904189 0.00056962  0.00112766 0.01437641 0.01343484 -0.00589649 
-0.02280387 -0.00043351 -0.03711311 -0.08257347 -0.01644071 -0.02539034 -0.02810702 -0.04100807 0.02178864 0.01421896 0.01982224 0.00238818 -0.01523581 -0.03541544 -0.0127847  0.04217799 -0.04359201 -0.028357  0.0017647  0.07094886 -0.00864674 0.06267079 -0.02754594 0.00327226 -0.06154036 -0.01561533 0.00606063 -0.00587879 -0.05426141 0.01596561  0.03665937 0.00389542 -0.01953047 0.01119395 0.06621656 -0.00186712 -0.05138635 -0.070123  -0.02798675 -0.06297689 -0.00857702 0.03102357 -0.00542821 0.06003306 -0.03038194 0.02763199 0.02457958 -0.07051507  0.03743925 -0.00406703 0.01905907 0.03061269 0.02181378 0.07735676 -0.0087238  0.06236852 -0.01406719 0.00950538 0.02179537 -0.02685027 -0.04221047 0.03841102 0.03140801 0.04112935 -0.06358022 0.00820318 -0.01503756 -0.01975423 0.02542657 0.02757148 0.01687951 0.04843674 -0.01524942 0.04378428 -0.02188843 -0.06796871 0.09244318 0.01209029  0.04673664 -0.02268871 -0.00677396 0.00546363 0.01986708 -0.00793975  0.02794706 -0.02962663 0.06645827 0.03878505 0.06565774 0.01484685  0.11075532 -0.01733264 0.04620802 0.01132362 0.0249996  0.02464087  0.01845106 0.01870326 0.05243233 -0.02589216 
-0.02904481 -0.00965768 0.02323989 -0.04981417 0.00482058 0.0207276 -0.01001813 -0.03947172 0.02086974 -0.01247356 0.01018032 -0.02262164 -0.0050673  0.00142247 -0.00227783 0.03285728 -0.00524943 -0.03431045 -0.0056273  0.05534454 0.00443659 0.04348194 -0.02319392 -0.00795579 -0.04723139 0.00327916 0.02926519 -0.007487  -0.01546288 0.00590792 -0.01395799 0.00542422 0.00901155 0.01380642 0.04541894 0.01234918 -0.04365385 -0.0250693 -0.04958234 -0.06087753 -0.01510258 0.01416478 -0.03078615 0.02208824 -0.024283  0.02245981 -0.01335595 -0.01430482  0.04728054 -0.00972569 0.00193618 -0.01735025 0.01030516 0.01062573 -0.02727033 -0.00661909 -0.00867491 0.01204195 0.00412645 -0.01292191 -0.02097114 0.002234  0.03979105 0.0267781 -0.03658165 -0.0065354 -0.01882229 -0.01538515 0.0101452  0.01873786 0.00821625 0.02376171 -0.02450226 -0.00179745 -0.00332663 -0.04371019 0.0456596  0.00593006  0.02047811 0.01317416 -0.0105781 -0.01752824 -0.00534819 -0.02050496  0.02177539 0.02049052 0.01731154 0.00897643 0.05472743 0.02417185  0.04074828 -0.0051431  0.00731007 0.03179397 -0.02498446 -0.00190249  0.02702526 -0.00147461 0.01910155 -0.00534676 
-2.00894065e-02 -7.92160071e-03 -6.31376542e-03 -6.39197901e-02  1.63505180e-03 3.73107311e-03 -1.05630402e-02 -3.20761688e-02  1.55333057e-02 -1.24891438e-02 2.15487573e-02 -2.99232583e-02 -2.39292951e-03 7.85405934e-03 -2.85740965e-03 2.09560879e-02  5.04725659e-03 -1.47564709e-02 3.64277558e-03 2.42215302e-02 -7.99307786e-03 2.48345174e-02 8.25684692e-05 -1.50155658e-02 -3.16754431e-02 1.82584506e-02 6.70160586e-03 -5.70098124e-03 -1.76855531e-02 -1.71341747e-02 1.37718963e-02 -1.16928690e-03  9.96674644e-04 -7.12007517e-04 4.75328788e-02 -1.08965579e-02 -4.71045375e-02 -2.43908111e-02 -3.29430550e-02 -3.65252793e-02  9.97726526e-03 -2.07352452e-03 -3.25478129e-02 1.37753123e-02 -2.96068434e-02 2.10509282e-02 4.59468272e-03 -1.56280119e-02  4.01121192e-02 -2.99876905e-03 2.09221449e-02 2.55196495e-03 -4.16778680e-03 4.53328155e-02 1.05117550e-02 1.54425409e-02 -6.23003999e-03 1.72246108e-03 -6.26663561e-04 -2.39849091e-02 -7.04418542e-03 4.23159376e-02 3.76477726e-02 2.00586002e-02 -4.78143357e-02 1.47890337e-02 -5.88861620e-03 -1.34679005e-02  3.40122916e-02 1.76706258e-02 -5.41019579e-03 2.36547384e-02 -2.58639362e-02 2.39575631e-03 -8.85463972e-03 -3.27615105e-02  4.45410833e-02 1.43502485e-02 9.39870160e-03 -1.00099277e-02 -2.74010026e-03 -2.28896388e-03 1.28431013e-02 -2.75276657e-02  1.42089343e-02 2.76821805e-03 2.07768120e-02 1.56281255e-02  4.10385318e-02 2.31717695e-02 5.32459356e-02 3.18628363e-03  1.40148457e-02 -5.05705178e-03 4.12728498e-03 -6.50504231e-03  8.07267148e-03 9.05912276e-03 2.14385428e-02 -1.96106322e-02 
-1.33788418e-02 -1.74744916e-03 -1.18538188e-02 -1.63388588e-02  4.51183924e-03 1.55994585e-02 4.66965605e-04 -1.20654600e-02  1.93442330e-02 2.01164954e-03 1.90536454e-02 7.32528418e-03 -7.89863430e-03 2.18651793e-03 -1.23054702e-02 1.99666396e-02 -1.22499801e-02 -1.96835473e-02 -5.10629406e-03 2.18966007e-02 -7.09382026e-03 2.24842206e-02 -3.18786018e-02 -9.55833704e-04 -2.74347663e-02 4.77521122e-03 2.03482434e-02 9.57425404e-03 -1.45726409e-02 5.83983143e-04 2.98320130e-03 -4.97693662e-03 -8.40883149e-05 1.14889992e-02 1.01164291e-02 -1.57174864e-03 -1.24780489e-02 -2.62647383e-02 -1.15120234e-02 -1.97769366e-02  2.06020894e-03 -7.65109435e-04 -6.96964888e-03 1.91485249e-02 -4.82287537e-03 8.01780354e-03 1.23492274e-02 -1.40428925e-02  1.12867532e-02 3.67518951e-04 -9.99665167e-03 1.21899871e-02  7.76574900e-03 1.08621176e-02 -1.85925234e-02 5.59157401e-04 -1.31525882e-02 9.23308078e-03 1.45668490e-02 -1.61702018e-02 -1.31867016e-02 4.50451684e-04 1.66027732e-02 1.58631261e-02 -1.57667473e-02 -1.39155081e-02 -7.65634608e-03 -9.98060592e-03 -4.78084199e-03 4.00495809e-03 -8.19007400e-05 3.79143213e-03  8.68302188e-04 1.17862457e-02 -8.25484004e-03 -1.06912628e-02  2.79683936e-02 1.99175812e-03 2.19923165e-02 -6.30635442e-03 -1.71799753e-02 5.40260179e-03 -3.71856499e-04 5.85574890e-03  1.14349853e-02 -1.48358609e-04 2.08273828e-02 1.09604457e-02  3.17503065e-02 9.28083155e-03 2.81195790e-02 9.83390212e-03  9.22689307e-03 1.55987097e-02 -1.53823318e-02 8.23468622e-03  8.70613288e-03 -1.18811440e-03 1.45327598e-02 -8.60961154e-03 
0.00496349 -0.02154554 -0.02071062 -0.01711961 -0.00128607 -0.00026337  0.00572999 -0.02365413 0.01511452 0.01440141 0.00560529 -0.00355974  0.01248003 0.00594084 -0.00286265 0.03426285 -0.02620021 -0.00604686  0.00503253 0.02868505 -0.00589321 0.02028302 -0.0050994 -0.00394054  0.00146674 -0.00555719 0.00398946 -0.00959063 -0.01326667 0.02297777 -0.01101367 -0.00544841 -0.00861189 0.0109315  0.03412703 0.01354783 -0.04511356 -0.03514671 -0.00577213 -0.03360286 -0.00544447 0.00185067 -0.03021133 0.0310001 -0.016009  0.00477733 0.01435375 -0.03123034  0.01536186 -0.00938814 0.01337454 0.01666632 0.00897387 0.03750329 -0.01587083 0.02719648 -0.00891888 0.00710009 0.02130549 -0.04021445 -0.03597758 0.02474541 0.01452041 0.03651329 -0.0301483 -0.00237713 -0.01158803 0.00550597 0.00301769 0.02301898 -0.02337248 0.04257328 -0.04280899 0.00957861 0.01856146 -0.01404572 0.02248503 0.00733486  0.0167836 -0.01363998 -0.00188203 0.00495163 0.00261978 -0.00886877  0.02625293 -0.01177038 0.01259118 0.00916452 0.03251678 0.01061893  0.03604958 -0.00056233 0.01689946 0.00807865 0.02402535 0.02982739  0.01069925 0.00023311 0.01509534 -0.02271263 
-0.00415084 -0.00721714 -0.01195167 -0.0677929 -0.00933389 0.0098356 -0.01096779 -0.02702523 0.00189546 0.01186833 0.01581113 0.01682048 -0.01034175 -0.02767227 -0.01264926 0.02045677 -0.0247599 -0.02115842  0.00393566 0.02496677 -0.038271  0.02904263 -0.0257707 -0.00426366 -0.00204501 -0.00065544 0.01294741 -0.01569794 -0.0275298 -0.00335454  0.0100282  0.00724568 -0.02909449 0.0017001  0.03665894 -0.00494811 -0.04046381 -0.04349132 -0.01488963 -0.0194972 -0.0217043  0.02082384  0.01020872 0.05260222 -0.02974086 0.00648038 0.03928086 -0.05378218  0.00936018 -0.01805731 -0.01916797 0.04014479 0.01974586 0.0370727 -0.02799024 0.01102659 -0.02599259 0.01726545 0.04406191 -0.0212012 -0.04503888 0.00276509 0.01373953 0.0162033 -0.05205342 0.00750107 -0.01698956 -0.01191633 0.00833635 0.02912968 -0.00220153 0.02938168 -0.02287457 0.03261496 -0.01313452 -0.02056053 0.05344069 -0.02095696  0.01028724 -0.02013513 -0.02675588 0.00729907 0.02066308 0.00021734  0.02889052 -0.01228948 0.04946037 0.02545582 0.03306572 0.03569017  0.04259923 0.00671788 0.03197215 -0.00753355 0.01167246 0.0086598 -0.00159154 -0.00713799 0.04168262 -0.00637054 
-0.00731524 0.00306633 -0.00773112 -0.03382076 0.01060395 0.00102994 -0.01364991 -0.00924335 0.02196781 -0.00079423 0.01344265 0.00942165 -0.00482623 -0.00161747 0.01311289 0.0204095 -0.00012662 -0.01158115 -0.00139839 0.01836777 -0.00084316 0.03079897 -0.00053237 -0.00816292 -0.01148148 0.00260815 -0.0020576  0.00126889 -0.01533786 0.00326834  0.01554891 -0.00181199 -0.00023081 0.00743537 0.02625578 -0.00680839 -0.02443274 -0.02733115 -0.01867487 -0.02363814 -0.01548782 0.00398476  0.00659079 0.02251849 -0.01677247 0.00957584 0.00290953 -0.01232755  0.00972296 -0.00262922 0.01320307 0.01607891 0.00492354 0.02359011  0.00440788 0.00286728 -0.00086333 -0.00173484 -0.00822297 -0.02570677 -0.00899201 0.00899515 0.01393406 0.02591194 -0.02011115 0.0011499 -0.00544017 -0.0031166  0.02145974 0.00332139 0.01267964 0.03025515 -0.02112323 0.00793947 -0.00905377 -0.02743411 0.0302294  0.00936829  0.00942643 0.00775632 -0.01029638 -0.00162346 0.00707409 -0.01091383  0.01364851 0.0053591  0.02192978 0.01426962 0.01354017 0.01443661  0.02530916 -0.00381722 0.01587374 0.00848433 -0.00867725 0.01401014  0.00205728 -0.00281983 0.02723945 -0.00992475 
-0.01580358 0.01376345 -0.02197413 -0.01693874 -0.00248657 0.00764703 -0.0213982 -0.00483212 0.01309785 -0.00309641 0.02291515 0.01475869  0.00035465 -0.01488972 -0.000931  0.01304328 0.00151567 -0.01306185  0.00108677 0.01263536 -0.00318929 0.02299158 -0.0157063  0.00169778 -0.02895132 -0.01144681 -0.00740348 0.00204394 -0.01741575 -0.00530869  0.00582355 -0.00940436 -0.00756417 0.01629801 0.0139299 -0.00576904 -0.00806352 -0.02780195 -0.02368246 -0.00339084 -0.0001043 -0.00572098  0.01894901 0.01450122 -0.0070546  0.01101874 0.00476801 -0.01137066 -0.00249268 -0.00208088 0.00600658 0.01284913 0.01136942 0.02218534 -0.00641275 0.00464315 -0.00739661 -0.0036129 -0.00449606 -0.01707371 -0.00169328 0.0015027 -0.00031791 0.02229231 -0.01948167 -0.00806541  0.003975  -0.00299338 0.00919978 -0.00132603 0.01740935 0.01088253 -0.00939308 0.00803085 -0.0091196 -0.01535887 0.03357621 0.0004281  0.01873216 -0.00530788 -0.00831526 0.0036405  0.00216436 -0.00285111 -0.00122237 0.00297408 0.0255462  0.0029914  0.02043856 -0.00328792  0.01855074 0.01352007 0.01070253 0.0186874 -0.01191931 0.01122932  0.01698058 0.01355958 0.02295972 -0.00564375 
-0.0252809 -0.01046163 -0.00461269 -0.0803088 -0.00760797 -0.00158136 -0.01821124 -0.0389338  0.03303682 -0.00407217 0.03461051 -0.01659738  0.00625821 -0.01466543 -0.01646934 0.03485391 -0.02685342 -0.05465506 -0.00214885 0.06059849 -0.00886466 0.05760555 -0.03311153 -0.00410045 -0.07225076 0.00790356 0.01934385 -0.00106891 -0.03972168 0.0049841  0.00086401 0.00633682 0.00105952 0.01294612 0.06227179 0.00639435 -0.06846839 -0.04894491 -0.04801726 -0.07765169 -0.00430252 0.02413272 -0.0397792  0.04336451 -0.03750383 0.03223086 0.01032568 -0.04570115  0.04465076 -0.00500175 -0.0161276  0.00497724 0.00636563 0.05631343 -0.03181789 0.01873371 -0.02546197 0.02940909 0.03066576 -0.03151333 -0.03912105 0.04593969 0.04707407 0.04384952 -0.064972  -0.00545785 -0.03057048 -0.0141714  0.01764591 0.02102452 0.00616745 0.04964682 -0.03080428 0.0109656 -0.01197964 -0.07144772 0.09901616 -0.00114106  0.02868441 0.00086546 -0.0316752 -0.00101599 0.00807179 -0.01229542  0.0292426  0.01076983 0.04815585 0.02551801 0.09158141 0.03278427  0.070348  0.00184242 0.0284833  0.02303403 -0.0119631 -0.0018554  0.02072712 0.00282334 0.04421681 -0.02342034 
-0.03384044 0.00191199 -0.02581496 -0.03083356 0.00807335 0.00605912 -0.02699515 -0.04330231 0.03875135 -0.01188089 0.0276361 -0.00602195  0.00884218 0.00355739 -0.0067739  0.02703225 -0.01301231 -0.04606805 -0.01342761 0.05513615 0.00908815 0.0450669 -0.0453133 -0.00065676 -0.08266499 -0.00968303 0.0189657  0.00505939 -0.03951104 -0.00337829  0.03324784 -0.00323917 0.01862614 0.03213822 0.02394753 0.01067699 -0.02976402 -0.0087092 -0.03200476 -0.04086421 -0.00635485 0.00603784 -0.01538656 0.0305125 -0.00629269 0.02885688 0.01022067 0.01346122  0.02854911 -0.0036106  0.0173404 -0.00308089 0.01635113 0.02275622 -0.03145823 0.02575383 -0.010129  0.01496779 0.00640992 -0.0257938 -0.01446694 0.02919844 0.00759496 0.02133133 -0.03732678 -0.00028455 -0.00074692 -0.02047219 -0.00355941 -0.0003907  0.01538567 0.03592113 -0.00191615 0.01025059 -0.0061741 -0.04209119 0.05021183 -0.00172999  0.02585842 0.00811515 -0.02568757 -0.00414294 0.01286888 0.00589196  0.00743529 0.01974141 0.02489692 0.02469716 0.04187603 -0.00888438  0.06644014 -0.00420572 0.00326077 0.03187843 -0.01294631 0.00613125  0.02310007 0.01771102 0.0205915 -0.01166103 
-0.01794476 -0.0011788 -0.02751543 -0.04229505 0.00256788 -0.00195409 -0.01749252 -0.04607505 0.01158573 -0.0048745  0.01518391 -0.00304004 -0.00332837 -0.00987082 0.00798024 0.03327794 -0.02488867 -0.02030938  0.00787174 0.04996098 -0.0059896  0.04406642 -0.0120745  0.00167437 -0.02374002 0.00489582 0.00306252 -0.00401788 -0.02977895 0.00765247  0.00939282 0.00896683 -0.00515966 0.00461827 0.03909524 -0.00332364 -0.05716551 -0.04456498 -0.01693217 -0.03392217 -0.03196123 0.01600722 -0.00671455 0.03459189 -0.02918358 0.02130149 0.0178585 -0.02633533  0.02434419 -0.01258339 0.02835708 0.01252119 0.00694355 0.02657365 -0.00368407 0.03071001 -0.00605165 0.00804429 0.01536775 -0.0348601 -0.03197451 0.01412658 0.0174775  0.03095695 -0.03992963 0.01033379 -0.00706421 0.00430623 0.01969012 0.01401834 -0.0109733  0.02989145 -0.03283953 0.02322203 -0.00232625 -0.02156932 0.04222486 -0.01444041  0.02536409 0.00085214 -0.01943128 -0.00294383 0.00995994 -0.00896489  0.01466487 -0.01026248 0.02348352 0.02529312 0.0321561  0.01175545  0.04538193 0.00794156 0.02254445 0.00060025 0.01377539 0.01338208  0.00566946 0.01502649 0.05055514 -0.01590531 
-1.02585256e-02 2.12224456e-03 -3.32888030e-02 -3.07169184e-02  2.61076307e-03 4.72924579e-03 -1.95800103e-02 -2.47318540e-02  1.68608520e-02 -2.78276298e-03 2.16426477e-02 6.11149520e-03  7.35673402e-03 -1.70112476e-02 -1.86399440e-03 1.90341026e-02 -1.74306035e-02 -1.88937560e-02 7.99984392e-03 2.76307259e-02 -9.80318990e-03 2.82659736e-02 -1.79283209e-02 -1.47482902e-02 -3.11012007e-02 3.54022905e-03 7.68243102e-04 9.33721568e-03 -3.19064520e-02 4.65843314e-03 1.53564839e-02 -5.39839501e-03 -6.50142413e-03 8.31289962e-03 2.18135882e-02 -1.03342822e-02 -1.99249052e-02 -3.71047109e-02 -2.28534769e-02 -2.47186776e-02 -2.74695316e-03 -7.91891664e-03 7.96366017e-03 2.89341733e-02 -1.73643213e-02 8.74546915e-03 2.65371278e-02 -1.42706735e-02  9.16358607e-04 9.21071135e-03 1.43995229e-02 1.18969176e-02  4.48640250e-03 3.96030471e-02 -5.25056105e-03 1.79864932e-02 -8.96318257e-03 7.54690962e-03 7.96215981e-03 -2.02821121e-02 -1.24422908e-02 2.85704192e-02 1.99030563e-02 3.30329649e-02 -3.03345360e-02 -2.12964416e-03 -2.36573420e-03 -4.07082698e-05  6.95833843e-03 6.44391123e-03 -7.18445983e-03 2.02238578e-02  8.77626822e-04 1.36348745e-02 -1.69362910e-02 -3.21216919e-02  4.60296534e-02 6.76083937e-03 2.95934416e-02 -1.12487376e-02 -1.61823630e-02 9.48347151e-03 6.47975039e-03 7.53711304e-03  1.15984529e-02 -1.44492229e-02 2.67737843e-02 9.12736449e-03  3.02907545e-02 7.10794190e-03 4.47098315e-02 2.07531434e-02  2.49132868e-02 2.82904366e-04 1.03146452e-02 5.78887574e-03  1.61762610e-02 1.58643220e-02 2.39791591e-02 -1.04952231e-02 
-0.05015447 -0.00954497 -0.02867408 -0.09251031 -0.02501212 0.02329924  0.00169076 -0.05518903 0.04318334 0.00624539 0.05641345 -0.00601912 -0.02728765 -0.02323435 -0.02514078 0.04180828 -0.04996859 -0.03474993 -0.00345341 0.06619108 -0.03865867 0.0554852 -0.04379048 0.01725122 -0.06749462 0.00143317 0.03524796 -0.01648617 -0.05126074 -0.0113164  0.01800437 0.00417745 -0.01713688 0.0115386  0.0753961  0.01157508 -0.07790624 -0.07282961 -0.02570461 -0.05236579 -0.02685714 0.01496407  0.01019299 0.08688742 -0.05262048 0.03457288 0.04312128 -0.05084043  0.04201922 -0.01898521 0.01120784 0.06664837 0.02722444 0.07278439 -0.03964198 0.03577553 -0.05793708 0.03870361 0.05914959 -0.03231585 -0.06842015 0.03177761 0.03131536 0.0320915 -0.08832162 0.02073606 -0.03214852 -0.01991033 0.0026157  0.05227391 -0.00430677 0.06224765 -0.05370479 0.0443857 -0.00622316 -0.05542222 0.09225465 -0.01042364  0.05207697 -0.02584872 -0.05539379 0.01182063 0.01069575 -0.00731663  0.04650224 -0.00863143 0.06605118 0.03726885 0.06119988 0.02389298  0.08391551 0.00131992 0.04163053 0.01068424 0.01285173 0.0331769  0.03388599 0.01427025 0.05349933 -0.03108172 
-0.00703842 -0.00849655 -0.0038343 -0.04693233 -0.00391745 0.00045945 -0.00541257 -0.0235521  0.00797337 0.01007653 0.02096351 0.00038883 -0.00598792 -0.01003472 -0.02492394 0.02785325 -0.02437481 -0.00844612 -0.00665061 0.03458421 -0.01253378 0.02308029 -0.03017216 0.01880075 -0.03837757 0.00837   0.01947051 -0.00701557 -0.03031516 -0.00259588 -0.00541108 -0.00091803 -0.01368971 0.0145038  0.01708927 -0.00680644 -0.03985579 -0.03001273 -0.02170547 -0.03644503 -0.00701662 0.00784302 -0.01414458 0.03731072 -0.02551405 0.01000778 0.01631906 -0.0420883  0.01959566 -0.00883612 -0.00848372 0.00357996 0.00499278 0.03368038 -0.03017378 0.00478404 -0.02185428 0.01229056 0.02334017 -0.01933071 -0.02770116 0.00536799 0.04400239 0.0029219 -0.03623909 -0.01123556 -0.01525517 -0.00491117 0.00845315 0.00683032 -0.00272527 0.01542654 -0.02374813 0.02909602 -0.006769  -0.0287389  0.05127119 -0.01021053  0.02379697 -0.01304371 -0.00354656 -0.00630714 0.00676819 -0.00054816  0.02435885 -0.01120163 0.03068521 0.01510944 0.05080707 0.02626764  0.03612684 -0.01073749 0.01801274 -0.01004192 -0.01137119 0.01013502  0.02235027 0.0071749  0.01804918 -0.00991254 
-3.53099167e-05 5.57782478e-04 -2.30199285e-02 -2.04834063e-02  9.25001502e-03 3.02687031e-03 -1.22888796e-02 -2.52959765e-02  2.26828251e-02 -4.91400436e-03 2.13843379e-02 8.95604212e-03  3.55462055e-03 -1.16923777e-03 -1.28802424e-03 1.77961588e-02 -2.62538041e-03 -1.92896072e-02 -8.94118194e-03 1.62272435e-02 -3.64673836e-03 2.12476868e-02 -1.73109546e-02 -1.52551346e-02 -2.08218321e-02 4.12604632e-03 2.91800883e-04 2.26137717e-03 -2.60752998e-02 1.38886897e-02 -1.97596080e-03 -8.67656153e-03 -6.26512198e-03 1.34542426e-02 1.45035563e-02 -3.53517057e-03 -1.76369566e-02 -1.95008703e-02 -2.06692908e-02 -2.54713520e-02 -4.07681102e-03 -3.39187123e-03 1.13344821e-03 2.29359008e-02 -1.55048789e-02 1.16154524e-02 6.91738864e-03 -1.05275316e-02  5.93572669e-03 1.27921849e-02 1.67636070e-02 8.88461154e-03  1.49383321e-02 2.59110257e-02 -5.07383468e-03 7.88480602e-03 -2.81815534e-03 7.43253017e-03 -1.69897906e-03 -8.79550632e-03 -1.09122796e-02 1.57695841e-02 1.29824635e-02 2.39063650e-02 -1.25433654e-02 -1.29868435e-02 -5.10542421e-03 -9.23077296e-03  4.15840652e-03 1.55987305e-04 1.13885785e-02 2.30330452e-02 -8.15929286e-03 -1.27230934e-03 -1.32146245e-03 -1.45444395e-02  3.54247056e-02 5.78574883e-03 1.55169135e-02 -5.50905126e-04 -2.86325235e-02 7.21797859e-03 2.56390311e-03 -7.45783607e-03  6.80644577e-03 -3.43505613e-04 1.63083747e-02 1.34147201e-02  7.88641442e-03 8.69248543e-05 3.40109952e-02 2.76189693e-03  1.85865648e-02 6.08864008e-03 4.28144168e-03 5.32029197e-03  9.68279690e-03 1.84784308e-02 1.17128566e-02 -1.01220803e-02 
-0.02632071 -0.00701165 0.00277141 -0.02735353 0.00112857 0.01746502 -0.01260465 -0.02310736 0.01828692 -0.00745872 0.01215201 -0.00425547  0.00703832 0.01061853 -0.01222343 0.03381309 -0.01226512 -0.0245846 -0.00574407 0.04831427 -0.00596009 0.03676258 -0.03678486 -0.01654084 -0.02047533 0.00068813 0.00308766 0.00935755 -0.00343764 -0.01671308 -0.00482906 -0.0160688  0.00263047 0.02513979 0.03105554 0.00403871 -0.03090509 -0.035709  -0.02761629 -0.0290383 -0.00702895 -0.00522791 -0.02765647 0.0288227 -0.0064972  0.0098655  0.01161408 -0.01932028  0.02147216 -0.008812  -0.00762119 -0.00402457 0.01191949 0.02538333 -0.01900538 0.00117761 -0.01322246 0.0121246  0.01245367 -0.03113219 -0.0183302  0.00912724 0.03512315 0.0217154 -0.03519708 0.00107367 -0.01511593 -0.02100149 0.01846718 0.01542384 -0.00296648 0.02263282 -0.00343187 0.01250628 0.00245266 -0.03568352 0.04422062 -0.00262994  0.02730101 -0.02061363 -0.01505764 -0.00696678 -0.00085888 -0.01029889  0.01775504 0.00826544 0.02169242 0.01605514 0.04479145 0.02371599  0.04766911 -0.00143066 0.00145399 0.00207323 -0.00220352 0.00560191  0.01338879 0.00101349 0.0089079 -0.01397701 
-0.02499414 -0.02138412 -0.0276765 -0.03106155 0.01366554 -0.0101201 -0.01242814 -0.01898414 0.02396022 0.00721911 0.0245698 -0.00487872  0.00184059 0.0217414 -0.00027719 0.02003631 -0.0058719 -0.02841439 -0.01119654 0.01679216 0.00857246 0.03869487 -0.00723834 -0.00876401 -0.04947542 -0.00740363 -0.00361616 -0.00093563 -0.02317385 0.00345909  0.02565483 -0.00719222 0.00462768 0.01901915 0.04108591 -0.00104592 -0.03151504 -0.02759713 -0.03684386 -0.05572583 0.00524221 0.009531 -0.01687231 0.02355906 -0.01737092 0.02005178 0.00044778 -0.00779215  0.02353238 0.01398764 0.01662899 0.01426631 0.00609001 0.02256958  0.01099577 0.0274543 -0.01020521 0.00202049 0.00930533 -0.02312106 -0.02746087 0.02737945 0.03213885 0.03189278 -0.01780235 -0.00315036 -0.00248888 -0.01832986 0.02066608 -0.01022021 0.00481211 0.030046 -0.01852125 0.01464469 -0.01895633 -0.03812072 0.04489197 0.02560988  0.00648783 -0.00438171 -0.01538444 -0.0042272  0.01142889 -0.01490628  0.00358542 -0.00029529 0.01962412 0.00707956 0.00763564 0.00030331  0.04654524 -0.00243717 0.01007464 0.00803901 0.01018861 0.02449455  0.01556236 0.01339601 0.01252503 -0.0095828 
-0.02379215 -0.00286074 -0.05237523 -0.08815376 0.01033577 -0.00689644 -0.02927723 -0.05381224 0.03457674 -0.00963427 0.0357802 -0.00849231 -0.00090412 -0.01026858 -0.00058856 0.04347371 -0.03017456 -0.0276979  0.00667698 0.07873238 -0.02145966 0.0535695 -0.04759684 -0.01357479 -0.06648361 0.02573925 0.01132503 0.0003033 -0.05823043 -0.00369899  0.0234026 -0.00528894 -0.00225186 0.01060545 0.05443141 -0.01027309 -0.05699377 -0.06319151 -0.04052857 -0.05398348 0.00558205 0.00981779 -0.02392702 0.06360637 -0.04576015 0.01840455 0.04020319 -0.04994056  0.04117519 0.00877268 0.03298709 0.00863358 -0.00049323 0.0641073 -0.00377532 0.04111854 -0.00768996 0.02049399 0.01933022 -0.04972989 -0.02829886 0.04947949 0.04442519 0.03855534 -0.07242467 0.00490116 -0.02180842 -0.01420566 0.02353407 0.02507803 -0.01729137 0.04229524 -0.00757498 0.01697152 -0.02610583 -0.06386816 0.08560605 -0.0041495  0.04855698 -0.01011005 -0.03709376 0.01530613 0.03121964 -0.0149288  0.01440169 -0.00108408 0.05721727 0.04028151 0.06589861 0.01614086  0.09930666 0.01280851 0.04156643 0.00365964 0.00569307 0.0095613  0.01712082 0.02334751 0.04940367 -0.02954721 
-0.02056049 0.01065437 -0.04089881 -0.04409327 0.00768669 0.00216451 -0.02047928 -0.01793513 0.0465619 -0.01004379 0.04640739 0.00099112 -0.00710277 -0.01929913 -0.00124734 0.03825481 -0.02600478 -0.03235501  0.0123354  0.05483123 -0.00744083 0.05941175 -0.03444368 -0.00062096 -0.05062865 0.00015712 0.00500246 0.01801126 -0.03002926 0.00534921  0.02159562 -0.01646914 0.00560477 0.01242474 0.0185204 -0.01008812 -0.03808767 -0.0355329 -0.02204251 -0.04821048 -0.0200333  0.01795116  0.01292272 0.06893664 -0.0231384  0.03059686 0.01897115 -0.02782977  0.0323247 -0.02611299 0.02826956 0.03497406 0.02128554 0.03304002 -0.01951219 0.02637736 -0.01710114 0.02581983 0.01235387 -0.02483952 -0.03228585 0.00074516 0.01674189 0.0025157 -0.03844794 -0.00150029 -0.0089809 -0.00718785 0.02367033 0.01069913 0.00907108 0.03759833 -0.03267888 0.04128235 -0.02317594 -0.04563721 0.0674741  0.00059056  0.0264676  0.01000588 -0.02680801 0.01987462 0.00141507 -0.00805422  0.00740894 0.0108515  0.0364933  0.04006022 0.04632328 0.01141496  0.06745727 -0.021861  0.0136034  0.00665003 -0.01216683 0.01841627  0.02509406 0.02829075 0.05732035 -0.03227909 
-1.30011896e-02 -2.25986959e-03 -1.88370980e-02 -3.04282699e-02 -5.87750634e-04 -7.93582411e-04 -1.36399986e-02 -2.72162110e-02  6.77191792e-03 -6.56368537e-03 1.19157052e-02 -6.09895075e-03 -2.77135230e-04 4.18732176e-03 8.18433799e-03 1.66691728e-02 -1.08166384e-02 -1.02077974e-02 2.56162626e-03 3.27207856e-02 -3.94753413e-03 1.94474217e-02 -1.64435543e-02 -1.34864356e-03 -2.97441073e-02 9.54840705e-03 2.86405557e-03 2.09761958e-04 -2.32841149e-02 -1.53896655e-03 2.57916842e-03 3.16315889e-03 -1.48955593e-03 2.53235013e-03 1.97073799e-02 -3.17745376e-03 -2.69633532e-02 -2.08635982e-02 -1.44589888e-02 -2.10262891e-02 -2.47739488e-03 1.14202825e-03 -1.31831765e-02 1.47603359e-02 -2.38219574e-02 6.13717409e-03 9.34825465e-03 -8.77372455e-03  1.42854191e-02 4.46746731e-03 1.95879359e-02 -6.66277576e-03  1.33169163e-03 1.41083533e-02 4.17110324e-03 1.59456972e-02  5.38095506e-03 1.39698095e-05 7.88206421e-03 -1.75279360e-02 -7.16373418e-03 1.75430141e-02 1.23874713e-02 2.21321397e-02 -2.63539515e-02 2.94548925e-03 -2.22099875e-03 2.34781345e-03  1.04150642e-02 -1.77370152e-03 -8.52667913e-03 8.48178472e-03 -2.89045554e-03 8.58183950e-03 -4.92466288e-03 -1.24150617e-02  2.20084116e-02 -8.88427533e-03 1.78136788e-02 5.31565817e-03 -1.28649687e-02 -6.64621883e-04 1.12802917e-02 -6.05547801e-03 -2.83151603e-05 -6.65385276e-03 1.46024339e-02 1.27808833e-02  1.82899181e-02 1.24286523e-03 2.98358575e-02 6.79013273e-03  1.59499254e-02 2.22547655e-03 3.78072495e-03 3.77257937e-03  4.37698420e-03 1.46608138e-02 1.82857048e-02 -7.29808584e-03 
-1.21731367e-02 -7.82795623e-03 -8.74571688e-03 -4.96693961e-02 -7.51400553e-03 5.81887830e-03 -8.72085057e-03 -5.84281795e-03  2.07654182e-02 2.31162878e-04 2.32270900e-02 -4.61679825e-04 -2.17369460e-02 -2.26838924e-02 -1.00516342e-02 1.86158437e-02 -1.92990322e-02 -2.19063275e-03 9.18930955e-03 2.98460424e-02 -2.73293424e-02 2.02602502e-02 -1.59424562e-02 3.25352908e-03 -1.57227889e-02 1.52976597e-02 1.61265936e-02 -5.73956361e-03 -1.16249844e-02 -1.05811572e-02 5.02744829e-03 -4.37015621e-03 -9.48245823e-03 5.10063814e-03 3.08014862e-02 -4.72354051e-03 -3.43746580e-02 -3.68627012e-02 -1.51182609e-02 -3.33447754e-02 -1.32177938e-02 4.95569641e-03 -3.02161230e-03 4.58051376e-02 -2.12507434e-02 -2.88088946e-03 9.70185827e-03 -4.25374024e-02  1.17434720e-02 -7.04169739e-03 3.01462621e-03 2.75545977e-02  5.46159223e-03 2.60282252e-02 -1.03098042e-02 -3.09926248e-03 -3.15607116e-02 1.49247702e-02 2.27357447e-02 -1.64900776e-02 -2.07318980e-02 4.54465766e-03 2.68004667e-02 1.42276976e-02 -3.81978713e-02 -2.68054311e-03 -1.55385304e-02 -3.27030499e-03  1.71758812e-02 1.50662353e-02 2.66176206e-03 1.51667325e-02 -1.74822900e-02 2.26386990e-02 -6.15206873e-03 -3.27797532e-02  4.62722518e-02 -3.76287987e-03 2.02792380e-02 -7.58010149e-03 -1.86657496e-02 1.25399176e-02 -9.72719979e-04 1.84033159e-03  1.61072686e-02 -3.26025742e-03 3.08883153e-02 2.26828083e-02  4.52890769e-02 2.84078568e-02 4.17720862e-02 9.12227115e-05  3.13194059e-02 -2.06195284e-04 -1.21018505e-02 1.39780268e-02  1.14570400e-02 6.42243400e-03 3.37783508e-02 -2.15635188e-02 
-0.02644791 0.00551452 -0.01585936 -0.05398533 -0.00261526 0.01113344 -0.03329319 -0.01240957 0.0213276 -0.00413078 0.03609276 -0.00624478 -0.00319713 -0.00247732 0.00907656 0.01306515 -0.00118805 -0.01524315  0.01191274 0.04222769 -0.02125975 0.03107212 -0.02224801 -0.00605822 -0.06133695 0.01520081 0.00947643 -0.00957862 -0.03209881 -0.00920831  0.02377744 0.00319235 -0.00297677 0.01470298 0.04839019 -0.00024006 -0.02419546 -0.02639397 -0.03060796 -0.04335877 0.00702529 0.00761109 -0.01856609 0.04068501 -0.01474174 0.00171394 0.00619354 -0.02695376  0.0241872 -0.0022549  0.01507916 0.00872761 0.00762502 0.01438544 -0.00435375 0.0124178 -0.01659836 0.00889756 0.0169952 -0.02970801 -0.00403597 0.01728843 0.00788317 0.02639187 -0.0509102 -0.00254091  0.0034338 -0.01004339 0.01604994 0.00230714 0.00844528 0.0132437 -0.01630579 0.02511003 -0.0162158 -0.03986774 0.0605863  0.00988631  0.01793933 0.00043006 -0.01408553 -0.00134309 0.00396953 -0.00594288  0.0027882  0.01576404 0.02864235 0.01865266 0.0336455  0.01505306  0.05401789 -0.00157492 0.02029777 0.02103058 -0.02644019 0.0109842  0.02521082 0.01659303 0.02411541 -0.00217082 
-0.01412801 -0.00490361 -0.0179969 -0.03908215 -0.00254038 -0.00300995 -0.00720874 -0.02696692 0.00715903 -0.00164877 0.01257496 -0.014145 -0.00748035 0.00606075 0.01496046 0.02466361 -0.01674135 -0.01310046  0.0024203  0.03092956 -0.00643936 0.01927564 -0.01799669 -0.00126658 -0.02830312 0.01110223 0.0069368  0.00209301 -0.02587906 0.00170488 -0.00693293 0.00798357 -0.00654728 0.00072367 0.0250154 -0.01105817 -0.03068385 -0.02611695 -0.01120033 -0.01886103 -0.00652676 0.00071055 -0.01831359 0.01720984 -0.03001549 0.00473105 0.01691411 -0.0216962  0.0099776  0.00963435 0.00958162 -0.01138321 0.00115828 0.02509329  0.01387659 0.0141328  0.00303266 0.00198836 0.00985984 -0.01007757 -0.00502096 0.02499362 0.02249798 0.03240057 -0.03788715 0.0048902 -0.00583818 -0.00017062 0.02084896 -0.00074056 -0.00915962 0.00371428 -0.00581243 0.00987349 -0.00348022 -0.01566091 0.02587424 -0.00953472  0.01105552 0.00899469 -0.012433  -0.01101803 0.01139192 -0.00626646  0.01045648 -0.00992337 0.0320572  0.01099035 0.02473351 0.00881992  0.02888028 0.0063309  0.01951417 0.00159883 0.00872108 -0.00262098 -0.00743312 0.00666961 0.01920578 -0.00230665 
-0.02920428 0.00123696 -0.01663805 -0.07868817 -0.00067795 0.02124439 -0.03410372 -0.03701496 0.03042604 -0.00099907 0.02056518 -0.00722448  0.01375786 -0.00225984 -0.00734646 0.01529762 -0.00910195 -0.03213878  0.01178922 0.04448351 -0.01775973 0.04512132 -0.02339724 -0.00279061 -0.05537748 0.01937428 0.03547271 -0.00587406 -0.03644411 -0.01241195 -0.00576652 0.00160155 -0.00884051 -0.00172985 0.03461654 -0.01103508 -0.0388932 -0.03803688 -0.03489869 -0.0653233  0.00171258 0.019815 -0.01186738 0.02032574 -0.03263705 0.0147752  0.01536663 -0.01199016  0.04005093 -0.01216157 0.01563375 0.00303217 0.01174342 0.03915834 -0.00990528 0.00900884 -0.00833148 -0.00185323 0.01961895 -0.02412743 -0.01570581 0.01319438 0.02052747 0.02677352 -0.05398231 0.00877836 -0.01915814 -0.00016247 0.01417722 0.01886848 -0.00085104 0.02462248 -0.01493922 0.0159257 -0.0205994 -0.02240798 0.04469142 -0.01755375  0.03822031 0.01593228 -0.02712535 0.00100786 0.00537448 -0.01213736  0.02580831 0.00277394 0.02990584 0.01677051 0.04905174 0.02664953  0.03378161 0.00106123 0.03297549 0.01355839 -0.01756456 0.01980719  0.02295032 0.00976392 0.04465641 -0.00355489 
-0.02831047 -0.03219233 -0.0335088 -0.1261438 -0.02139215 0.01118768 -0.03210137 -0.05336426 0.06411287 0.00060044 0.06863141 -0.00844163 -0.01907836 -0.01804769 0.00062803 0.06568335 -0.05034186 -0.05255876  0.02491253 0.05589461 -0.02884251 0.05866424 -0.06264172 0.003244 -0.0735523  0.01826238 0.02089374 0.00392603 -0.0512052 -0.00889332 -0.0186817  0.00138283 -0.02102276 0.0187681  0.07973783 -0.00543575 -0.09202  -0.07763575 -0.04922174 -0.1064612 -0.00136861 0.00958665 -0.05119922 0.08263876 -0.04720164 0.01483425 0.03289067 -0.04822131  0.05378179 -0.0029581 -0.02062824 0.03276723 0.01460312 0.093124 -0.03342656 0.00620124 -0.05409427 0.0236591  0.05941624 -0.02665059 -0.03852024 0.05543046 0.06417058 0.08398642 -0.09890145 0.00087493 -0.03252755 -0.00297773 0.03529889 0.02647335 0.00401301 0.06734332 -0.04115215 0.03769987 -0.00704867 -0.0735433  0.10937455 -0.00143504  0.03692223 0.00344126 -0.03709268 -0.00034768 0.00691878 -0.01394443  0.05015783 0.01741275 0.06842579 0.03336893 0.11599138 0.06593458  0.08148407 0.00917537 0.07315556 0.01613427 0.01029116 -0.00055127  0.02094191 0.01942717 0.06170324 -0.04280925 
-0.00813832 -0.00070451 -0.02861122 -0.06017938 0.00644277 -0.00558605 -0.01041803 -0.02050413 0.01724475 -0.00238223 0.02137338 -0.00283301 -0.00473974 -0.01116924 -0.00629032 0.02265111 -0.01939252 -0.01567027  0.00108704 0.03726479 -0.0133834  0.02722543 -0.01984094 -0.00770537 -0.02623577 0.00451347 0.01022559 0.00311758 -0.034299  -0.00348865  0.02623948 0.00412536 0.00215675 0.00094401 0.03479373 -0.00882475 -0.02790444 -0.03496778 -0.02766605 -0.04078263 0.00481882 0.00709505 -0.00439277 0.04900719 -0.02398732 0.01857252 0.02639407 -0.04141243  0.0202154  0.00818077 0.0091686  0.02014186 -0.00372827 0.05038852 -0.00520193 0.03174224 -0.01702598 0.0192652  0.00840444 -0.02184977 -0.02575329 0.02811812 0.03314713 0.01959275 -0.04863211 0.00441959 -0.02073134 -0.01245645 0.01452192 0.02456229 -0.00511292 0.03422386 -0.01237876 0.00897227 -0.00999305 -0.05485032 0.05767517 0.00821417  0.02373863 -0.00937852 -0.01924658 0.01116084 0.02065957 -0.00828016  0.02457241 -0.00204747 0.03896283 0.01796111 0.03698641 0.02027423  0.06257644 0.00230017 0.02618792 -0.00043688 0.00595181 0.00236881  0.00886582 0.00399703 0.02943003 -0.01709836 
