-0.03961607 -0.00908705 -0.00931691 -0.08732527 -0.01932294 -0.00116712 -0.02885957 -0.0401751  0.01690783 -0.00292113 0.04062664 -0.01422422 -0.02521564 -0.02273453 0.00199809 0.01869309 -0.041164  -0.04024976  0.01706624 0.04757534 -0.01618758 0.03902489 -0.02838554 -0.01391735 -0.03180895 -0.01208143 0.03498182 -0.01671299 -0.03003164 0.00251241  0.01259095 0.00959191 0.00848841 -0.00813205 0.04929578 -0.00571536 -0.05034737 -0.0620328 -0.05417307 -0.06589201 -0.03035216 0.03171243 -0.00656834 0.06200763 -0.04684907 0.03508418 0.03652959 -0.03336054  0.03138669 -0.00774823 -0.01372783 0.02762509 0.02343737 0.05620353 -0.01313817 0.0186759 -0.0327165  0.0265769  0.02881732 -0.01548544 -0.04762584 0.00964232 0.0326164  0.02125966 -0.06789152 0.01987518 -0.01869456 -0.00616436 0.0192684  0.02589664 -0.00240245 0.0309633 -0.0263588  0.03330934 -0.01715139 -0.05468217 0.05313104 -0.00706568  0.02612492 -0.00470985 -0.01870165 -0.00194903 -0.00587254 -0.00207842  0.04910078 -0.00254065 0.05907268 0.01250768 0.06082066 0.03512352  0.06184764 -0.00091535 0.0449438  0.01277932 0.01264468 -0.00399341  0.02781351 -0.00093619 0.05032401 -0.04141485 
-0.00152437 -0.00350581 -0.00486258 -0.01790787 0.00278359 0.01362521 -0.00247243 -0.01440797 0.00243713 0.00168386 0.00467463 -0.00118357 -0.00196143 -0.00584407 -0.00438068 0.00558954 0.00283079 -0.01427925 -0.0006493  0.00444231 -0.00399604 0.00991128 -0.00377463 -0.00214017  0.00223219 0.00377621 0.01145748 -0.00309277 -0.00559582 0.00010103 -0.00286345 0.00525852 -0.00211896 0.00351149 0.01483476 -0.00225855 -0.0179372 -0.01128958 -0.01079501 -0.01134822 -0.01557225 0.00432747  0.00041486 0.01324104 -0.00780325 0.00394469 0.00420143 -0.01188475 -0.00316811 -0.00248854 -0.00269622 0.01014502 0.00764002 0.01155356 -0.00821708 -0.00525077 -0.00862892 0.00391476 0.00678338 -0.00484442 -0.01304855 0.00685076 0.006846  0.01361979 -0.01584809 0.00038943 -0.0029301 -0.00339421 0.0054066  0.00034416 0.00160198 0.01319422 -0.01230386 0.00770606 0.00217255 -0.01209011 0.01964599 -0.00390287 -0.00090171 0.00065747 -0.00964089 0.00081029 0.00503638 0.00604338  0.01248454 -0.00073729 0.00949777 0.00276699 0.01042444 0.01520084  0.01029095 0.01104588 0.01053427 0.00257186 -0.00017208 0.00624037  0.00073597 -0.00629954 0.01675435 -0.00502218 
-1.97051223e-02 -2.95156264e-03 -1.43607045e-02 -4.76441570e-02 -9.00152512e-03 1.75649486e-02 -2.42918264e-02 -2.49486882e-02  2.46529710e-02 -3.02623236e-03 3.79600935e-02 -4.41020401e-03 -1.42316744e-02 -7.06747593e-03 4.23907943e-04 2.77253874e-02 -9.86272190e-03 -1.11253932e-02 5.96789597e-03 4.03347313e-02 -1.62786935e-02 3.81060801e-02 -4.32073809e-02 -1.68353394e-02 -3.36152427e-02 1.82318706e-02 1.34831052e-02 4.89026424e-05 -1.51974373e-02 -9.52058705e-04 -7.33086187e-03 -3.12566850e-03 -1.12859653e-02 4.07513091e-03 3.37848067e-02 -1.56455617e-02 -3.43182981e-02 -3.35325189e-02 -3.24199237e-02 -4.63144481e-02 -1.04687586e-02 3.22556309e-03 -1.16120158e-02 2.35750098e-02 -1.41261388e-02 7.70539371e-03 1.44409137e-02 -3.24573889e-02  2.17456184e-02 -8.81027989e-03 1.14445193e-02 2.00899690e-03  2.16236096e-02 1.49862505e-02 -1.41117605e-03 3.50257475e-03 -1.23320734e-02 1.76903680e-02 2.20878851e-02 -1.29664643e-02 -5.72781777e-03 1.25994338e-02 2.19837353e-02 1.63140651e-02 -4.21776734e-02 4.56382148e-03 -8.80581886e-03 -1.04232235e-02  2.23294478e-02 1.08968085e-02 1.42974863e-02 -9.58386925e-04 -4.40098345e-03 2.79907342e-02 -7.45745469e-03 -2.41032057e-02  5.66620231e-02 -4.18386282e-03 2.13669594e-02 -1.64725594e-02 -1.30275898e-02 1.22784749e-02 -8.30244273e-03 2.29769293e-03  7.67315738e-03 -7.00905593e-03 2.84606013e-02 1.71787143e-02  5.36994599e-02 2.29820218e-02 4.85976152e-02 -1.66100555e-03  1.70116778e-02 1.03786318e-02 -1.54007440e-02 1.54321780e-02  1.57427359e-02 1.89366844e-02 3.61426286e-02 -1.99426133e-02 
-1.47605995e-02 -7.61365704e-03 -1.89594049e-02 -3.00196558e-02  1.01795578e-02 2.73807091e-03 -2.91996319e-02 -2.02060845e-02  6.69053663e-03 -2.12638117e-02 1.62067320e-02 -1.41871450e-02 -9.06508323e-03 -1.09948851e-02 5.41297765e-03 1.52182262e-02 -5.06234542e-03 -2.91330721e-02 1.74778793e-03 1.56192202e-02 -9.99465119e-05 3.34331989e-02 -2.04930212e-02 -9.62641835e-03 -3.64681818e-02 7.88554456e-03 9.43874754e-03 -7.33490195e-03 -2.64087729e-02 5.20345895e-03 -1.63138136e-02 -1.19214058e-02 -8.49997066e-03 4.38303268e-03 4.22581024e-02 -8.72167014e-03 -2.55598687e-02 -3.35189961e-02 -3.53109725e-02 -2.97677387e-02 -4.56447806e-03 -1.58448739e-03 -2.28392333e-02 2.52137557e-02 -2.41933353e-02 1.49503583e-02 5.02582826e-03 -3.15186307e-02  2.48908475e-02 2.84864753e-03 9.29235760e-03 2.76331994e-04  1.94800720e-02 3.58077176e-02 1.30367018e-02 9.91701614e-03 -2.21971935e-03 8.95786192e-03 9.69936326e-03 -1.02763465e-02 -9.45509225e-03 2.71476749e-02 2.75232028e-02 2.77785119e-02 -2.97246221e-02 -2.13862788e-02 -6.29213918e-03 -1.81173515e-02 -1.44532474e-04 8.05751979e-03 1.57709271e-02 8.06445070e-03 -2.05378234e-02 3.69659252e-03 -4.59299469e-03 -1.81231834e-02  3.98761109e-02 1.02940258e-02 2.21644249e-02 -1.07927751e-02 -1.53346825e-02 3.14034661e-03 6.28467370e-03 -6.38116244e-03  9.10352357e-03 4.58456017e-03 2.28515342e-02 1.82794617e-03  3.83332931e-02 5.63183287e-03 4.79907990e-02 1.27687966e-02  2.30089743e-02 4.74316627e-03 -2.97473976e-03 -1.17806101e-03  1.18294926e-02 1.09123699e-02 1.83932390e-02 -1.46314576e-02 
-2.0896655e-02 -6.8665184e-03 -3.1603079e-02 -8.1162065e-02 -1.2586600e-02 -7.7231852e-03 -2.4712007e-02 -2.7112732e-02  3.4716837e-02 -1.8151395e-03 3.9440107e-02 -2.0982716e-02 -1.0059628e-02 -1.3818470e-02 -2.8403555e-03 3.8688023e-02 -3.2312930e-02 -2.7625944e-02 1.9549613e-03 4.9682789e-02 -1.5276997e-02 3.3885930e-02 -3.3972275e-02 -1.9329416e-02 -4.7502775e-02 1.7899584e-02 1.7402615e-02 4.5615626e-03 -4.1403733e-02 1.1954894e-02 -5.4813554e-03 -1.0473062e-02 -1.6626654e-02 -5.4615659e-05 5.7088073e-02 -6.1152554e-03 -4.2284578e-02 -6.0545344e-02 -4.2648803e-02 -7.6497592e-02  4.9946988e-03 3.7913008e-03 -3.6806755e-02 5.7120271e-02 -5.0330862e-02 4.2357091e-02 2.5537254e-02 -5.0930277e-02  4.0298104e-02 1.0863421e-02 1.3451088e-02 1.4209908e-02  2.0357205e-02 8.1378192e-02 6.1404542e-03 2.6628632e-02 -1.0915267e-02 2.4962490e-02 2.6379505e-02 -2.1197557e-02 -2.9059066e-02 3.8021296e-02 5.4997314e-02 3.5515863e-02 -6.6259198e-02 -1.7000662e-02 -3.3833757e-02 -2.7406853e-02  2.3820693e-02 3.4261525e-02 7.2817961e-03 3.1719077e-02 -5.8206734e-03 1.5892645e-02 -1.2599701e-02 -5.7274517e-02  8.2054667e-02 1.6332466e-02 5.5473287e-02 -1.9508783e-02 -1.7082220e-02 2.0786926e-02 -2.7147173e-03 -1.2729502e-02  3.6850274e-02 -6.7715286e-03 6.0479876e-02 1.5880065e-02  6.8108149e-02 3.2083716e-02 8.6953007e-02 -1.1673363e-02  4.1091308e-02 8.7477397e-03 1.7048392e-02 7.1226377e-03  2.2035638e-02 1.9638773e-02 2.3248211e-02 -3.5526119e-02 
-0.02690035 -0.01012083 -0.02285357 -0.07714333 -0.02984053 -0.0004822 -0.03218669 -0.03858994 0.00205671 0.02250571 0.04291579 0.01322957 -0.00972215 -0.03119831 -0.03908948 0.01117993 -0.04334305 -0.05284782  0.00409442 0.04669808 -0.0312263  0.06716298 -0.02879822 0.03462642 -0.07062545 -0.01629408 -0.00169032 -0.01650996 -0.03747511 -0.01062931  0.01020669 0.00989853 -0.04115684 -0.00496874 0.048218  -0.00333159 -0.06216671 -0.06704019 -0.02477819 -0.05346895 -0.01741312 0.04217043 -0.00905327 0.06883666 -0.03882286 0.02838624 0.05177594 -0.07838712  0.01648012 -0.0289347 -0.01698775 0.04495366 0.01145942 0.06069917 -0.03390103 0.02668444 -0.03763151 0.04095218 0.0467002 -0.02341648 -0.07743552 0.00385394 0.01938814 0.02939012 -0.07120604 -0.0082374 -0.02305735 -0.02193718 0.0058315  0.00728382 0.01313644 0.03164147 -0.03639061 0.07898129 -0.0074519 -0.04283609 0.08765542 -0.01546574  0.0146237 -0.03189977 -0.02571061 0.00578471 0.01787665 0.01840273  0.02605595 -0.02589777 0.06242368 0.03183245 0.06874905 0.05073715  0.06401093 -0.00192294 0.05785457 0.00471046 0.00903416 0.02871305  0.01694555 0.01665379 0.06168646 -0.01095598 
-7.64286285e-03 -6.93452195e-04 -1.52497403e-02 -3.50858048e-02  5.29342843e-03 -4.91078570e-03 -1.79177206e-02 -6.59303693e-03  4.13783873e-03 -2.61435169e-03 1.10619739e-02 2.36675842e-03 -2.19804631e-03 -1.76746715e-02 -4.26946254e-03 2.98703043e-03 -1.13371126e-02 -1.12624932e-02 1.06788175e-02 9.88908950e-03 -1.74508058e-02 2.32702177e-02 2.89924676e-03 -3.12085403e-03 -1.00609176e-02 -1.12811886e-02 4.94938018e-03 2.63519282e-03 -1.87687520e-02 7.87792786e-04 2.49424502e-02 -6.15235331e-05  4.21467645e-04 4.53752902e-04 1.59687661e-02 -1.21124135e-02 -1.50275482e-02 -2.30261516e-02 -1.97690520e-02 -1.87083371e-02 -4.13106382e-03 1.47559578e-02 1.64572261e-02 2.83384547e-02 -1.59505662e-02 1.83053184e-02 2.31280904e-02 -3.00179534e-02  4.14240826e-03 -1.86289102e-03 -1.33195473e-03 2.36542691e-02 -7.04077655e-04 3.22789662e-02 2.92921555e-03 2.34803688e-02 -1.26677817e-02 1.19237220e-02 5.88264957e-04 -1.55434329e-02 -2.94378791e-02 3.30368569e-03 1.39912786e-02 3.56085692e-03 -2.10305452e-02 -2.84961495e-03 -7.70999026e-03 -2.88182218e-03  9.31657292e-03 7.62918498e-03 -2.81245518e-03 1.96729433e-02 -1.52343102e-02 2.05602441e-02 -1.99738462e-02 -3.01548131e-02  2.98171472e-02 8.92324373e-03 5.51365875e-03 -4.15401254e-03 -1.82202086e-03 9.55144875e-03 1.47956796e-02 -7.69527280e-04  1.11428183e-02 -9.64517798e-03 2.61146259e-02 8.60822760e-03  2.42572222e-02 1.38657764e-02 3.77868488e-02 -7.04433629e-03  1.42134456e-02 -4.16484755e-03 1.49713014e-06 5.31849917e-03  6.03365852e-03 -5.94145199e-03 2.78799795e-02 -1.04864771e-02 
-1.63526405e-02 -2.67861481e-03 -2.42525116e-02 -5.99576160e-02 -8.24690796e-03 -6.33039279e-03 -2.01736446e-02 -3.12293600e-02 -7.91769824e-04 -1.31393888e-03 1.02255084e-02 -1.30622676e-02  3.85669083e-03 -6.79230085e-03 1.15626631e-02 2.30010152e-02 -1.77945625e-02 -1.70848817e-02 4.09024098e-04 4.05136086e-02 -1.02150850e-02 2.83014122e-02 -2.23581642e-02 -7.04965275e-03 -2.11334992e-02 4.56735305e-03 4.75447485e-03 -4.46749944e-03 -2.72409730e-02 4.29175003e-03 2.35307263e-03 1.02977315e-03  2.13283999e-03 -2.93166586e-03 2.44814660e-02 -1.18556963e-02 -4.60081995e-02 -4.01971862e-02 -2.40412876e-02 -3.28094736e-02 -5.25008934e-03 -3.72758019e-03 -1.78912431e-02 2.70490479e-02 -3.69821861e-02 1.35358199e-02 2.37394683e-02 -3.10498178e-02  7.96184316e-03 8.86380393e-03 8.48152488e-03 7.40101142e-03  7.22262496e-03 3.14100720e-02 -2.40287278e-03 2.61433311e-02 -4.42384742e-04 -1.01214193e-03 2.48494036e-02 -2.13755183e-02 -1.69207118e-02 3.14060189e-02 2.71968096e-02 3.52377929e-02 -4.84630950e-02 3.76500236e-03 -1.05427606e-02 -1.02333361e-05  2.53108200e-02 -2.45099509e-04 -1.02567263e-02 1.31454784e-02 -4.84830234e-03 9.11465753e-03 -6.28566183e-03 -2.75467280e-02  4.26074043e-02 -1.42446365e-02 1.90411545e-02 3.10133724e-03 -5.54149458e-03 -1.46510883e-03 2.00860277e-02 -5.34823304e-03  1.94122735e-02 -1.57278571e-02 3.28575745e-02 1.80759393e-02  4.23328578e-02 1.76066700e-02 4.81563732e-02 1.52937938e-02  3.57559212e-02 -2.56187376e-03 1.00978985e-02 -6.44838763e-03  8.59998818e-03 1.00254575e-02 3.20017412e-02 -2.19753049e-02 
-0.0130432 -0.02351777 -0.02860462 -0.1045435 -0.02333439 -0.01162603 -0.03425323 -0.03720812 0.02719156 0.02709356 0.02693202 0.00045717  0.01996939 -0.03309093 -0.02367678 0.03204018 -0.04509971 -0.03337932  0.0285089  0.04265402 -0.046049  0.04265974 -0.02601939 0.01772474 -0.04473485 -0.00359408 0.00574615 -0.00030411 -0.05106052 -0.0091376 -0.00615018 -0.00022046 -0.03376498 0.006527  0.04627395 -0.00656867 -0.0714215 -0.06315149 -0.02706082 -0.0658538  0.00769854 0.02268137 -0.01084949 0.07443557 -0.05380394 0.01749875 0.05922908 -0.06788922  0.0157434 -0.01034419 -0.01926616 0.02607816 0.003556  0.10220266 -0.03245434 0.02792698 -0.04586743 0.03522456 0.0443808 -0.03437316 -0.06698422 0.03911038 0.04137408 0.0441097 -0.07925748 -0.01285045 -0.04110329 0.00562742 0.02237065 0.03730322 -0.01683251 0.06095481 -0.04467928 0.05030194 -0.00969478 -0.05880478 0.08992209 -0.01399271  0.02435464 -0.01256433 -0.02393375 0.01209617 0.02285872 -0.00234216  0.03534104 -0.02233347 0.0636953  0.03044553 0.09092094 0.06552427  0.05551689 -0.00323791 0.0652216 -0.01023747 0.02355156 0.02646891  0.02034783 0.00094632 0.05742478 -0.02317206 
-0.04485192 -0.00587155 -0.02612338 -0.07239318 -0.01676239 -0.01328662 -0.01068988 -0.04015906 0.02908765 -0.00786237 0.04342083 -0.0262154  0.01108495 0.01373511 0.00127724 0.0202241 -0.01456869 -0.05478216  0.01153714 0.07015789 -0.00759297 0.03593528 -0.05610321 -0.00928213 -0.10649733 0.01227233 0.04315076 -0.008849  -0.06426548 -0.00431867  0.01121083 0.0031446 -0.01097864 0.00976679 0.05337786 0.02200702 -0.04511435 -0.03599849 -0.04464926 -0.06592436 0.02559774 0.02252959 -0.04373029 0.07617398 -0.04806566 0.03382641 0.01499869 -0.02098935  0.0399491 -0.01386318 0.02403254 0.00868286 0.0271678  0.05369841 -0.01425673 0.04346815 0.01155322 0.02112408 0.03028141 -0.02274263 -0.03221281 0.04210231 0.01126068 0.04070785 -0.06434223 -0.00932541 -0.00698588 -0.019312  0.01970718 0.02034123 0.02226805 0.03654047 -0.00724274 0.01655608 -0.01692921 -0.03823325 0.06333648 -0.02676556  0.03507449 -0.01909597 -0.03981965 0.00228093 0.00514564 -0.00877546  0.01415815 -0.00070804 0.06681709 0.03377862 0.06937757 0.00732585  0.10440335 -0.01197505 0.00726386 0.03552901 0.02301076 0.01796595  0.02640142 0.0308211  0.0125002 -0.0335588 
-0.01909103 -0.00824596 -0.02189448 -0.03777662 0.01115524 0.01726054 -0.01979952 -0.01863956 0.01966473 -0.0037992  0.01415157 -0.02210328 -0.00808272 -0.01136857 0.01004269 0.01905113 -0.00591831 -0.01667219  0.00618542 0.01555605 -0.02070236 0.02141586 -0.00848951 -0.01266044 -0.00839732 0.013152  0.01590107 0.00598354 -0.02519719 -0.00547272  0.00559656 -0.00635683 0.00456661 0.00231151 0.03134971 -0.01862332 -0.0220333 -0.03520257 -0.03240838 -0.02382804 -0.01149499 -0.00289439  0.00481584 0.02406144 -0.01194198 -0.00342661 0.01814547 -0.02332346  0.01083411 -0.00071025 0.00511948 0.00045907 0.00563393 0.02821423  0.01131207 -0.00510791 -0.01886876 0.01019432 0.0053292 -0.00623448 -0.00257723 0.02279067 0.03442146 0.02560448 -0.04144572 -0.00078804 -0.01072093 -0.00693996 0.02521854 0.01448037 -0.00385627 0.00847102 -0.01318562 0.01363437 -0.01585547 -0.02144115 0.03355806 0.00047042  0.0199259 -0.0001493 -0.01203958 0.0056345  0.00059635 0.00646893  0.01496046 -0.00306916 0.01938458 0.00142128 0.03225462 0.02007139  0.0254033  0.01326395 0.01067733 -0.00194238 -0.00370851 0.00497373  0.01245953 -0.00494437 0.03997003 -0.01297673 
-0.01193289 -0.01807261 -0.016198  -0.08908982 -0.00589785 0.01003265 -0.00818132 -0.03169233 0.00336803 0.01696714 0.02064499 0.01292391 -0.00171422 -0.03420301 -0.02753139 0.02719862 -0.03691688 -0.03581977  0.00660757 0.03394369 -0.04464715 0.03025617 -0.03605018 -0.00373176 -0.0158353 -0.00652337 0.0178396 -0.01701101 -0.0493276 -0.01342163  0.01461084 0.00607919 -0.02613407 0.00771862 0.04230409 0.00528293 -0.05112982 -0.05167937 -0.0262422 -0.03033333 -0.01153368 0.01927812 -0.00095204 0.07175225 -0.03016056 0.00544868 0.04681418 -0.06600495  0.01932122 -0.01695942 -0.03125975 0.04716109 0.01948542 0.06437652 -0.0450693  0.03290572 -0.02797495 0.01792437 0.06403463 -0.02846611 -0.05193623 0.02792028 0.02606196 0.02874825 -0.06862081 0.00582543 -0.02457955 -0.00719251 0.00815103 0.04302088 -0.00286974 0.03873679 -0.02356271 0.02870797 -0.01723492 -0.02888406 0.07849331 -0.02730324  0.02170751 -0.02740864 -0.03595398 0.01685054 0.0229064 -0.00056785  0.03020416 -0.01168788 0.05997483 0.01871188 0.06258737 0.03963012  0.06965183 0.02183614 0.04115003 -0.0043079  0.01890125 0.01281006  0.00617017 -0.00814675 0.03935998 -0.01196714 
-0.00704884 -0.0001663  0.00208514 -0.0334992  0.00033341 0.00957957 -0.01227159 -0.02036955 0.02263349 -0.01618721 0.0182138 -0.01440783  0.00128718 0.00507405 0.00050815 0.02432388 -0.00217524 -0.01081019  0.00194351 0.02239352 -0.00722092 0.01035803 -0.00094429 -0.00734379 -0.02361852 0.02270581 0.00626002 -0.00621866 -0.01913538 0.00826418 -0.01342043 0.00229255 -0.01332672 -0.00279285 0.02732934 -0.00294536 -0.01822175 -0.02235329 -0.0226612 -0.03228195 -0.00358153 -0.00804743 -0.01752696 0.0029304 -0.01684475 0.0048414 -0.02109865 -0.01240489  0.03404223 -0.00206769 0.02194361 0.00148977 0.0164479  0.0185537  0.00037094 -0.01358203 0.0002541 -0.00938179 -0.00096753 -0.00509152  0.00163362 0.01666725 0.02429788 0.0254796 -0.0166373 -0.00852414 -0.00858094 -0.00273444 0.01272235 0.00675682 0.02067281 0.00632961 -0.02248405 0.00073818 -0.00118926 -0.00174503 0.02710184 0.02000959  0.0177132 -0.00486564 -0.00928366 -0.00542335 -0.02080605 -0.02294325  0.01255467 0.0122426  0.00377148 0.01288192 0.0225307  0.02222728  0.03062156 -0.00672739 0.01725128 -0.00169597 -0.00835725 0.00220141  0.01900095 0.02957929 0.00329221 -0.0032899 
-1.0857558e-02 6.1154077e-03 3.2944623e-03 -1.5755968e-02  5.7804864e-03 1.2088460e-02 -9.3508195e-03 -1.1455595e-02  3.9403457e-03 -3.7106924e-04 1.0679820e-02 -4.6979152e-03 -3.3817852e-03 3.3683751e-03 -4.5066830e-03 5.6279539e-03  1.2640359e-02 -8.4965602e-03 9.9731225e-04 9.4972393e-03 -3.3480038e-03 3.7379032e-03 -1.2664092e-02 -1.9600573e-03 -6.6327541e-03 7.2742789e-03 4.8706559e-03 -1.4274454e-02 -6.2504462e-03 -4.0848320e-03 -7.5350464e-03 8.8392310e-03 -5.9186425e-03 9.4677834e-03 2.6935725e-02 2.4877192e-04 -1.7619224e-02 -3.7701239e-03 -1.6507365e-02 -5.6736874e-03 -1.6705573e-03 -3.8967875e-03 -9.0516815e-03 -1.0502747e-03 -1.8138797e-03 1.1294471e-03 -1.0351590e-02 -4.9054609e-03  1.2659179e-02 1.7257916e-03 1.3731046e-03 -1.0987790e-02  9.3087880e-03 -4.4616312e-03 1.5740143e-04 -6.3366191e-03 -9.1381334e-03 9.4501104e-04 7.9274760e-05 -4.5393738e-03  2.8857922e-03 8.6080600e-03 5.8732661e-03 2.0402210e-02 -1.7238813e-02 -8.4564870e-04 -3.4258654e-03 -8.2966620e-03  2.0820482e-03 3.0349640e-03 2.9593024e-03 2.5792399e-03 -1.4536349e-02 -4.4671060e-03 1.2463637e-02 -9.9470858e-03  2.3159310e-02 -4.6874019e-03 7.2598981e-04 -3.1027631e-03 -6.8587363e-03 -4.3025785e-03 -3.4670779e-03 -6.6592400e-03 -2.5012412e-03 1.5976470e-02 1.1785496e-03 -1.6621619e-03  1.6458444e-02 1.3961247e-02 6.3500614e-03 1.1364298e-02  6.0995147e-03 1.0160327e-02 -9.3977284e-03 3.1285267e-03 -9.8285917e-04 7.1127689e-03 1.0787028e-02 1.3440503e-02 
-0.00215895 -0.00247043 -0.00027125 -0.01665572 0.00294263 0.00148785 -0.00343987 -0.00571232 0.00306156 -0.00101802 0.00697452 -0.00165558  0.00249284 0.00213482 0.00210919 0.00281506 -0.00214696 -0.01325882 -0.0075744  0.00504358 -0.00022519 0.00301998 -0.00012531 -0.00577283  0.00202413 -0.0039194  0.00829917 0.00261169 -0.00027368 0.0022729 -0.00328567 0.00214097 -0.00020398 -0.00018983 0.00960431 -0.00579921 -0.00821975 -0.00872453 -0.00653794 -0.01926828 -0.00329112 -0.00283566 -0.00795127 0.0066885 -0.00418854 0.00393578 -0.00377998 -0.00987153 -0.00322073 0.0025132 -0.00037083 0.00358955 0.00338667 0.01212909  0.00318675 -0.00473001 -0.00708138 -0.00414577 -0.00164453 0.00073607  0.00107516 0.00687928 0.01116181 0.01925252 -0.00894959 -0.00310413 -0.00517141 -0.00174226 0.01020468 -0.00153411 0.00588853 0.00551951 -0.00847633 -0.00214029 0.00685452 -0.00485176 0.01916813 0.00068947  0.00606502 0.00246147 -0.00701867 -0.00101108 -0.00420458 -0.00619813  0.0173357 -0.00071552 0.01247524 0.00664554 0.01099802 0.01385147  0.01044222 0.00293658 0.00938184 0.00500004 0.00150878 0.00158881 -0.00081195 0.00076539 0.00972207 -0.005865  
-0.00615673 -0.01219995 -0.0289239 -0.04840951 0.00955295 -0.00818993 -0.00345048 -0.03997069 0.02287989 -0.00839508 0.02072613 0.00567505 -0.00452079 -0.01161419 -0.0049422  0.04169884 -0.02657046 -0.01454971  0.0098126  0.04795175 -0.00406897 0.02790119 -0.03707824 0.00203334 -0.04319922 0.01514396 0.0127515 -0.00381425 -0.04550579 0.00374726  0.01256716 -0.00687674 -0.01548178 0.0214097  0.03461457 0.003493 -0.0482877 -0.03044257 -0.01924563 -0.03347396 -0.00401744 0.01090658 -0.01400681 0.05021643 -0.03695545 0.00527413 0.026608  -0.02813486  0.03316372 0.00559877 0.02415359 0.00803365 -0.00399236 0.04181705 -0.01623665 0.02812018 0.0001657  0.00455846 0.01571381 -0.0284139 -0.03554084 0.02064849 0.02697494 0.02359835 -0.025044  -0.00143913 -0.01000374 0.01312629 -0.002949  0.01218736 -0.01493856 0.03639597 -0.02004112 0.00794368 -0.01588457 -0.03405623 0.03546032 -0.0071473  0.02787441 -0.00083659 -0.02230184 0.00878271 0.02435405 -0.01734878  0.0005492 -0.00134818 0.03116978 0.0148648  0.04345407 0.01557712  0.05523474 -0.00336732 0.02785511 -0.00490545 0.00864796 0.01966665  0.00591342 0.01779624 0.02044636 -0.01389855 
-2.94482280e-02 -5.33415377e-03 -1.65343005e-02 -4.41751629e-02 -9.04500671e-03 1.68883707e-02 -3.54319215e-02 -3.85580063e-02  3.45785730e-02 -3.96857131e-03 2.78237835e-02 -2.68064998e-03 -1.27883879e-02 9.88738611e-05 1.46331163e-02 2.82432362e-02 -1.21027315e-02 -1.42701725e-02 1.08784186e-02 1.72518119e-02 -3.48114362e-03 5.07362448e-02 6.43185759e-03 -9.37821576e-04 -2.79178005e-02 -1.74339209e-02 -1.81711861e-03 8.63048062e-03 -1.32136028e-02 8.27292260e-03 -1.11766038e-02 -8.65617488e-03 -9.12931934e-03 2.98893801e-03 3.68102454e-02 -1.88627094e-02 -4.53590825e-02 -4.27372977e-02 -4.06102166e-02 -4.98981215e-02 -3.76680605e-02 7.49941915e-03 -8.39682575e-03 9.34646185e-03 -2.34674681e-02 5.31948991e-02 7.73051009e-03 -1.27695566e-02  3.01848277e-02 -7.83263519e-03 1.23183578e-02 2.42826585e-02  2.53776535e-02 4.34984714e-02 1.04697896e-02 1.13262571e-02 -2.32892409e-02 1.48756281e-02 1.07377842e-02 -1.80436447e-02 -3.59557196e-02 6.92855986e-03 2.15031877e-02 3.93081307e-02 -5.34510948e-02 9.76298586e-04 -8.09017010e-03 -1.80701241e-02  2.40086354e-02 7.04193348e-03 4.10377420e-03 3.38329934e-02 -4.85711917e-02 3.46321613e-02 -1.40257331e-03 -4.29245867e-02  5.18081523e-02 2.66063586e-02 8.22292268e-03 -2.73339055e-03  1.30375987e-02 -8.29264580e-04 -1.26446849e-02 -1.29988072e-02  2.70673167e-02 -6.05987851e-04 1.96120571e-02 1.41138667e-02  3.90806943e-02 2.96746176e-02 3.60140167e-02 -2.23645428e-03  2.54968796e-02 3.77739081e-04 9.31079127e-03 1.38609186e-02  3.08069922e-02 1.94797702e-02 4.20423932e-02 -1.53695857e-02 
-0.02537768 -0.00308992 -0.03528684 -0.06478932 0.0191437  0.0079111 -0.01509482 -0.03441652 0.03359554 -0.00155561 0.02522523 -0.02088658 -0.00537104 0.00694576 -0.00665181 0.04874576 -0.02484755 -0.02329788 -0.00422672 0.06383143 -0.02043124 0.05496674 -0.03765639 0.00090056 -0.0459443  0.02738875 0.01539227 0.00412466 -0.04316817 -0.00996067  0.01069661 -0.00376052 0.0010023  0.00225279 0.05284448 -0.00820717 -0.06122965 -0.06088827 -0.03788423 -0.04687345 -0.0056478  0.00850018 -0.02739468 0.0493373 -0.03765106 0.00932084 0.02663092 -0.0535596  0.04796823 -0.00296701 0.02453725 0.00756417 -0.00096548 0.03648527 -0.00641723 0.02995502 -0.01604559 0.01777376 0.0242939 -0.04682627 -0.02586316 0.03531578 0.047483  0.03385702 -0.06195285 0.00221608 -0.025198  -0.01610029 0.02224343 0.01947874 -0.01499329 0.03150767 -0.02706262 0.01997904 -0.01672268 -0.04703049 0.06839414 0.00049642  0.0369736 -0.00605653 -0.02936458 0.01587985 0.02382195 -0.00854611  0.01165204 0.00947956 0.03277721 0.0285368  0.06713351 0.02629737  0.0775762  0.00904457 0.03309899 0.00397974 -0.01881545 0.02209031  0.01341351 0.01019775 0.0553313 -0.01818877 
-3.64955142e-02 1.41623197e-02 -8.49172124e-04 -2.55810060e-02  7.14760786e-03 1.82883255e-02 -1.92323290e-02 2.03646766e-03  1.77186150e-02 -1.20720658e-02 2.22566463e-02 -5.39010111e-03  3.08692269e-03 -1.17134806e-02 -2.00679842e-02 -1.22992890e-02  1.98149774e-03 -1.48582682e-02 -1.81908254e-05 1.17622083e-02 -1.33224605e-02 2.00527944e-02 -2.57467991e-03 1.35471998e-02 -2.56147552e-02 -1.04769617e-02 8.00461881e-03 5.10617392e-03 -1.32145351e-02 -2.34205797e-02 8.49784445e-03 -5.94663480e-03  7.62008596e-03 -6.16745884e-03 2.15557013e-02 -1.70073099e-02 -1.04108425e-02 -2.08586361e-02 -2.07983423e-02 -2.76228134e-03  2.53079156e-03 3.93052911e-03 1.25085553e-02 7.82122649e-03 -1.02193588e-02 5.83622977e-03 8.68101895e-04 -2.60600150e-02  3.56412027e-03 -2.03693584e-02 1.07736224e-02 1.74342394e-02  6.32112799e-03 1.37823978e-02 3.44871264e-03 -5.72508667e-03 -2.01806780e-02 -9.72008798e-04 -3.90030770e-03 -4.99512674e-03 -6.76760310e-03 7.69372238e-03 -1.98084977e-03 1.53424693e-02 -2.16869134e-02 6.85410155e-03 1.47696584e-03 -1.19824233e-02  1.15307830e-02 -6.01479551e-03 2.56765671e-02 6.14389172e-03 -2.12330353e-02 8.71610828e-03 -1.05179576e-02 -1.21938353e-02  2.45881379e-02 2.99905334e-03 9.41058621e-03 -4.10380354e-03 -2.29835175e-02 1.12335002e-02 7.85421487e-03 -1.04204416e-02  4.06818837e-03 8.50881170e-03 9.23136994e-03 1.76959597e-02  2.69647483e-02 6.02380279e-03 2.24279091e-02 1.59394369e-02  2.73856334e-02 9.25080758e-03 -2.88280100e-02 1.77114159e-02  1.61765926e-02 2.22297870e-02 2.49563735e-02 -1.06025366e-02 
-0.00113498 -0.00839508 -0.01716154 -0.03329306 -0.00092776 0.00379121 -0.00052302 -0.01327156 0.01375357 -0.00233017 0.02084813 0.00149816 -0.01050638 0.00415129 0.00385397 0.03700941 -0.00811277 -0.01950697 -0.00341675 0.02315835 0.00344476 0.02325587 -0.02661656 -0.0048422 -0.01137259 0.0083482  0.00183535 0.00496568 -0.01669429 0.00565673 -0.00311706 0.0044828 -0.00828753 0.00904698 0.02303881 -0.00161118 -0.02308711 -0.02237809 -0.01290038 -0.02410242 0.00355529 -0.00508977 -0.01727972 0.02905418 -0.01616477 0.01145979 0.01136613 -0.02326393  0.01186961 0.01161863 -0.0021952  0.01404505 0.01017534 0.03268853 -0.01156078 0.0109387  0.00183284 0.01282174 0.01013903 -0.0178801 -0.01620257 0.01920046 0.0299193  0.01917158 -0.02783564 -0.00233664 -0.01231264 -0.01015745 0.01451772 0.00629839 0.0047465  0.02817175 -0.00731215 0.00728347 0.00747947 -0.03330443 0.02830754 0.0016303  0.01034408 0.00122058 -0.00286518 -0.00361188 0.00264608 -0.00539779  0.0224962 -0.0008038  0.0272646  0.007944  0.02607532 0.01588972  0.03506432 -0.00011528 0.01334621 0.0037356  0.01180344 -0.00225595 -0.00825691 -0.00363863 0.0107493 -0.01150531 
-0.02395529 0.0044111 -0.01742798 -0.00772782 0.00164814 0.00135288 -0.00630382 -0.00684572 0.01929933 -0.00506549 0.01128055 -0.00734739  0.00379696 -0.00786273 -0.00493223 0.01188884 0.00173062 -0.01237247  0.00252385 0.02290108 -0.00052265 0.0311804 -0.00900221 0.00880904 -0.0323249 -0.00807125 0.00993716 0.01149091 -0.01239208 0.00037639  0.01084023 -0.00958422 0.00080972 0.01291225 0.00997662 -0.00119816 -0.01473897 -0.00831076 -0.01331941 -0.02913671 -0.0086895  0.00962854  0.00034554 0.02741255 -0.0031297  0.0276789  0.00029823 -0.01503872  0.00699763 -0.00805644 0.01483248 0.01198546 0.00731406 0.01958634 -0.00905144 0.02212972 -0.01657836 0.01634872 0.00148352 -0.00856946 -0.01275423 -0.00252094 0.00789805 0.0078046 -0.02431957 -0.01049719 -0.00420772 -0.01649476 0.0206806  0.00305962 0.00510637 0.0090149 -0.01800467 0.0134595  0.0020375 -0.03045227 0.02159138 0.00484626  0.00574572 0.00271062 0.00063127 -0.00062591 -0.01415135 -0.0019305  0.01489473 0.00506568 0.00627171 0.01592317 0.02920231 0.00576253  0.02815294 -0.00664685 -0.00670328 -0.00106979 -0.00653102 0.00751804  0.01938424 0.01301363 0.02448474 -0.01045306 
-0.00401086 0.00437951 -0.01050521 -0.0391339 -0.00121789 -0.00330929 -0.00678806 -0.00497839 0.01443073 0.01003813 0.02748068 -0.00165881 -0.00942915 -0.00466046 -0.00170509 0.01828267 -0.01048183 -0.01409079  0.00207382 0.02030171 -0.00495396 0.01671021 -0.0172788  0.00382901 -0.02030341 0.01334367 0.0092166  0.00363889 -0.02153106 0.00319063  0.00434799 0.00768794 -0.00700296 -0.00080118 0.01666454 -0.00937105 -0.01564832 -0.02065141 -0.01713765 -0.02669729 0.00740781 0.0067825  0.00537503 0.01833258 -0.01409728 0.00724863 0.00392435 -0.02328165  0.01598433 -0.0013633  0.00190369 0.00449087 0.00559026 0.01955231  0.0014341  0.0013995 -0.00433733 0.01056776 0.00694727 -0.00451216 -0.00850389 0.00899204 0.0146476  0.00599125 -0.02611201 0.00093386 -0.01199427 -0.0058426  0.01002974 0.00484232 0.00899957 0.01082939 -0.00129162 0.01323734 -0.01480464 -0.01892636 0.03833795 -0.00610241  0.01471072 0.00077732 -0.00821753 0.01327223 0.00492897 -0.00331309  0.00545142 -0.000909  0.02687969 0.00642183 0.02700702 0.0198007  0.02823112 -0.00956419 0.00790655 0.00525334 -0.00991449 0.01592856 -0.00049259 0.00404335 0.02732473 -0.00616766 
-5.2011255e-03 -4.0116441e-03 7.2569080e-04 -7.6624407e-03 -2.8456468e-03 4.6551791e-03 2.3986481e-03 -3.3249636e-03  1.8940438e-03 4.4696340e-03 2.4154084e-03 -6.0114139e-03 -2.1236981e-03 1.4116177e-03 2.2610233e-03 -9.7713870e-05 -7.5975289e-03 -9.5848963e-03 -5.7427222e-03 7.7276099e-03 -5.4623751e-04 3.8431557e-03 -8.0485817e-04 -5.8598532e-03 -1.7971065e-03 -5.8409884e-03 4.4727088e-03 2.5514825e-03  2.8010793e-03 2.0092246e-03 -5.9528323e-04 5.7957938e-04  6.3552014e-03 -3.2914486e-03 6.7794356e-03 -4.0601399e-03 -5.2362098e-03 -5.0670677e-03 -3.7993565e-03 -8.8661779e-03 -3.0323046e-03 -1.7507488e-03 -7.4917506e-03 5.2149156e-03 -5.9262151e-03 5.8240513e-03 2.1102927e-03 -1.3871678e-03 -2.3890676e-03 -3.8238587e-03 -2.2084196e-03 8.0798438e-04  2.8306935e-03 5.3322096e-03 -2.4755608e-04 -9.4524072e-04 -6.6273212e-03 4.8320801e-03 1.4715498e-04 -9.8163774e-04 -3.5067790e-03 5.4254467e-03 2.8489078e-03 1.3228742e-02 -1.1268480e-02 4.0899636e-03 -1.4445097e-03 -7.9678476e-04  5.4473449e-03 1.5037289e-03 -9.2868612e-04 4.9500829e-03 -4.4816331e-04 2.9232567e-03 4.2722523e-03 -9.6489927e-03  1.0100973e-02 1.9974685e-03 5.2423626e-03 -3.2621948e-04 -2.5802432e-03 -5.3625525e-04 -7.9893472e-04 2.3957514e-04  8.1303138e-03 -8.9629684e-03 1.0800235e-02 5.4040435e-03  3.8374155e-03 2.0885202e-03 6.1282730e-03 3.5090053e-03  4.9443687e-03 5.1482101e-03 1.2082716e-03 -4.1794791e-04  3.5101685e-03 -1.4684582e-03 6.1758566e-03 -6.2707043e-03 
-7.51312170e-03 -7.17090326e-04 -4.42642234e-02 -8.43651816e-02  1.00622084e-02 -4.85120295e-03 -1.61029175e-02 -3.02356984e-02  3.27094905e-02 -1.26848253e-03 3.05470694e-02 2.45156698e-03 -8.05321522e-03 -1.58637203e-02 -9.68683418e-03 4.32029553e-02 -1.81701872e-02 -2.27884110e-02 -1.09909137e-03 5.29014170e-02 -1.63707621e-02 4.97421660e-02 -3.54016833e-02 -1.26183731e-02 -3.20476554e-02 1.85639784e-03 7.87535775e-03 7.91823491e-03 -4.26202938e-02 2.33256049e-03 3.25015858e-02 1.25338824e-03 -1.75923877e-03 1.29384892e-02 5.08741885e-02 -1.14442026e-02 -4.42738645e-02 -4.76103425e-02 -3.36120874e-02 -5.92227839e-02  8.65298230e-03 1.08096087e-02 -1.18805580e-02 7.52928182e-02 -3.17478180e-02 2.15888768e-02 3.77437398e-02 -5.98584116e-02  2.41638627e-02 1.70143247e-02 1.13601815e-02 3.05975825e-02 -8.72303452e-03 7.32245371e-02 -1.60834305e-02 5.03537878e-02 -2.69260667e-02 2.86676046e-02 1.01189408e-02 -3.68791148e-02 -3.94140296e-02 3.11985463e-02 4.61125448e-02 3.09918188e-02 -5.16215041e-02 5.34359133e-05 -3.00178397e-02 -7.09156971e-03  1.93980392e-02 2.71339025e-02 -5.71271451e-03 5.19458354e-02 -2.22472642e-02 1.00180255e-02 -8.69738497e-03 -7.68899769e-02  8.00432041e-02 1.50616001e-02 3.10140699e-02 -1.37973046e-02 -2.67066117e-02 1.18786506e-02 2.72542238e-02 -1.62126981e-02  3.14394720e-02 -5.67069789e-03 5.58604822e-02 2.17804648e-02  5.80965877e-02 2.93925181e-02 8.14857185e-02 4.94170049e-03  3.34085561e-02 4.28903662e-03 5.27136121e-03 7.75988027e-03  1.06779411e-02 6.59104204e-03 3.13595347e-02 -2.66056918e-02 
-0.01610107 -0.00724509 -0.03148432 -0.06468798 0.00565191 -0.00386795 -0.01608694 -0.02359334 0.01502766 -0.00266277 0.02392665 -0.00485774 -0.00210495 -0.01448622 -0.00943399 0.02368898 -0.02313329 -0.02252796  0.00269271 0.03758531 -0.0144907  0.03345291 -0.02632374 0.00113511 -0.04755219 0.00617861 0.01400675 0.00465792 -0.0438351 -0.00360914  0.02690633 0.00051077 -0.00727353 0.0037488  0.0338669 -0.00611969 -0.03290111 -0.04042906 -0.03505672 -0.04528134 0.00475011 0.01102013 -0.0087731  0.05815974 -0.03437521 0.01805629 0.02680497 -0.04508143  0.02194115 0.00919235 0.01313942 0.018977  -0.002317  0.05772107 -0.00860477 0.03418411 -0.01489977 0.02060222 0.01553755 -0.02775519 -0.03309394 0.03124478 0.0332256  0.0213361 -0.05219952 -0.00447979 -0.01550304 -0.01116836 0.00520748 0.01722085 -0.0019653  0.03361491 -0.01265908 0.01541715 -0.01117314 -0.05315394 0.05887469 0.00694643  0.02621485 -0.01072197 -0.02073853 0.01428695 0.02154346 0.00198243  0.02168445 -0.00975619 0.04141904 0.01446189 0.04746508 0.02062967  0.06840737 0.00580199 0.03241761 -0.00036645 0.00314592 0.01233831  0.01833691 0.00755956 0.02908138 -0.01956799 
-0.00625048 -0.01935288 -0.01319072 -0.02937316 -0.01260521 0.01113706 -0.00283797 -0.01376781 0.00664408 -0.00520866 0.01214467 -0.00854144 -0.01257669 -0.00762389 -0.00812495 0.02020595 -0.0182301 -0.01400564 -0.00643802 0.00954257 -0.00256568 0.02013701 -0.00274271 0.01154623 -0.00561109 -0.0002715  0.00903427 0.00034918 -0.00396491 -0.00327774 -0.00646513 0.00247775 -0.00703888 0.00212819 0.0244839 -0.00424731 -0.03261147 -0.02721794 -0.018083  -0.03647887 -0.02054995 0.00030451 -0.01878412 0.02245957 -0.01805273 0.00253546 0.00616081 -0.03382622  0.00582609 -0.00218254 -0.0096061  0.02502383 0.00917725 0.01948466 -0.01364083 0.00027675 -0.01980887 0.00550424 0.01500934 -0.00236392 -0.02326403 0.01128292 0.03084198 0.01201629 -0.02588175 0.00205972 -0.01518678 -0.00707646 0.0136487  0.00267346 0.00283826 0.01309193 -0.03655673 0.01053541 0.01614075 -0.01904387 0.02636443 0.00654098  0.00063998 0.00551771 -0.00716328 -0.00963333 0.00031747 0.00278413  0.03494825 0.00095249 0.00840561 -0.00148801 0.02313587 0.02525229  0.00648029 -0.00207728 0.02557857 -0.00409114 -0.00184825 0.00045148  0.01073505 -0.00186652 0.02321955 -0.0227778 
-0.00858555 -0.02216168 -0.02890392 -0.05424952 -0.02202388 0.00078745 -0.01080214 -0.02238446 0.02830986 -0.00613108 0.02584343 -0.00044597 -0.01558493 -0.00276901 0.00749683 0.03920613 -0.0398436 -0.01682867  0.00489218 0.03196061 -0.01595536 0.03673364 -0.021209  0.00516755 -0.01096202 -0.0083995  0.00027776 0.02221624 -0.0142931 -0.00331002 -0.00475307 -0.00376944 -0.01306791 0.00168367 0.01330859 -0.01045752 -0.04054923 -0.03985538 -0.00949524 -0.05662708 -0.01243801 0.00349734 -0.01298972 0.05212066 -0.0234985  0.01211316 0.02354707 -0.03182182  0.01327165 -0.00981605 0.00022071 0.03533363 0.00498403 0.05407308 -0.00238099 0.02386799 -0.01365502 0.01689921 0.02276516 -0.00631257 -0.03086709 0.01037419 0.03418297 0.01712727 -0.04288239 0.00113551 -0.01931361 -0.00324613 0.03153675 0.01306678 -0.00421389 0.02232194 -0.02143397 0.03674372 0.00357311 -0.01945484 0.03081038 0.00838756  0.01188927 -0.01064897 -0.00829782 0.00228768 -0.00090937 -0.00391151  0.02946491 -0.02151046 0.02917904 0.02081508 0.03381174 0.02824922  0.04759486 -0.01760057 0.02166182 -0.01317948 0.0295926  0.00424137  0.01456886 0.01755891 0.02872497 -0.03518403 
-3.50426249e-02 1.39319813e-02 -1.54506713e-02 3.06271017e-03  3.97323049e-04 -1.08663235e-02 -2.48472090e-03 -2.67558750e-02  9.26086027e-03 -2.64636725e-02 1.71176866e-02 -9.17238556e-03 -6.33460330e-03 -4.19156440e-03 6.78813364e-03 2.55674589e-02 -3.17758806e-02 -4.31607552e-02 -2.23533018e-03 3.61591987e-02  2.59242021e-02 4.16685008e-02 7.92561658e-03 -1.36061455e-03 -4.52519730e-02 -2.85428371e-02 -3.13491793e-03 -8.90902337e-03 -2.58643031e-02 4.58965590e-03 2.71378960e-02 1.88831217e-03  3.92141799e-03 -4.68834722e-03 3.46820690e-02 6.49626600e-03 -1.56568345e-02 -4.03717272e-02 -1.14341713e-02 1.34002883e-02 -2.73615569e-02 3.38242995e-03 1.32953026e-03 2.75832433e-02  2.54020095e-04 2.51364820e-02 -2.74112157e-04 -3.37750721e-03  2.35944241e-02 -1.87679306e-02 2.86202170e-02 2.64243335e-02  1.33860577e-02 4.29496616e-02 1.77391409e-03 2.64132228e-02  1.67579427e-02 -3.13727325e-03 -2.14626454e-02 -2.11470909e-02 -8.18698015e-03 2.59650592e-02 -1.98389823e-03 2.68043187e-02 -1.65638849e-02 1.57264210e-02 2.20387783e-02 -8.23174231e-03  1.12424465e-02 1.36134047e-02 3.03939488e-02 2.14478020e-02 -2.48411074e-02 2.08447352e-02 -5.18290675e-04 -3.20467283e-03  2.38366742e-02 1.53649775e-02 2.86754481e-02 -1.16514880e-02 -1.18801929e-02 -1.07204001e-02 -2.59769513e-05 -1.11961942e-02  5.24618058e-03 1.59694545e-03 2.45536417e-02 1.92057528e-02  2.23583682e-03 -2.41790321e-02 5.86138293e-02 8.08593817e-03  9.64458752e-03 2.47516837e-02 2.23137047e-02 -1.14520628e-03 -1.16371445e-03 1.97098162e-02 1.94058754e-02 -1.15622859e-02 
-0.01459316 -0.01530316 -0.0147146 -0.03224451 -0.00757359 0.02786511 -0.01580661 -0.03133205 0.01431254 0.00084804 0.00519972 -0.01369391  0.00094114 0.01375995 -0.00671337 0.00615628 -0.01422478 -0.03460643 -0.00369007 0.01487359 -0.00111966 0.02324038 -0.01091275 -0.004707 -0.02116653 0.00278782 0.02145704 0.01134161 -0.00901431 -0.01084632 -0.01162822 0.00291137 -0.00247465 -0.0036532  0.01284335 -0.00258097 -0.02631743 -0.03684467 -0.03472573 -0.04503329 -0.01051797 -0.00829602 -0.01411455 0.00997429 -0.0221793  0.00861736 0.0209266  0.00298294  0.00887459 0.00257248 -0.00515708 0.00537112 0.01066555 0.0416543  0.00524309 -0.00833381 -0.00121757 0.00188179 0.00103264 -0.01209023 -0.01535012 0.0226494  0.02713844 0.0363665 -0.0394547 -0.00405524 -0.0098789  0.00097576 0.00937401 0.00686337 -0.0122793  0.01406683 -0.01177334 0.01636645 0.0003639 -0.01357678 0.01964306 0.01285796  0.02194999 -0.00255362 -0.00906488 -0.00590019 -0.00669256 0.01302627  0.03082816 -0.01050063 0.01619923 -0.01102408 0.02501179 0.03029788  0.01849499 0.01007953 0.02526863 0.00511158 0.00646921 0.01265189  0.02235921 -0.00443206 0.03347534 -0.01878185 
-7.57373869e-03 6.05515344e-03 -7.97380041e-03 -1.85755230e-02  1.15285227e-02 1.91702985e-03 -1.71277300e-02 -1.09310457e-02  1.05298478e-02 -9.43120010e-03 6.71725022e-03 3.90953850e-03  2.85173720e-03 -6.02551736e-03 8.95446225e-04 1.07393842e-02 -3.84261424e-04 -1.60055161e-02 3.86831863e-03 1.38367945e-02 -4.09750547e-03 2.25866064e-02 -6.68190932e-03 -4.24967287e-03 -1.56053035e-02 -1.30003411e-03 2.13323534e-03 8.65482911e-03 -1.12972409e-02 -9.65605862e-03 8.95990804e-03 -3.27863754e-03  2.13345338e-04 2.37684953e-03 8.09744559e-03 -1.19916610e-02 -7.36774923e-03 -1.08912643e-02 -3.67699796e-03 -8.13186262e-03 -8.84239562e-03 4.45040874e-03 9.92190931e-03 7.21415877e-03 -5.40239131e-03 7.60273123e-03 1.18124709e-02 -1.45940902e-03  1.99504942e-03 5.96220198e-05 1.28871556e-02 -1.31422048e-03  2.61867722e-03 1.77467596e-02 4.01868165e-04 4.05064225e-03 -2.82169640e-04 -7.07504712e-03 -5.67931496e-03 -1.45601816e-02 -3.05642548e-04 6.96592871e-03 7.97415152e-03 1.00295618e-02 -7.81142525e-03 1.85020594e-03 4.63700271e-05 -4.03162744e-03  7.69769261e-03 -1.44791172e-03 4.05666139e-03 1.54068032e-02 -3.41206149e-04 1.10962894e-02 -1.46846520e-02 -1.87148377e-02  1.38575900e-02 1.08887721e-03 1.24279829e-02 1.16728693e-02 -1.08512994e-02 -2.52643111e-03 8.35627411e-03 -5.35552576e-03  7.61246122e-03 6.66790921e-03 1.15006957e-02 1.23506868e-02  1.40047856e-02 1.00170905e-02 1.78317241e-02 1.66695018e-03  1.19385784e-02 -5.54807892e-04 -6.43556239e-03 4.68453253e-03 -4.94815409e-03 2.19421135e-03 1.60211157e-02 3.81027255e-03 
-0.02938561 -0.00325577 -0.04269642 -0.0778676 -0.01000303 -0.01396248 -0.0322923 -0.0387631  0.02623241 0.00203679 0.02688244 -0.01656947 -0.00315174 -0.01302216 -0.00333509 0.02438436 -0.02056231 -0.02564028  0.01008982 0.04203586 -0.02097479 0.03114869 -0.03043092 0.00635028 -0.06754181 0.0096771  0.0152094 -0.0014342 -0.04713931 -0.011349  0.00517201 -0.00183665 -0.02014628 0.00987753 0.03736564 -0.0081616 -0.04287953 -0.04433906 -0.02986918 -0.04212586 0.00521568 0.00426295 -0.01263116 0.03351457 -0.0403235  0.02084724 0.02624725 -0.02143541  0.02036917 0.00755997 0.01774767 0.00154628 0.00562757 0.05393536  0.0020773  0.0198395 -0.01330617 0.00514249 0.01921648 -0.01864521 -0.02322476 0.03962447 0.02791136 0.03848547 -0.06006308 -0.01295395 -0.01081059 -0.0095792  0.01628326 0.01393906 -0.01492692 0.01629556 -0.00848039 0.02248487 -0.02152014 -0.03052536 0.05479954 -0.00948015  0.02977385 -0.00644869 -0.01843286 0.00636876 0.01832117 -0.0030506  0.00650846 -0.01355617 0.04694977 0.02143539 0.05576084 0.0208409  0.0576936  0.00953938 0.03565949 -0.00174888 0.01524359 0.01462661  0.01905757 0.02955425 0.02811454 -0.01563878 
-8.80343933e-03 -7.07820803e-03 -1.33397859e-02 -2.04922110e-02  3.24889133e-03 -9.39628866e-04 -1.04951086e-02 -3.34770908e-03  5.47917048e-03 3.34151671e-04 7.92289525e-03 2.17495207e-03 -1.64501055e-03 -9.43340082e-03 -1.56311281e-02 9.53115337e-03 -7.26894056e-03 -1.27744880e-02 9.20225214e-03 1.59189254e-02 -3.39870201e-03 2.57523209e-02 -2.13322528e-02 2.19055568e-03 -3.40010673e-02 1.68444728e-03 4.61548707e-03 -3.26133822e-03 -1.94765665e-02 -9.44613852e-03 5.09093236e-03 -2.86199152e-03 -1.66758820e-02 4.85941442e-03 2.75429450e-02 5.63389342e-03 -8.60379916e-03 -1.93960238e-02 -1.37866046e-02 -1.32896835e-02  3.51073826e-03 1.79872084e-02 -4.63419780e-03 2.55213939e-02 -9.98990983e-03 2.36861617e-03 1.72590185e-02 -2.74772793e-02  1.75680667e-02 -3.23903770e-03 2.61410419e-03 6.34290045e-03  8.36968608e-03 2.12110188e-02 -1.02462305e-03 2.57627852e-02 -3.82540573e-04 1.20607251e-02 1.92536861e-02 -1.49533218e-02 -2.01885123e-02 1.16279358e-02 8.45208392e-03 1.91578176e-03 -1.34985223e-02 -5.47639187e-03 -4.84034372e-03 -1.23668723e-02 -1.19495243e-02 1.46049447e-02 2.81703891e-03 7.22489599e-03  1.52459834e-03 1.51015781e-02 -1.28158508e-02 -2.18519587e-02  3.30612212e-02 6.60360267e-04 1.56790279e-02 -1.40456054e-02 -1.38412593e-02 1.06296791e-02 1.34595260e-02 4.21730895e-03 -5.10522816e-03 1.11100089e-05 2.11676676e-02 -4.51949611e-03  2.50163376e-02 1.79890636e-03 3.64852101e-02 3.21851345e-03  1.32182147e-02 7.34395441e-03 -4.10954654e-03 1.90900583e-02 -1.14471954e-03 4.44233092e-03 9.02740285e-03 3.66925704e-03 
-0.02539347 -0.02682503 -0.01175149 -0.065226  -0.01050762 0.00913893 -0.02568513 -0.02697093 0.02003895 -0.01171485 0.0123748 -0.02278784 -0.01492228 -0.00207453 0.00811709 0.02825429 -0.02609619 -0.0240668  0.01704341 0.04376867 -0.02515904 0.04480176 -0.02813514 -0.00097904 -0.04466737 -0.00155458 0.0197009  0.01233102 -0.02692295 -0.00859344 -0.01309303 0.00136483 -0.02003567 -0.00451633 0.05333357 0.00720851 -0.03891403 -0.03046301 -0.02361025 -0.04577338 -0.02082128 0.02962807 -0.0212206  0.05689409 -0.02790589 0.00801587 0.02194929 -0.04492748  0.04583449 -0.0206096  0.00682502 0.00913633 0.0291358  0.03982423 -0.00351261 0.01945424 -0.01144713 0.02270816 0.03698574 -0.01724164 -0.03434347 0.02152564 0.02942333 0.00861442 -0.05621922 0.00168065 -0.00941864 -0.02239306 0.02756464 0.03583801 -0.00762083 0.01709104 -0.02612831 0.05108184 -0.00870517 -0.03722947 0.04080809 -0.00103581  0.01282421 -0.00071384 -0.00356024 0.00175319 0.00328629 -0.00373634  0.02480054 -0.00149679 0.03271514 0.02331369 0.05071326 0.02248216  0.0609441 -0.01865962 0.02128825 -0.0045697  0.01760367 0.00754003  0.01669334 0.00190208 0.03117763 -0.01857223 
-0.0173083 -0.00442486 -0.05288875 -0.1174392  0.01377225 -0.01414487 -0.04464804 -0.0539823  0.03250632 -0.00209325 0.02668642 -0.0017449 -0.01214251 -0.02239742 0.01067957 0.05102458 -0.02534753 -0.01905979  0.01112003 0.05930655 -0.03433082 0.05752816 -0.035593  -0.02428469 -0.03996103 0.01165723 0.00445   0.00722819 -0.05265089 -0.00281989  0.0263415 -0.00043292 -0.00836451 0.01271661 0.06171017 -0.01910033 -0.06650303 -0.06825519 -0.04664757 -0.06749637 -0.01189298 0.01063224  0.00131632 0.0753049 -0.06234325 0.02846325 0.04570746 -0.05216396  0.02879437 0.01990307 0.03086695 0.01764367 0.00571363 0.07740805 -0.0022388  0.05001241 -0.02442335 0.01829974 0.02145757 -0.04872261 -0.04232227 0.04347757 0.06374457 0.04160918 -0.07530598 0.00154157 -0.03260095 -0.01714418 0.03630228 0.03618008 -0.01709036 0.05847607 -0.01831124 0.01880448 -0.02197558 -0.07870152 0.08733387 0.00138964  0.04067885 0.0021147 -0.03090918 0.01173318 0.03542278 -0.0180533  0.03560085 -0.01541487 0.073218  0.04044546 0.06172413 0.02857464  0.08900589 0.0123092  0.04893116 -0.00454277 0.02515932 0.00522244  0.00979942 0.00992299 0.04894671 -0.03064956 
-1.94335114e-02 -1.24148501e-03 -2.48776134e-02 -1.26164749e-01  1.13405958e-02 -9.26893670e-03 -3.35750543e-02 -4.15791236e-02  3.93074229e-02 5.92813012e-05 3.95004079e-02 -4.62421635e-03 -1.05782561e-02 -8.12980253e-03 -1.14917895e-02 4.75693159e-02 -1.96276698e-02 -3.20591591e-02 5.23953349e-05 5.91141097e-02 -3.10573950e-02 5.43683283e-02 -5.02619669e-02 -1.01425627e-03 -5.87073080e-02 8.39634333e-03 2.96014659e-02 9.14795790e-03 -6.05039485e-02 -8.78307689e-03 2.12059431e-02 5.07311570e-03 -5.68098295e-03 5.82204200e-03 5.70303164e-02 -1.71530768e-02 -5.93341775e-02 -5.60867488e-02 -5.11077009e-02 -7.67028108e-02  1.02032872e-03 2.44478434e-02 -1.05422409e-02 8.49719867e-02 -5.48451990e-02 3.38104181e-02 3.88623886e-02 -7.02841133e-02  5.19104153e-02 9.41999722e-03 5.42736845e-03 1.47716114e-02  3.29536316e-03 8.62630680e-02 -1.36799542e-02 4.43586074e-02 -3.56426537e-02 3.58157344e-02 2.09347382e-02 -4.08361852e-02 -4.60289307e-02 3.11594345e-02 6.82406276e-02 3.25442664e-02 -8.20381045e-02 -9.68975108e-03 -4.04016748e-02 -2.36629397e-02  2.55616512e-02 3.97234783e-02 -1.69795426e-03 5.85647523e-02 -2.45253351e-02 2.68395040e-02 -1.69802345e-02 -8.46655220e-02  9.63443816e-02 2.42214068e-03 4.28217724e-02 -6.77309465e-03 -3.09664756e-02 1.03079565e-02 3.01705636e-02 -2.15340257e-02  4.07056324e-02 -7.21884426e-05 7.34537244e-02 3.67246605e-02  9.08440277e-02 4.85922471e-02 1.00822583e-01 -1.05884122e-02  4.05771211e-02 5.04891912e-04 -2.01014220e-03 4.43478394e-03  1.86306648e-02 -3.16833146e-04 4.80728112e-02 -2.23848838e-02 
-0.00926485 0.00516487 -0.01969169 -0.03076799 0.00239611 -0.00072073 -0.01973828 -0.02623906 0.00916546 -0.00504886 0.009643  -0.00308779  0.0031359  0.00611345 0.00971088 0.01595291 -0.00617579 -0.00870984  0.00436824 0.02435892 -0.00572644 0.01927778 -0.01319084 -0.00604141 -0.02378063 0.00342472 0.00168222 -0.00114473 -0.02096722 -0.00063287  0.00135785 0.00143489 0.00216971 0.0042876  0.011809  -0.00430691 -0.02295852 -0.01740506 -0.01311154 -0.0165629 -0.00431692 -0.00234887 -0.00337677 0.01158132 -0.01997914 0.00773923 0.00910726 0.00335963  0.00967663 0.00627824 0.02205128 -0.00601142 0.00464142 0.01108097 -0.00064441 0.01804234 0.00517608 -0.00662654 0.00415357 -0.01858332 -0.0042115  0.01235092 0.01017493 0.01976066 -0.01962737 0.0006837 -0.00246123 0.00462608 0.00996887 -0.00243368 -0.00850896 0.01171975 -0.0019019  0.00379996 -0.00140486 -0.00512294 0.01456948 -0.01030035  0.01805401 0.0105381 -0.01155866 -0.00118248 0.01282676 -0.00832183  0.00175897 -0.00695837 0.01291689 0.01332401 0.01299017 0.000174  0.02332684 0.00790202 0.01350595 0.00270147 0.00816246 0.0011441  0.00207431 0.01460917 0.01275438 -0.00595387 
-2.46459562e-02 1.09980028e-04 -3.48024517e-02 -8.68879631e-02 -1.46414218e-02 -2.36753337e-02 -2.99160425e-02 -4.13173325e-02  2.10592318e-02 1.60591193e-02 1.93300322e-02 -2.00996074e-05 -1.37750925e-02 -3.39176245e-02 -1.24833267e-02 4.38600816e-02 -4.28121909e-02 -2.76762731e-02 1.88059959e-04 7.02481270e-02 -1.11435708e-02 6.47367686e-02 -2.84088608e-02 4.01366595e-03 -6.26040921e-02 -1.60381049e-02 8.20277259e-03 -2.63798935e-03 -5.54706343e-02 1.65996086e-02 3.12342532e-02 2.75136717e-03 -2.10246406e-02 8.70565139e-03 6.45276010e-02 -4.07730136e-03 -5.40898740e-02 -6.89106137e-02 -3.15093398e-02 -6.72525316e-02 -1.04957139e-02 3.17194536e-02 -7.76561070e-03 6.18680902e-02 -3.46251838e-02 3.05923223e-02 2.38235034e-02 -7.02361688e-02  3.84222344e-02 -3.64085217e-03 2.30649337e-02 2.81451046e-02  2.01101936e-02 7.78697953e-02 -1.02912085e-02 6.23016134e-02 -1.49217946e-02 8.27602576e-03 2.20996346e-02 -2.65267882e-02 -4.26955111e-02 3.43581662e-02 3.34742703e-02 4.17472310e-02 -6.30761236e-02 6.09761383e-03 -1.58632752e-02 -1.75098516e-02  2.74045244e-02 2.51227170e-02 1.83222182e-02 4.76538688e-02 -1.74582172e-02 4.45842110e-02 -2.03900244e-02 -6.60329908e-02  8.95674899e-02 1.26032094e-02 4.78694588e-02 -1.92279778e-02 -6.03621593e-03 6.12416817e-03 1.79913808e-02 -6.93507167e-03  2.90245283e-02 -3.20499390e-02 6.58579245e-02 4.03209999e-02  6.84093758e-02 1.75359212e-02 1.09299995e-01 -1.78964734e-02  4.93384264e-02 9.49990284e-03 2.15300750e-02 2.67715864e-02  2.22759172e-02 1.95144024e-02 4.99051139e-02 -2.62493771e-02 
-0.02973773 -0.0094378  0.02419076 -0.0515187  0.00556825 0.02141072 -0.01070656 -0.0395746  0.02057618 -0.01178096 0.00998093 -0.02357377 -0.00448226 0.00200455 -0.0021835  0.03351178 -0.00494743 -0.03402701 -0.00624135 0.05509563 0.00348617 0.04425868 -0.02354137 -0.00763818 -0.04766751 0.00313015 0.03010436 -0.0062087 -0.01595112 0.00613887 -0.0161012  0.00495082 0.00842869 0.012825  0.04474268 0.01146405 -0.04471374 -0.02457916 -0.05097081 -0.06256375 -0.0158587  0.01445593 -0.0316893  0.02283207 -0.02596993 0.02365099 -0.01364785 -0.01419097  0.04769107 -0.00955822 0.00348975 -0.01830538 0.00963066 0.01085916 -0.02789466 -0.00661198 -0.00898702 0.0115753  0.004238  -0.01280556 -0.02115778 0.00063587 0.04061751 0.0270133 -0.0363902 -0.00736818 -0.01912924 -0.01450246 0.01090164 0.01777678 0.00878283 0.0234659 -0.02535024 -0.00148874 -0.0027411 -0.04297787 0.04453512 0.00612451  0.0209293  0.01453287 -0.01027856 -0.01725636 -0.00608757 -0.02012409  0.02217668 0.01954648 0.01706332 0.00958436 0.05580418 0.02521921  0.04019195 -0.00536135 0.00852277 0.03105593 -0.02634481 -0.00108638  0.02853785 -0.00117402 0.01813467 -0.00550556 
-2.01161373e-02 -7.92777352e-03 -6.33558724e-03 -6.39359951e-02  1.61587831e-03 3.72990500e-03 -1.05851563e-02 -3.20845954e-02  1.55367218e-02 -1.24622891e-02 2.15509981e-02 -2.99341399e-02 -2.39801873e-03 7.86507409e-03 -2.84174760e-03 2.09660456e-02  5.04735066e-03 -1.47709539e-02 3.63180996e-03 2.42011435e-02 -8.02275818e-03 2.48620454e-02 7.87649478e-05 -1.50260730e-02 -3.16703580e-02 1.82481520e-02 6.71911612e-03 -5.68658346e-03 -1.76822282e-02 -1.71170775e-02 1.37558756e-02 -1.15522102e-03  9.85935098e-04 -7.24873214e-04 4.75316271e-02 -1.08887227e-02 -4.71184254e-02 -2.43942793e-02 -3.29574011e-02 -3.65425237e-02  9.97304171e-03 -2.07943306e-03 -3.25656272e-02 1.37741240e-02 -2.96156183e-02 2.10441388e-02 4.58207307e-03 -1.56288929e-02  4.01032679e-02 -2.99092568e-03 2.09514014e-02 2.53193919e-03 -4.17039590e-03 4.53184769e-02 1.05140125e-02 1.54167805e-02 -6.24886807e-03 1.70538295e-03 -6.24017150e-04 -2.39723492e-02 -7.05110328e-03 4.23019454e-02 3.76518182e-02 2.00611744e-02 -4.78019379e-02 1.47777144e-02 -5.90870902e-03 -1.34587539e-02  3.40335406e-02 1.76579300e-02 -5.40667586e-03 2.36404985e-02 -2.58846674e-02 2.40400410e-03 -8.84649344e-03 -3.27332765e-02  4.45217006e-02 1.43582392e-02 9.39895120e-03 -9.99626797e-03 -2.74730590e-03 -2.28820532e-03 1.28326770e-02 -2.75109224e-02  1.42268855e-02 2.75607151e-03 2.07836386e-02 1.56335048e-02  4.10526581e-02 2.31905878e-02 5.32284006e-02 3.17880744e-03  1.40411239e-02 -5.04836161e-03 4.11460456e-03 -6.48200093e-03  8.08391068e-03 9.07190610e-03 2.14137826e-02 -1.96045581e-02 
-1.40758427e-02 -1.57454307e-03 -1.11612529e-02 -1.78056359e-02  5.04517974e-03 1.61715224e-02 -2.04607553e-04 -1.22105535e-02  1.91086773e-02 2.71478528e-03 1.88966263e-02 6.50200387e-03 -7.42414547e-03 2.71590659e-03 -1.21518690e-02 2.05596238e-02 -1.19729480e-02 -1.94905698e-02 -5.66464383e-03 2.15919986e-02 -8.02115723e-03 2.32694000e-02 -3.21575180e-02 -7.57868576e-04 -2.77572069e-02 4.59412532e-03 2.11001728e-02 1.06867477e-02 -1.49598932e-02 8.45655857e-04 1.14333152e-03 -5.31469285e-03 -6.13124692e-04 1.06414454e-02 9.55830608e-03 -2.28595734e-03 -1.34179844e-02 -2.58696210e-02 -1.27179557e-02 -2.12347116e-02  1.40620861e-03 -5.59718872e-04 -7.80595746e-03 1.97313707e-02 -6.23845542e-03 8.97943415e-03 1.20768361e-02 -1.39660016e-02  1.15701873e-02 5.17032051e-04 -8.57597031e-03 1.13136945e-02  7.18957977e-03 1.09765977e-02 -1.91152431e-02 4.59140487e-04 -1.34996688e-02 8.77249148e-03 1.46846157e-02 -1.60355121e-02 -1.33645143e-02 -9.32503899e-04 1.72845460e-02 1.60932932e-02 -1.55738154e-02 -1.46350404e-02 -7.98016228e-03 -9.20254178e-03 -4.05593263e-03 3.16210813e-03 4.17048403e-04 3.49391205e-03  6.21515210e-05 1.20726917e-02 -7.74079887e-03 -9.95671749e-03  2.69607063e-02 2.18789233e-03 2.23670024e-02 -5.11495071e-03 -1.69534013e-02 5.60852746e-03 -1.01346872e-03 6.23333640e-03  1.18565075e-02 -1.00284372e-03 2.06568874e-02 1.14843845e-02  3.27061750e-02 1.02235535e-02 2.75846478e-02 9.63063259e-03  1.03438850e-02 1.50219528e-02 -1.65812727e-02 9.01438296e-03  1.00006210e-02 -8.73881974e-04 1.36082610e-02 -8.68973602e-03 
0.00443269 -0.02137871 -0.01999939 -0.01840442 -0.00073092 0.0002524  0.00520543 -0.02373935 0.01489317 0.01493192 0.00545565 -0.00427578  0.01292199 0.00638252 -0.00278649 0.03475896 -0.02596728 -0.00583251  0.00456712 0.02849047 -0.00661931 0.02087935 -0.00535733 -0.00371036  0.00114166 -0.00567654 0.00462111 -0.00862726 -0.01363122 0.02315481 -0.0126294 -0.00580226 -0.0090528  0.01019422 0.03361957 0.01288002 -0.04591349 -0.03477709 -0.00682  -0.03487259 -0.00601562 0.00206556 -0.03089737 0.03155466 -0.01727657 0.00567062 0.01413558 -0.03114587  0.01566455 -0.00926473 0.01455438 0.01594194 0.00846555 0.03767034 -0.01634248 0.02719491 -0.00916036 0.00674524 0.02139251 -0.04012603 -0.03611827 0.0235404  0.01513925 0.03669453 -0.03000434 -0.00300281 -0.01181943 0.00617273 0.00359415 0.02229274 -0.02294194 0.04234903 -0.04345439 0.00981211 0.01900568 -0.01348776 0.02163692 0.00748291  0.01712316 -0.01261231 -0.00165572 0.0051515  0.00206355 -0.00857962  0.02656281 -0.01248858 0.01240715 0.00962328 0.0333302  0.01141143  0.03562697 -0.00072718 0.01781886 0.00752669 0.02299628 0.030448  0.01183876 0.00046452 0.01435718 -0.02282688 
-0.00519496 -0.00693368 -0.01079555 -0.07009198 -0.0084354  0.0107361 -0.01198477 -0.02722101 0.00151844 0.01291239 0.01555694 0.01552813 -0.00957771 -0.02685804 -0.0124508  0.02137055 -0.02433783 -0.02083043  0.00307764 0.0245362 -0.03966282 0.03021305 -0.02621368 -0.00391091 -0.00258252 -0.00090899 0.01411149 -0.01395697 -0.02815583 -0.00297382  0.00713114 0.00668161 -0.0299071  0.00037169 0.03576861 -0.00609237 -0.04192399 -0.04285967 -0.01677525 -0.02178435 -0.02273164 0.02117292  0.00892363 0.05354301 -0.03198004 0.00802878 0.0388641 -0.05365242  0.00984678 -0.01782267 -0.01698666 0.0387996  0.01883847 0.03730581 -0.02881762 0.01092756 -0.02649331 0.01657661 0.04423403 -0.02100985 -0.04531125 0.00059497 0.01482865 0.01654421 -0.05176019 0.00636833 -0.01746793 -0.01070282 0.00943413 0.02781434 -0.00142473 0.02893491 -0.0241059  0.03305467 -0.01233375 -0.01946299 0.05188102 -0.02066004  0.01088087 -0.0182797 -0.02638374 0.00763619 0.0196532  0.00078272  0.02951458 -0.01360275 0.04916941 0.02627876 0.03455198 0.037145  0.04179225 0.00640232 0.03368385 -0.00847294 0.00981042 0.00984146  0.00044762 -0.00667374 0.04027963 -0.00652901 
-7.79492967e-03 3.19384085e-03 -7.20033236e-03 -3.48820575e-02  1.10143814e-02 1.44721032e-03 -1.41157610e-02 -9.33456048e-03  2.17939802e-02 -3.12170188e-04 1.33256186e-02 8.82784929e-03 -4.47704876e-03 -1.24148908e-03 1.32068982e-02 2.08309125e-02  6.92356844e-05 -1.14292894e-02 -1.79462926e-03 1.81700606e-02 -1.48688769e-03 3.13379727e-02 -7.39626004e-04 -8.00186954e-03 -1.17284236e-02 2.48951279e-03 -1.52163557e-03 2.06905743e-03 -1.56249469e-02 3.44259152e-03 1.42185055e-02 -2.07324862e-03 -6.06749731e-04 6.82235230e-03 2.58469041e-02 -7.33673526e-03 -2.51041390e-02 -2.70396881e-02 -1.95442680e-02 -2.46909261e-02 -1.59590412e-02 4.14377032e-03 6.00110367e-03 2.29562074e-02 -1.78059284e-02 1.02849957e-02 2.71647633e-03 -1.22643150e-02  9.94428061e-03 -2.52204086e-03 1.42109059e-02 1.54581862e-02  4.50732885e-03 2.36923229e-02 4.02797246e-03 2.81980215e-03 -1.09546562e-03 -2.05401098e-03 -8.14266410e-03 -2.56162453e-02 -9.11649875e-03 7.99878128e-03 1.44343032e-02 2.60711908e-02 -1.99783891e-02 6.31037401e-04 -5.66042447e-03 -2.55938945e-03  2.19660103e-02 2.71579949e-03 1.30370827e-02 3.00511736e-02 -2.16857027e-02 8.14169645e-03 -8.68295971e-03 -2.69294064e-02  2.95108743e-02 9.50250775e-03 9.70137864e-03 8.61251447e-03 -1.01250075e-02 -1.46769919e-03 6.61103893e-03 -1.06520196e-02  1.39339371e-02 4.75154165e-03 2.17954200e-02 1.46472696e-02  1.42232133e-02 1.51084606e-02 2.49351002e-02 -3.95936240e-03  1.66642312e-02 8.05433560e-03 -9.53610893e-03 1.45547492e-02  2.99501303e-03 -2.60608643e-03 2.65936051e-02 -9.99754481e-03 
-0.01629647 0.01389  -0.021475  -0.01797305 -0.00209596 0.00804487 -0.02187512 -0.00492768 0.01293368 -0.00260478 0.0228049  0.01417063  0.00069663 -0.0145158 -0.0008314  0.01345872 0.00170586 -0.01292996  0.00069122 0.01242115 -0.00383565 0.02354213 -0.01589695 0.00184463 -0.02918307 -0.01156687 -0.00686879 0.00283486 -0.01769372 -0.00511948  0.00451449 -0.0096415 -0.00793559 0.0156986  0.01353259 -0.00626953 -0.00873051 -0.02752401 -0.02453502 -0.00442546 -0.00057099 -0.00556743  0.0183535  0.01490984 -0.00806131 0.01171206 0.00457525 -0.01132394 -0.00228285 -0.00196987 0.00700431 0.01223253 0.01095691 0.02228398 -0.00678332 0.0045775 -0.00763774 -0.0039334 -0.00441566 -0.01698326 -0.00182202 0.00051577 0.00016924 0.0224493 -0.01933736 -0.00858345  0.00374292 -0.0024364  0.0097102 -0.00192204 0.01776203 0.01066925 -0.00997136 0.00823245 -0.00875778 -0.01483903 0.03286465 0.00057417  0.01899297 -0.00446913 -0.00815861 0.00378853 0.00170337 -0.00258797 -0.00092234 0.00237894 0.02542764 0.00336575 0.02111583 -0.00262332  0.01817932 0.01337012 0.01148876 0.018274  -0.01276242 0.01177988  0.01790019 0.01377977 0.02230706 -0.00570508 
-0.02620057 -0.01018696 -0.00342393 -0.0825088 -0.00668429 -0.00070183 -0.01911597 -0.0390852  0.03266149 -0.00314814 0.03435613 -0.01781907  0.00699914 -0.01390654 -0.01632081 0.03570732 -0.02645672 -0.05429789 -0.00294689 0.06025652 -0.01012373 0.05863978 -0.03356007 -0.00371427 -0.07279832 0.0076911  0.0204276  0.00057614 -0.04033906 0.005293 -0.00189131 0.00574123 0.00030013 0.01167888 0.06141007 0.00525951 -0.06983764 -0.04832153 -0.04980849 -0.07982565 -0.00527392 0.02448864 -0.04095478 0.04431451 -0.03966831 0.03373686 0.0099423 -0.04555072  0.04515564 -0.00478824 -0.01409711 0.00372785 0.00550135 0.05657637 -0.03261717 0.0187131 -0.02588689 0.02878786 0.03081749 -0.03134912 -0.03936289 0.04388455 0.04812808 0.04416316 -0.06472504 -0.00652284 -0.03097937 -0.01303776 0.01864225 0.01978047 0.00689892 0.04925776 -0.0319077  0.01136948 -0.01121681 -0.07047947 0.09755674 -0.00088969  0.02926708 0.00262517 -0.03129233 -0.00067612 0.00712374 -0.01179009  0.02977573 0.00953766 0.04784292 0.02629803 0.09297457 0.03414863  0.06961144 0.00156131 0.03006746 0.0221009 -0.01372649 -0.00078279  0.02267186 0.00322839 0.04294575 -0.02360907 
-0.03503199 0.00226194 -0.0242967 -0.03366593 0.00925086 0.00719044 -0.02816554 -0.0435026  0.03827008 -0.01068126 0.02731193 -0.00759522  0.00979214 0.00453741 -0.00657636 0.02813318 -0.01249851 -0.04561492 -0.01445827 0.0546857  0.00745613 0.04640923 -0.04589092 -0.00016976 -0.0833637 -0.00996199 0.02036588 0.00717611 -0.04030145 -0.00297347  0.02970585 -0.00399858 0.01764502 0.03050821 0.02284141 0.00922345 -0.03152917 -0.007908  -0.0343123 -0.04366092 -0.00760237 0.00649197 -0.01690605 0.03173041 -0.00907426 0.03078768 0.00972617 0.01365106  0.0291889 -0.00333566 0.01996181 -0.00469311 0.01524067 0.02308551 -0.03248401 0.02571443 -0.01068428 0.01416411 0.00660825 -0.02557861 -0.01478027 0.02655698 0.0089465  0.02173875 -0.03700644 -0.00165613 -0.00127972 -0.01901058 -0.0022697 -0.00199256 0.01632921 0.03541635 -0.00334213 0.01077234 -0.00519202 -0.04083469 0.04833217 -0.00140368  0.02660627 0.01038049 -0.02520119 -0.00370703 0.01164897 0.0065479  0.0081288  0.01814858 0.02450003 0.02570087 0.043671  -0.00712383  0.06548773 -0.00456697 0.00530833 0.0306866 -0.01521719 0.00751849  0.02559899 0.01823662 0.01894698 -0.01189834 
-0.01907358 -0.00083652 -0.02602832 -0.04501413 0.00372506 -0.00086613 -0.01860546 -0.04625529 0.01112223 -0.00374326 0.01487033 -0.00455154 -0.00240716 -0.00893357 0.00815432 0.03432731 -0.0243984 -0.01986358  0.0068879  0.04954673 -0.00753178 0.04533445 -0.01262745 0.00215853 -0.02442434 0.00464164 0.00440154 -0.00198534 -0.03054574 0.00803109  0.00598559 0.00822301 -0.00609508 0.00305315 0.03802575 -0.00473152 -0.05885547 -0.04379263 -0.01914625 -0.03661157 -0.03316542 0.01645326 -0.00816659 0.03577049 -0.03186566 0.02317688 0.01738797 -0.02615017  0.02497576 -0.01232033 0.03086127 0.01098081 0.00587263 0.02691241 -0.00467287 0.03069621 -0.00656832 0.00728395 0.01555377 -0.03466251 -0.03227211 0.01158386 0.01878458 0.03134318 -0.03962566 0.00901271 -0.00756602 0.00571103 0.02091578 0.01248132 -0.0100694  0.02941266 -0.03420058 0.02371802 -0.001382  -0.02038038 0.04042609 -0.01412869  0.02608379 0.00302552 -0.01895796 -0.00252166 0.00878589 -0.00834598  0.01531831 -0.0117831  0.02309469 0.02625796 0.03387771 0.01344022  0.04447958 0.00759704 0.02449854 -0.00055914 0.01159903 0.01470079  0.00807535 0.0155227  0.04899114 -0.01614488 
-0.01127877 0.00236723 -0.03229156 -0.03286504 0.00336866 0.00556907 -0.02056186 -0.02495131 0.01651464 -0.00174924 0.02141254 0.00491134  0.00804024 -0.01623764 -0.00163084 0.01990542 -0.0170238 -0.01861163  0.0071843  0.02718188 -0.01117528 0.02941937 -0.01834672 -0.01446825 -0.03156739 0.00326524 0.00186587 0.01095691 -0.03246605 0.00504026  0.01267792 -0.0058889 -0.00727502 0.00707104 0.02100373 -0.01137676 -0.02129608 -0.03652772 -0.02461609 -0.02684287 -0.0036931 -0.00762635  0.0067451  0.02979323 -0.01942463 0.01012868 0.02613525 -0.01415003  0.00132128 0.00942838 0.01648301 0.01061342 0.00365612 0.0397477 -0.00600952 0.01782868 -0.00947875 0.0068673  0.00813664 -0.02007624 -0.01270193 0.02656307 0.02089613 0.03336707 -0.03005655 -0.00317224 -0.00283949 0.0010856  0.00802338 0.00521005 -0.00645776 0.01978978 -0.00029355 0.01405897 -0.01618182 -0.03104866 0.04455596 0.00704126  0.03014595 -0.00950558 -0.01584928 0.00978286 0.0055458  0.00809695  0.01221487 -0.01570697 0.02652282 0.00988944 0.03168381 0.00848738  0.04391872 0.02045623 0.02654986 -0.00054901 0.00856487 0.00692896  0.01806316 0.0163251  0.0226271 -0.01061087 
-0.05201206 -0.00898982 -0.02634598 -0.0968445 -0.02319179 0.02502104 -0.00013525 -0.05549948 0.04245163 0.00809898 0.055917  -0.00844656 -0.0258102 -0.02172578 -0.02484375 0.04350109 -0.04918275 -0.0340695 -0.00504359 0.06547852 -0.0411642  0.05756751 -0.04464598 0.01799675 -0.06856316 0.00101392 0.03741023 -0.01321856 -0.05247942 -0.01066985  0.01253994 0.00303077 -0.01864106 0.00904171 0.07369376 0.00935773 -0.08063133 -0.0716069 -0.02924716 -0.05666815 -0.02879244 0.0156719  0.00783154 0.0887198 -0.05688588 0.03756254 0.0423643 -0.05057806  0.04301206 -0.01855469 0.01523374 0.06416942 0.02550305 0.07331349 -0.04122318 0.03570854 -0.05879664 0.03747122 0.05945514 -0.03199859 -0.0689119  0.0276923  0.03339547 0.03271442 -0.08780611 0.01861076 -0.03298101 -0.0176395  0.00460488 0.0498125 -0.00285032 0.06145515 -0.05594398 0.04518859 -0.00472272 -0.05346626 0.08936062 -0.00989605  0.05320973 -0.0223701 -0.05465589 0.01248419 0.00880307 -0.00631008  0.04759689 -0.01106681 0.06545629 0.0388236  0.06397185 0.02659627  0.08245674 0.00074744 0.04477995 0.00884708 0.00936334 0.03532327  0.03773639 0.01508539 0.05095116 -0.03143726 
-0.00774062 -0.00830792 -0.00306337 -0.04847559 -0.0033186  0.00106608 -0.00609534 -0.02368618 0.00772041 0.01078288 0.02079301 -0.00047793 -0.00547743 -0.00948602 -0.02478667 0.02846731 -0.02408827 -0.00822577 -0.00722902 0.03429228 -0.01347454 0.0238701 -0.03047016 0.01903376 -0.03873431 0.00819728 0.02025259 -0.00584754 -0.03073441 -0.00234016 -0.00735231 -0.00129611 -0.01423691 0.01361175 0.01649446 -0.007575 -0.04083648 -0.0295886 -0.0229714 -0.03797859 -0.00770471 0.00807476 -0.01500656 0.0379421 -0.02701669 0.01104214 0.01603967 -0.04200136  0.01991789 -0.0086807 -0.00701538 0.00267534 0.00438422 0.03382979 -0.0307297  0.00471379 -0.02219359 0.01182553 0.02345712 -0.01920117 -0.02788286 0.00391373 0.04473068 0.00315441 -0.03604485 -0.01199263 -0.01557682 -0.00409744 0.00919297 0.0059472 -0.00220349 0.01512695 -0.02457452 0.02939114 -0.0062308 -0.02799905 0.0502227 -0.01001178  0.0241959 -0.01179652 -0.00329758 -0.00608218 0.00609347 -0.0001678  0.0247796 -0.01208684 0.03049136 0.0156619  0.05180421 0.02724705  0.03558271 -0.01094763 0.01916459 -0.01066996 -0.01262458 0.01093147  0.02371721 0.0074878  0.01710539 -0.01001569 
-0.00050618 0.00067577 -0.02252103 -0.02151302 0.00963027 0.00343083 -0.01274349 -0.02538968 0.02251566 -0.00443826 0.02127213 0.00838393  0.00388388 -0.00080317 -0.00118732 0.01820656 -0.00243493 -0.01914602 -0.00932614 0.0160296 -0.00428258 0.02177845 -0.01751706 -0.01510726 -0.02105596 0.00400337 0.00081168 0.00303338 -0.02634816 0.01406013 -0.00325585 -0.00892415 -0.00663074 0.01285849 0.01411207 -0.0040434 -0.01828651 -0.01922174 -0.02151076 -0.02648846 -0.00452882 -0.00324475  0.00056172 0.02335916 -0.01649989 0.012287  0.00672648 -0.01046335  0.00614063 0.0128957  0.01774755 0.00827842 0.01453982 0.02599387 -0.00543748 0.00782783 -0.00305042 0.00711706 -0.00161957 -0.00870022 -0.01103267 0.01481061 0.01346251 0.02406263 -0.0124156 -0.01348543 -0.00532379 -0.00869658 0.00465445 -0.00043152 0.011734  0.02283261 -0.00870273 -0.00107367 -0.00095994 -0.014049  0.03472655 0.00591333  0.01578454 0.00027972 -0.02846864 0.00736709 0.0021185 -0.00719809  0.00708556 -0.00093698 0.01617955 0.01377806 0.00854786 0.00074166  0.03364134 0.00262472 0.01935886 0.00568144 0.00344842 0.00585237  0.0105868  0.01869053 0.0110822 -0.01018833 
-0.0268272 -0.00688187 0.00330584 -0.02845373 0.00154185 0.01789415 -0.01309639 -0.02320653 0.01810868 -0.00694901 0.01203292 -0.00487221  0.00739551 0.01101126 -0.01211964 0.0342527 -0.01206345 -0.02443525 -0.0061577  0.04810018 -0.00663902 0.03733192 -0.03700074 -0.01638081 -0.02072589 0.00055985 0.00364758 0.01018875 -0.0037316 -0.01652602 -0.00620677 -0.01633025 0.00223821 0.0245032  0.03063395 0.00349978 -0.03160447 -0.03540991 -0.02851856 -0.03012902 -0.00751548 -0.00506633 -0.02827168 0.0292709 -0.00756334 0.01059183 0.01141078 -0.01925842  0.02169567 -0.00869773 -0.00657106 -0.00467153 0.01148949 0.02548184 -0.01939697 0.00111636 -0.01347063 0.01178842 0.01253703 -0.03103381 -0.01846237 0.00809409 0.03564021 0.02187988 -0.03505401 0.00053358 -0.0153513 -0.02042297 0.01899845 0.01479423 -0.00259597 0.02241511 -0.00402285 0.01271958 0.00283588 -0.03514984 0.04347119 -0.00248746  0.02758403 -0.01972525 -0.0148849 -0.00680662 -0.00134098 -0.01002135  0.01805884 0.00763369 0.02155833 0.01644792 0.04550205 0.02441569  0.04727604 -0.00158245 0.0022794  0.00163414 -0.00309413 0.00617363  0.01435996 0.00123967 0.00823113 -0.0140481 
-0.02558583 -0.02118413 -0.02677281 -0.03260097 0.0143742 -0.00949666 -0.01301741 -0.01905772 0.02369165 0.00780954 0.02438481 -0.00573046  0.00237425 0.02225926 -0.00021155 0.02061556 -0.00560219 -0.02813848 -0.01174018 0.01660199 0.00775404 0.03935809 -0.00756156 -0.00845214 -0.04988871 -0.00752125 -0.00287276 0.00020728 -0.02362363 0.00364368  0.02372461 -0.00764749 0.00410984 0.01813363 0.04046962 -0.00186838 -0.03245867 -0.02714904 -0.03809313 -0.0572482  0.00456056 0.00980416 -0.01766781 0.02425541 -0.01891181 0.0211444  0.00018965 -0.00767572  0.02392245 0.01413253 0.01800906 0.01341649 0.00547924 0.02280198  0.01042969 0.02749728 -0.01045874 0.0016174  0.00940096 -0.02302484 -0.02761924 0.02594202 0.03289118 0.03210139 -0.01764435 -0.0038955 -0.00274651 -0.01754367 0.0213251 -0.01108271 0.00531703 0.02979559 -0.01925322 0.01491378 -0.01842327 -0.03749764 0.04389244 0.02577188  0.00690162 -0.00316158 -0.01510299 -0.00397474 0.010769  -0.01458027  0.00391659 -0.00113602 0.01938275 0.00762462 0.00859631 0.00124076  0.0460613 -0.0026213  0.01114822 0.00735372 0.00896955 0.02520667  0.01692674 0.01365236 0.01168216 -0.00974456 
-0.02542593 -0.00239458 -0.05040673 -0.0919121  0.01186265 -0.00540783 -0.03087542 -0.05409793 0.0339474 -0.00799878 0.03535619 -0.01059229  0.00035462 -0.00895266 -0.00030404 0.04494897 -0.02949039 -0.02712333  0.00529598 0.07809334 -0.02366982 0.05540302 -0.04834715 -0.01295238 -0.06739357 0.02535503 0.01320305 0.00312993 -0.05927142 -0.00312738  0.01868501 -0.00626226 -0.0035643  0.00843597 0.05297009 -0.01217831 -0.05935491 -0.06214362 -0.04359879 -0.05770663 0.00391524 0.01041039 -0.0259772  0.0651896 -0.04944124 0.02095648 0.039537  -0.04970622  0.04200844 0.00914746 0.03650101 0.00647041 -0.00197272 0.06452531 -0.00513328 0.04102436 -0.0084616  0.01940398 0.01960004 -0.0494335 -0.02872842 0.04595328 0.04621583 0.03910144 -0.0719758  0.00306563 -0.02254684 -0.012246  0.02527814 0.02294143 -0.01603431 0.04159914 -0.00952187 0.01767571 -0.02479887 -0.06214809 0.08308783 -0.00369196  0.04953946 -0.00709183 -0.03646308 0.01587381 0.02958426 -0.01403742  0.01536309 -0.00320807 0.05670889 0.04162067 0.06830133 0.01849636  0.09802065 0.01231119 0.04431559 0.00209398 0.00266527 0.01144029  0.0204461  0.02406972 0.04717566 -0.02984189 
-2.2078805e-02 1.1085390e-02 -3.9067931e-02 -4.7587518e-02  9.1040051e-03 3.5505018e-03 -2.1963872e-02 -1.8201586e-02  4.5974527e-02 -8.5212346e-03 4.6011578e-02 -9.5820986e-04 -5.9358282e-03 -1.8079309e-02 -9.8065846e-04 3.9624117e-02 -2.5366744e-02 -3.1818505e-02 1.1051738e-02 5.4237746e-02 -9.4949855e-03 6.1117899e-02 -3.5141684e-02 -4.4916382e-05 -5.1471893e-02 -2.0219156e-04 6.7454888e-03 2.0634659e-02 -3.0996574e-02 5.8804522e-03 1.7211672e-02 -1.7373923e-02  4.3855696e-03 1.0409111e-02 1.7160492e-02 -1.1862473e-02 -4.0281139e-02 -3.4558050e-02 -2.4895979e-02 -5.1668305e-02 -2.1582030e-02 1.8499216e-02 1.1014657e-02 7.0405550e-02 -2.6558841e-02 3.2966867e-02 1.8351901e-02 -2.7609617e-02  3.3094462e-02 -2.5767852e-02 3.1534858e-02 3.2961555e-02  1.9909581e-02 3.3425186e-02 -2.0774100e-02 2.6288357e-02 -1.7816177e-02 2.4805833e-02 1.2606427e-02 -2.4562426e-02 -3.2683052e-02 -2.5289510e-03 1.8404478e-02 3.0258151e-03 -3.8032982e-02 -3.2021955e-03 -9.6680410e-03 -5.3661009e-03  2.5293527e-02 8.7119834e-03 1.0240799e-02 3.6952235e-02 -3.4484349e-02 4.1937094e-02 -2.1961223e-02 -4.4038232e-02  6.5134719e-02 1.0120946e-03 2.7380461e-02 1.2809986e-02 -2.6220312e-02 2.0402843e-02 -1.0058322e-04 -7.2249970e-03  8.2993777e-03 8.8744927e-03 3.6020435e-02 4.1301031e-02  4.8557360e-02 1.3605608e-02 6.6260278e-02 -2.2318827e-02  1.6161459e-02 5.1944549e-03 -1.4983244e-02 2.0162249e-02  2.8183579e-02 2.8963739e-02 5.5249009e-02 -3.2551739e-02 
-0.01355957 -0.00212022 -0.01825252 -0.03164288 -0.00014158 -0.00031658 -0.01418008 -0.02732988 0.00657477 -0.00599793 0.01178403 -0.00677546  0.0001129  0.00462143 0.0083047  0.01715542 -0.01058926 -0.0100394  0.00210592 0.03248356 -0.00470285 0.02007842 -0.01668441 -0.0011774 -0.03001777 0.0094015  0.00347898 0.00112229 -0.02360492 -0.00133523  0.0010663  0.00287238 -0.00192342 0.0018303  0.01924607 -0.00377445 -0.02773176 -0.02053296 -0.01545326 -0.0222265 -0.00301115 0.00131405 -0.01386062 0.01525861 -0.02499449 0.00693004 0.00912456 -0.00870026  0.01452459 0.00458908 0.02075275 -0.00737894 0.00086147 0.01420439  0.00374072 0.015875  0.00510256 -0.00036054 0.00797647 -0.01741614 -0.00730698 0.01641038 0.01295338 0.0223178 -0.02620234 0.00235664 -0.00247888 0.00298032 0.01100409 -0.00246788 -0.00811843 0.00824391 -0.00353683 0.00881755 -0.00449885 -0.0118263  0.02118265 -0.00873087  0.01812907 0.00629706 -0.01267271 -0.0004907  0.01075428 -0.00574772  0.00030482 -0.00735835 0.01445346 0.01321104 0.01907182 0.00201697  0.02939833 0.00662707 0.01686381 0.001747  0.00279598 0.00440384  0.00544358 0.01491222 0.01753763 -0.00737378 
-0.01281902 -0.00762697 -0.00786146 -0.05125348 -0.0068225  0.00645203 -0.00935922 -0.00593726 0.02049434 0.00087624 0.02304075 -0.00134233 -0.02119634 -0.02214153 -0.00995911 0.01922445 -0.01901902 -0.00192588  0.00862155 0.02961778 -0.02820796 0.02098317 -0.01626683 0.00354776 -0.01613064 0.01515898 0.01690389 -0.00455522 -0.01207668 -0.01036726  0.00303721 -0.004812  -0.0100241  0.00418722 0.03017434 -0.00555059 -0.03535591 -0.03641304 -0.01640731 -0.03491521 -0.01392092 0.00522302 -0.00386108 0.04649819 -0.02282231 -0.00177752 0.00942761 -0.04242387  0.01212258 -0.00688647 0.00446269 0.02666255 0.00483404 0.02624041 -0.0108875 -0.00309329 -0.03184975 0.01448867 0.02284006 -0.01637881 -0.02090328 0.00305971 0.02756723 0.01444904 -0.0380228 -0.00345126 -0.0158253 -0.00245386 0.01787889 0.01417259 0.00318619 0.01489298 -0.01826657 0.02292454 -0.00560168 -0.03210025 0.04522827 -0.00358374  0.02069948 -0.0063161 -0.01838634 0.01279034 -0.00165854 0.00219471  0.01647819 -0.00413684 0.03065517 0.02324492 0.04628905 0.0293856  0.04125253 -0.00010733 0.03244809 -0.00089145 -0.01336763 0.01473707  0.01286191 0.00670574 0.03287769 -0.02171161 
-0.0274382  0.00576644 -0.01483644 -0.05610851 -0.00182582 0.01196196 -0.03425158 -0.01260856 0.02098432 -0.0031346  0.03586273 -0.0074375 -0.00250602 -0.00171631 0.00928316 0.01391883 -0.00079309 -0.01495699  0.01111048 0.04180367 -0.02258242 0.03218587 -0.02265709 -0.00575848 -0.06181322 0.01494833 0.01056069 -0.00797131 -0.03266393 -0.0088392  0.02111187 0.00269408 -0.00373701 0.01347421 0.04758024 -0.00127806 -0.02555013 -0.02581741 -0.03235201 -0.04546618 0.00608297 0.00791844 -0.01976461 0.04153953 -0.01679673 0.00311469 0.00580098 -0.02683838  0.02461248 -0.0020359  0.01711779 0.00747162 0.0067925  0.0145676 -0.00511039 0.0122886 -0.01708781 0.0082424  0.01716  -0.02951688 -0.00429286 0.01529008 0.00887705 0.02671498 -0.05063206 -0.00358298  0.00297396 -0.00892087 0.01708533 0.0010889  0.00916488 0.01281924 -0.01746065 0.02552378 -0.0154749 -0.03882354 0.05913511 0.0101671  0.01848399 0.00214817 -0.01375422 -0.00103897 0.00303799 -0.00540377  0.00338474 0.01453697 0.02838793 0.0194119  0.03502199 0.01640918  0.05325236 -0.00186992 0.0218995  0.02018766 -0.02816685 0.01209877  0.02708666 0.01703666 0.02279487 -0.00230082 
-1.4339310e-02 -4.8393151e-03 -1.7712487e-02 -3.9596204e-02 -2.3172507e-03 -2.8065029e-03 -7.4177491e-03 -2.6997432e-02  7.0725037e-03 -1.4378814e-03 1.2515593e-02 -1.4431992e-02 -7.3054237e-03 6.2379274e-03 1.4990961e-02 2.4860693e-02 -1.6651653e-02 -1.3017634e-02 2.2346911e-03 3.0853160e-02 -6.7263325e-03 1.9511729e-02 -1.8101402e-02 -1.1717268e-03 -2.8435379e-02 1.1056979e-02 7.1903085e-03 2.4785998e-03 -2.6025001e-02 1.7763253e-03 -7.5783422e-03 7.8422315e-03 -6.7238337e-03 4.2673710e-04 2.4812292e-02 -1.1323152e-02 -3.1003218e-02 -2.5971601e-02 -1.1618844e-02 -1.9371342e-02 -6.7548826e-03 7.9795945e-04 -1.8587282e-02 1.7434826e-02 -3.0525645e-02 5.0890362e-03 1.6823845e-02 -2.1661354e-02  1.0100221e-02 9.6862875e-03 1.0052611e-02 -1.1673306e-02  9.5487095e-04 2.5162727e-02 1.3690132e-02 1.4132513e-02  2.9373248e-03 1.8460588e-03 9.8932143e-03 -1.0040457e-02 -5.0779120e-03 2.4511166e-02 2.2747528e-02 3.2471452e-02 -3.7827440e-02 4.6376977e-03 -5.9336447e-03 9.4994044e-05  2.1078750e-02 -1.0308169e-03 -8.9900848e-03 3.6235442e-03 -6.0687317e-03 9.9669835e-03 -3.3017981e-03 -1.5438238e-02  2.5534397e-02 -9.4746090e-03 1.1190912e-02 9.4046006e-03 -1.2344653e-02 -1.0936421e-02 1.1167858e-02 -6.1506229e-03  1.0578293e-02 -1.0207587e-02 3.1983078e-02 1.1173679e-02  2.5058229e-02 9.1376984e-03 2.8711528e-02 6.2645618e-03  1.9882059e-02 1.3778991e-03 8.3118835e-03 -2.3733284e-03 -6.9777956e-03 6.7617702e-03 1.8912170e-02 -2.3544435e-03 
-3.0136652e-02 1.5079437e-03 -1.5490074e-02 -8.0852263e-02  2.1844608e-04 2.2101225e-02 -3.5017259e-02 -3.7171710e-02  3.0064022e-02 -6.6646142e-05 2.0320173e-02 -8.4351311e-03  1.4486036e-02 -1.5037693e-03 -7.1915942e-03 1.6142119e-02 -8.7111564e-03 -3.1805463e-02 1.0995614e-02 4.4123553e-02 -1.9018305e-02 4.6165466e-02 -2.3826739e-02 -2.4224413e-03 -5.5907719e-02 1.9161295e-02 3.6554206e-02 -4.2443061e-03 -3.7048813e-02 -1.2087604e-02 -8.4887361e-03 1.0355320e-03 -9.5939618e-03 -2.9777456e-03 3.3770140e-02 -1.2136018e-02 -4.0251665e-02 -3.7430339e-02 -3.6667202e-02 -6.7469560e-02  7.4969226e-04 2.0162784e-02 -1.3044804e-02 2.1242209e-02 -3.4764566e-02 1.6258182e-02 1.4984345e-02 -1.1856763e-02  4.0540893e-02 -1.1945040e-02 1.7649448e-02 1.7917946e-03  1.0887296e-02 3.9415125e-02 -1.0689137e-02 8.9655556e-03 -8.7660989e-03 -2.4749239e-03 1.9770380e-02 -2.3962097e-02 -1.5952289e-02 1.1158975e-02 2.1564400e-02 2.7084429e-02 -5.3723052e-02 7.7176737e-03 -1.9579642e-02 9.6728856e-04  1.5175556e-02 1.7639462e-02 -1.2713647e-04 2.4223682e-02 -1.6056407e-02 1.6327828e-02 -1.9848326e-02 -2.1425482e-02  4.3242868e-02 -1.7290713e-02 3.8784761e-02 1.7668113e-02 -2.6761172e-02 1.3384611e-03 4.4309674e-03 -1.1630519e-02  2.6356092e-02 1.5580205e-03 2.9611541e-02 1.7542971e-02  5.0432604e-02 2.8001832e-02 3.3048328e-02 7.7507307e-04  3.4550685e-02 1.2648497e-02 -1.9305903e-02 2.0883732e-02  2.4868738e-02 1.0173970e-02 4.3380909e-02 -3.7306498e-03 
-0.02981624 -0.03171206 -0.03148118 -0.12977147 -0.0197938  0.01262994 -0.03359118 -0.05358642 0.06349195 0.00209244 0.06820784 -0.01047832 -0.01781986 -0.01679798 0.00083157 0.06708177 -0.04969697 -0.05196436  0.02359918 0.05534858 -0.03087262 0.06034447 -0.06336159 0.00391801 -0.07448033 0.01794843 0.02268736 0.00666292 -0.05224924 -0.00838452 -0.02327156 0.0003866 -0.02226621 0.01667751 0.07829597 -0.00731764 -0.09428834 -0.07660306 -0.05218348 -0.11006732 -0.00299571 0.01021055 -0.0531487  0.08419769 -0.05080487 0.01738781 0.03226789 -0.04799559  0.05466026 -0.00259658 -0.01730398 0.0307189  0.01314777 0.09363294 -0.03476124 0.00620992 -0.05476703 0.02266005 0.05965716 -0.02640774 -0.03892389 0.05199794 0.06593239 0.08449049 -0.09847784 -0.00091315 -0.03319626 -0.00107785 0.03692416 0.02441888 0.00522521 0.06669933 -0.04299571 0.03835851 -0.00579702 -0.07195791 0.10696965 -0.00100157  0.03787254 0.00634062 -0.03646013 0.00022244 0.00533026 -0.01313345  0.05103384 0.01540762 0.06790496 0.03467182 0.11830053 0.06817716  0.0802983  0.00869985 0.07575037 0.01455324 0.00738326 0.00120791  0.0241769  0.02008288 0.05961473 -0.04314037 
-9.39367618e-03 -3.72480950e-04 -2.72240099e-02 -6.29656836e-02  7.50806695e-03 -4.48660413e-03 -1.16352718e-02 -2.07470916e-02  1.67855527e-02 -1.11810595e-03 2.10653003e-02 -4.38358728e-03 -3.82901961e-03 -1.01835849e-02 -6.03835471e-03 2.37594023e-02 -1.88764669e-02 -1.52657302e-02 5.24153220e-05 3.67501825e-02 -1.50785325e-02 2.86383778e-02 -2.03932598e-02 -7.28518143e-03 -2.68821158e-02 4.19582939e-03 1.16259586e-02 5.20983385e-03 -3.50505598e-02 -3.04036867e-03 2.27574483e-02 3.43631837e-03  1.17075630e-03 -6.65293657e-04 3.37254032e-02 -1.02166887e-02 -2.96616182e-02 -3.42034660e-02 -2.99423411e-02 -4.35379110e-02  3.58978286e-03 7.50463782e-03 -5.93152130e-03 5.01566939e-02 -2.66901534e-02 2.04165503e-02 2.58890465e-02 -4.12372835e-02  2.07910743e-02 8.45747534e-03 1.18112797e-02 1.85143724e-02 -4.81478591e-03 5.06403930e-02 -6.19752519e-03 3.16171721e-02 -1.76358018e-02 1.84250250e-02 8.61607771e-03 -2.16076337e-02 -2.60769781e-02 2.55154949e-02 3.44541110e-02 2.00123433e-02 -4.82941829e-02 3.06966668e-03 -2.13035159e-02 -1.10058365e-02  1.58491638e-02 2.29734294e-02 -4.17868886e-03 3.36924903e-02 -1.38445627e-02 9.50457528e-03 -9.02001187e-03 -5.35294414e-02  5.57911843e-02 8.55722837e-03 2.44642384e-02 -7.13167991e-03 -1.87906548e-02 1.15683265e-02 1.94535423e-02 -7.59222824e-03  2.53156088e-02 -3.64393042e-03 3.86033095e-02 1.89477503e-02  3.87757085e-02 2.20377874e-02 6.15908429e-02 1.92977197e-03  2.82588229e-02 -1.56292354e-03 3.69537296e-03 3.79526010e-03  1.13207009e-02 4.55904705e-03 2.77398378e-02 -1.72879677e-02 
