-1.35081802e-02 3.57898958e-02 -1.87941194e-02 3.67945768e-02 -2.12119203e-02 1.43473931e-02 2.60280296e-02 -4.27933410e-03  1.58578553e-03 3.12151108e-02 -7.27650672e-02 -3.15180458e-02 -1.74214989e-02 -4.36035357e-03 -4.44756895e-02 9.25125629e-02  1.81747731e-02 7.71240667e-02 -1.16501227e-01 -2.62209144e-03  2.77021504e-03 -5.88138513e-02 2.34973971e-02 -6.57300502e-02 -5.11384755e-02 1.05439136e-02 -1.36353001e-02 1.92539711e-02 -4.47652601e-02 -7.72930542e-03 2.15136586e-03 -5.87586984e-02  2.75872741e-03 1.01819783e-01 1.18999472e-02 -3.56253535e-02  1.34801909e-01 -4.40578461e-02 -8.71735974e-04 -5.76572269e-02 -6.35307562e-03 3.19990050e-03 4.20745537e-02 4.57427502e-02 -2.20284779e-02 -5.84359691e-02 7.63075892e-03 5.92071302e-02 -1.92874391e-02 -5.15932702e-02 -2.59516314e-02 -8.92659128e-02  5.56774288e-02 -1.87478513e-02 -7.12062120e-02 -2.48978287e-03 -3.44780087e-02 1.77107621e-02 2.85460856e-02 1.03587139e-04 -2.17292439e-02 -2.32160464e-02 1.23331677e-02 -1.89951900e-02  8.87720510e-02 2.09701303e-02 3.46834399e-02 -6.65835897e-03 -8.51776376e-02 3.17631736e-02 9.81860161e-02 -1.32478867e-02  7.53600597e-02 3.54791284e-02 -4.32256758e-02 -3.65366489e-02 -3.12574282e-02 3.46980579e-02 -2.96381768e-02 6.01840019e-02 -9.91019420e-03 -3.61309201e-03 3.70339863e-03 -6.35256171e-02 -8.49073846e-03 1.21272625e-02 -6.45216927e-02 1.59160215e-02 -2.63768658e-02 6.95459247e-02 -1.01070486e-01 -5.48675917e-02 -1.64089929e-02 -6.65170280e-03 8.58048499e-02 1.61711015e-02  2.12348960e-02 -6.37780875e-02 1.50252953e-02 1.32187055e-02 -2.28820574e-02 2.96469629e-02 3.04944664e-02 -8.62924755e-02  2.11995114e-02 -3.43530327e-02 -9.32398159e-03 4.26293947e-02  9.14828386e-03 4.44102325e-02 -2.50877272e-02 -1.78595353e-02  1.23020709e-02 7.47710168e-02 1.19312070e-01 -1.26703447e-02 -5.42861558e-02 5.28303646e-02 -5.97151229e-04 1.26082366e-02 -8.46493170e-02 5.07999659e-02 4.36191782e-02 3.64767015e-02  1.30086271e-02 
4.92603565e-03 1.42583596e-02 -5.56698442e-03 1.73532721e-02  8.82769283e-03 -5.93634183e-03 1.17024900e-02 -1.86753254e-02  3.89939349e-04 -3.11793992e-03 -3.12310215e-02 -9.97507572e-03 -2.09122896e-02 -6.09763619e-03 -9.57523193e-03 1.71766356e-02  7.36063346e-03 2.77599059e-02 -4.68754061e-02 -1.45925693e-02 -4.66527464e-03 -7.08490843e-03 1.41470246e-02 -2.40280814e-02 -2.08414346e-02 1.18374089e-02 3.67457885e-03 9.64844227e-03 -1.08851455e-02 -1.55835552e-02 -4.23389859e-03 -3.60286701e-03  1.81930140e-03 3.07226218e-02 2.72679701e-03 -6.13663765e-03  3.86308730e-02 -4.21729544e-03 8.39066040e-03 -1.86061095e-02 -9.62200016e-03 1.03586707e-02 7.94095546e-03 1.13851763e-02 -4.01080213e-03 -2.28041373e-02 -1.10608684e-02 1.85766388e-02 -3.20601300e-03 -2.20041685e-02 -9.59014427e-03 -3.93374860e-02  1.64059401e-02 -9.05565172e-03 -2.33499147e-02 -9.58990585e-03 -1.33341458e-02 7.65542174e-03 7.19411718e-03 5.43461367e-03 -1.22202206e-02 -7.99455959e-03 1.08693708e-02 -7.31063308e-03  3.30250561e-02 1.81651302e-02 1.08641069e-02 7.48438353e-04 -1.71740707e-02 9.86405462e-03 3.84303220e-02 -1.42582376e-02  1.91553496e-02 2.95718596e-03 -2.11380073e-03 -1.10164611e-02 -1.52932247e-02 2.90538999e-03 -6.21929998e-03 1.92270223e-02 -1.19454954e-02 -1.37070008e-03 -2.38491269e-03 -1.71200130e-02  1.26749426e-02 2.47425865e-03 -1.56846661e-02 8.25910177e-03 -1.20625664e-02 2.49190070e-02 -2.15523019e-02 -1.55079989e-02 -9.71646397e-04 -6.11013547e-03 1.55582819e-02 1.86802261e-02 -2.77963514e-03 -9.49690491e-03 9.02245985e-04 1.13461297e-02  6.28145179e-04 1.79451052e-02 1.52121522e-02 -2.05821451e-02  1.26115056e-02 -5.55853639e-03 1.20655289e-02 1.46287531e-02  6.18434569e-05 1.57561228e-02 -1.78912049e-03 -8.60822387e-03  1.05212452e-02 1.57455336e-02 3.12366933e-02 -6.01940928e-03 -1.63624045e-02 1.73450261e-02 2.68664281e-03 2.40237219e-03 -2.46959608e-02 4.40126844e-03 1.53498529e-02 1.16163203e-02  2.71684118e-03 
0.00248604 0.0110797 -0.01386092 0.03251004 -0.01414173 -0.00390272  0.01843959 -0.01862936 -0.00161114 0.02467397 -0.05364623 -0.01785758 -0.00870015 -0.02270908 -0.03014377 0.01963019 0.04129298 0.08032782 -0.09629588 -0.02257237 0.01599526 -0.01694023 0.01284741 -0.05290176 -0.04188252 -0.01337892 0.00423215 -0.0059052 -0.0517793 -0.00464128 -0.02633132 -0.03170691 0.00145223 0.07392718 0.00361859 0.01353376  0.0744098 -0.01656556 0.00277654 -0.02514234 -0.02397493 0.02336142  0.03265897 0.05807905 -0.0095823 -0.05455264 -0.01522755 0.03360069  0.00539701 -0.06692882 -0.04683632 -0.0683639  0.03878048 -0.01346183 -0.06223291 -0.01576216 0.00035363 -0.01234927 -0.00603892 0.01412916 -0.00822064 0.00463353 0.03357167 -0.01108153 0.05203668 0.04616135  0.02449714 -0.00323213 -0.03833645 0.01525526 0.03955058 -0.02273873  0.02982319 0.00877535 -0.02176152 -0.04220514 -0.01963545 0.01020226 -0.01351637 0.01443021 0.0134805  0.01677419 -0.01895123 -0.05891085 -0.00976576 -0.00013045 -0.0333041 -0.01850166 -0.0357306  0.04673621 -0.04035278 -0.00968891 -0.01216876 0.00847377 0.04620357 0.01047712  0.01978154 -0.04623166 0.01152959 0.01368644 -0.01365786 0.01930004  0.00272836 -0.0302702  0.01532415 -0.02040997 0.01525396 0.03219139  0.01044206 0.02414771 0.01135787 -0.01085235 0.01810395 0.04583515  0.05550971 -0.01805164 -0.03728078 0.01867048 0.00227092 0.01069067 -0.08890532 0.0364818  0.05483179 0.02854961 0.00569644 
-0.00942372 0.01474126 -0.01148628 0.03341104 -0.00351779 0.02739229  0.01229097 -0.02506935 -0.00872292 -0.01291025 -0.04869869 -0.01744088 -0.03225858 -0.01915293 -0.0279648  0.01335141 0.03389028 0.06529122 -0.11053897 -0.01952909 -0.01561356 -0.01307304 0.0068827 -0.0710627 -0.05726114 0.00051431 -0.01166591 0.00824835 -0.03716318 -0.02420512  0.01526958 -0.0077585 -0.02336408 0.05512211 -0.0219429 -0.00760008  0.06146313 -0.02485821 0.0054537 -0.02375704 -0.02321685 0.02576587  0.03028606 0.04643952 0.00044203 -0.05929254 -0.01103535 0.05400847 -0.011846  -0.04249539 -0.0456275 -0.05277842 0.04868173 -0.02204626 -0.0795045 -0.04922197 -0.03236374 -0.00059875 0.02028494 0.01507722  0.00924112 -0.01565088 0.03673573 -0.00962872 0.06779989 0.02445761  0.00516089 -0.01119481 -0.05239219 0.00775664 0.06281736 -0.05995311  0.02931499 0.01340297 -0.00693976 -0.03529714 -0.02780828 -0.00597465 -0.0173702  0.03095895 -0.01139832 0.01462966 -0.00511223 -0.02608635 -0.01668131 0.01218006 -0.02634733 -0.00862229 -0.03650915 0.04239607 -0.06063843 -0.00728527 -0.00445904 0.00059481 0.04542318 0.03862235  0.0246639 -0.0324544  0.0060078  0.02845056 -0.01408562 0.01765863  0.03599086 -0.02525707 0.03629601 -0.02316223 0.01064176 0.02754413  0.02042168 0.0288842  0.01368717 0.01102678 0.01954484 0.05503944  0.07271266 -0.02181164 -0.02772727 0.03453707 0.02591945 0.00618848 -0.0783923  0.05525076 0.05126403 0.02427207 0.02359768 
-9.30834096e-03 3.92367095e-02 4.30116430e-03 6.24306984e-02 -7.23452494e-03 2.81770863e-02 1.09892655e-02 -3.21175158e-02  1.48735719e-03 5.79756033e-03 -1.01667844e-01 -6.56984700e-03 -6.67955875e-02 -3.80866416e-02 -5.03401272e-02 2.54058596e-02  3.94442305e-02 1.28107190e-01 -1.44533277e-01 -3.56032997e-02  2.71776188e-02 -2.13440843e-02 2.55674571e-02 -6.41304553e-02 -8.34666491e-02 -5.03930310e-03 -1.04211075e-02 7.22046802e-03 -6.61963075e-02 -2.76499223e-02 -5.55801392e-03 -4.97409254e-02  5.30390302e-03 1.08189844e-01 -1.60341132e-02 -6.35699322e-03  1.46262392e-01 -1.20867090e-02 -5.30320872e-03 -6.68467730e-02 -3.00202593e-02 9.93194524e-03 3.66590619e-02 7.79757723e-02 -1.46273002e-02 -9.14451182e-02 -1.53061710e-02 1.17469482e-01  1.28067741e-02 -7.71133825e-02 -4.25522402e-02 -8.90097618e-02  5.73405959e-02 -4.08446267e-02 -1.18672684e-01 -1.04499105e-02 -4.41089161e-02 -6.13190513e-03 3.53781879e-02 1.02046374e-02 -1.25604114e-02 1.72396842e-02 2.21648514e-02 -8.79048370e-03  1.08270727e-01 4.79954816e-02 -3.87428026e-03 -1.16329473e-02 -6.74520284e-02 1.87476017e-02 9.28038955e-02 -1.36925206e-02  9.68068764e-02 5.11587448e-02 -9.78317857e-03 -6.89332485e-02 -4.14566658e-02 2.87429132e-02 -4.78439331e-02 3.99232842e-02 -1.33076450e-02 2.50882376e-02 -4.46407571e-02 -4.78910878e-02 -5.63358376e-03 -5.45650313e-04 -3.18128765e-02 1.36359013e-04 -4.76780050e-02 7.39980713e-02 -8.60276446e-02 -5.66002578e-02 -1.37567269e-02 1.88406240e-02 6.38052747e-02 2.36207396e-02  9.12306923e-03 -7.94375762e-02 -3.46548622e-03 2.49146260e-02 -1.64911076e-02 5.06424755e-02 4.87418212e-02 -5.86738847e-02  4.61029187e-02 -1.67706031e-02 1.94193353e-03 1.32906754e-02  1.69217903e-02 7.33968019e-02 1.37368462e-03 6.97792880e-03  2.32732967e-02 8.77803713e-02 1.11211672e-01 6.54488150e-03 -6.47329092e-02 4.77704667e-02 -5.20071806e-03 1.28791239e-02 -1.25373989e-01 5.96888661e-02 9.23753977e-02 2.10112501e-02  3.31981406e-02 
0.0098269  0.03245925 -0.03224663 0.04369267 -0.02994927 -0.00098522  0.02854916 -0.07778098 0.0530017 -0.01309639 -0.10313004 -0.00941056 -0.04605344 -0.06361187 -0.02517895 0.07181731 0.02695425 0.12641445 -0.16843204 -0.03015739 0.00159141 -0.0409878  0.03007492 -0.1043494 -0.08421871 0.00537671 0.02763137 0.0383181 -0.057795  -0.00843108 -0.02064332 -0.03345367 0.04108801 0.08831285 0.00929447 -0.0223055  0.14185369 -0.03553231 0.01792057 -0.09243805 -0.03846345 0.05070468  0.05504118 0.10213947 -0.02328241 -0.10602977 -0.01400874 0.07214893 -0.01723249 -0.09533228 -0.0917977 -0.15992168 0.06916811 -0.06553777 -0.12258565 -0.03213018 -0.03627209 0.00797702 -0.00203684 0.03618938 -0.05420709 0.00882941 0.05456079 -0.00424095 0.12782167 0.06927398  0.05294466 -0.00363749 -0.06684749 0.05432566 0.09846441 -0.04834639  0.06881756 0.01098187 -0.00127518 -0.03274037 -0.03394509 -0.01247384 -0.07063719 0.06142032 -0.04643262 0.00725169 -0.01753565 -0.11112007 -0.01861364 0.00227676 -0.08491793 0.00852876 -0.08301134 0.09740455 -0.06974168 -0.02952059 0.00183918 -0.02450847 0.08686606 0.04835004 -0.00881389 -0.05641166 0.02072618 0.08022933 0.01980001 0.06447686  0.0158445 -0.07885248 0.0489375 -0.0573252  0.01747435 0.08710027 -0.01239421 0.05297603 -0.01201302 -0.01517425 0.03358933 0.10063217  0.10025373 -0.01734165 -0.06366313 0.0698376  0.01013767 -0.00503717 -0.12089495 0.0433641  0.11462075 0.05088316 0.04065904 
-8.99859145e-03 8.87110922e-03 -1.07298291e-03 4.29820605e-02 -9.62635130e-03 -8.85811285e-04 1.27581954e-02 -1.95523687e-02  7.48778181e-03 -5.52470470e-03 -3.57530974e-02 -1.77140478e-02 -1.35770366e-02 -4.49413620e-03 -5.31285536e-03 3.15875374e-02  3.67086264e-03 3.15141566e-02 -5.11964895e-02 -1.46285910e-02 -5.84475650e-03 -3.34336087e-02 -1.74910994e-03 -3.99637669e-02 -3.04974373e-02 4.39125486e-03 1.15302426e-03 1.23300403e-02 -2.57444791e-02 -1.77970761e-03 -5.44577371e-03 -2.36318726e-02  1.33449575e-02 4.63647656e-02 -1.20972367e-02 -5.91682876e-03  4.24787365e-02 -5.53440582e-03 7.79259531e-03 -1.83614288e-02 -1.58978216e-02 3.53662064e-03 1.31882122e-02 2.12638341e-02 -1.18946237e-02 -3.36221345e-02 -1.64957941e-02 2.49165334e-02  9.61195398e-03 -3.56818698e-02 -4.32636514e-02 -5.73478714e-02  2.28127949e-02 -1.16910459e-02 -3.99360023e-02 1.42293819e-03 -7.43355975e-03 1.05662858e-02 1.18910391e-02 1.73514783e-02 -1.04560982e-02 4.10717307e-03 1.32714948e-02 -1.19550480e-02  4.10795882e-02 3.63838114e-02 2.08736397e-02 8.18406790e-03 -2.61349082e-02 1.88793894e-02 2.89181788e-02 -2.84348186e-02  3.30020748e-02 -3.87158245e-03 2.74005951e-03 -7.76132755e-03 -1.11782551e-02 2.74147489e-03 -8.15479923e-03 3.86822000e-02  3.41811072e-04 -1.08809415e-02 -2.30273744e-03 -2.52211168e-02 -7.28728157e-03 6.51900936e-03 -2.28936058e-02 -2.77591497e-03 -2.90856101e-02 2.89927199e-02 -1.71944499e-02 -2.14145016e-02  2.15256051e-03 -4.14058799e-03 3.49483006e-02 3.17618176e-02 -5.50334994e-03 -2.16059480e-02 5.07706404e-03 2.63792891e-02  7.91169703e-03 2.01933421e-02 5.54574467e-03 -2.66062524e-02  1.86263360e-02 -6.36134110e-03 7.88360182e-03 2.90713292e-02 -6.13775279e-04 3.72623429e-02 8.97923578e-03 5.87591785e-05  7.68664014e-03 1.45996232e-02 2.27667559e-02 3.52843723e-04 -3.40276547e-02 2.53632665e-02 7.91514944e-03 5.09031443e-03 -4.62502390e-02 1.61918495e-02 4.34412956e-02 2.42495313e-02  1.44845061e-03 
-0.00013462 0.03181208 0.00625479 0.02680282 -0.00307744 -0.00330202  0.01101542 -0.0185129 -0.00566488 0.00632495 -0.04777433 -0.02177828 -0.02004518 -0.01593064 -0.04189029 0.03858745 0.01399897 0.06886191 -0.09968246 -0.01339399 0.0039446 -0.02195589 0.01362054 -0.04055449 -0.06181544 0.00189262 -0.00831187 -0.00027658 -0.02289078 -0.0128669 -0.01824917 -0.05113667 0.0064884  0.06257734 0.01534859 -0.01952845  0.11175326 -0.0370408  0.0388545 -0.02899095 -0.0099574  0.01600056  0.03996996 0.06503954 -0.01000393 -0.04699711 -0.02977111 0.04807727 -0.01996742 -0.06581318 -0.05366186 -0.06123139 0.06074838 -0.0272613 -0.04725826 0.00209902 -0.02417105 -0.00818655 -0.00253088 -0.01066127 -0.02383808 -0.00403017 0.0213128 -0.01975887 0.07956052 0.0333454  0.04410372 -0.02013191 -0.0386988  0.03447217 0.04909954 -0.01745961  0.03834999 0.00864969 -0.00379169 -0.03352145 -0.02490221 -0.0002423  0.00095717 0.03666142 -0.00759283 0.00226271 0.00202853 -0.06425676 -0.01298464 0.01994335 -0.03900883 -0.00371725 -0.04322018 0.04731141 -0.04505877 -0.04337072 0.00437812 0.00821253 0.06141433 -0.00449725 -0.00785017 -0.03786837 0.00918238 0.01323429 -0.008169  0.03834619  0.00148811 -0.03116438 0.01991479 0.00061176 0.01887506 0.04211066 -0.00146838 0.03158604 -0.01840965 -0.00504176 0.00716622 0.03004562  0.04995324 -0.00203307 -0.05744556 0.04278443 0.01392314 0.01150292 -0.06152636 0.02278762 0.06260258 0.03173573 0.01168841 
0.00141294 0.02706953 -0.02573964 0.07031697 -0.04101454 0.00036821  0.02764001 -0.0947768  0.01445291 0.0114163 -0.1198654 -0.031723 -0.05168564 -0.05813381 -0.03866978 0.0543806  0.04236995 0.15966116 -0.14801227 -0.04061463 0.00925197 -0.03994755 0.02637248 -0.12321249 -0.09430732 -0.03678163 0.03461139 -0.00034899 -0.06996688 -0.02324843 -0.0297126 -0.08534029 0.03303774 0.13802181 -0.00642747 0.00344766  0.15880859 -0.01248623 0.02470928 -0.07150739 -0.05311438 0.03630798  0.0475398  0.07702604 -0.02498493 -0.10781034 -0.01758233 0.10467985  0.02192845 -0.11570995 -0.05920545 -0.15122388 0.05955293 -0.04712755 -0.15844885 -0.03486247 -0.0169753 -0.00519446 0.00363232 0.01763412 -0.02849065 0.00794995 0.02773315 -0.01752324 0.13625766 0.09363759  0.05853644 -0.00658122 -0.09013171 0.04110439 0.0892403 -0.04941076  0.0812459  0.04183077 -0.01640666 -0.08200692 -0.03657847 0.0090478 -0.02429383 0.04096651 -0.02682654 0.03723642 -0.02949959 -0.12180445  0.00177105 0.01150072 -0.06504354 0.00329256 -0.07509211 0.08918794 -0.07618126 -0.04855729 -0.0109334 -0.00095859 0.06189067 0.03969219 -0.00179683 -0.08755924 0.01121587 0.07198855 0.00795317 0.07472172  0.03082556 -0.06124752 0.0376792 -0.02387116 0.01444248 0.07301015 -0.01165623 0.07591254 -0.00691842 -0.02234465 0.02120425 0.0874674  0.10946257 -0.00473623 -0.07623157 0.03592954 -0.00338142 0.01756136 -0.16371247 0.07673214 0.12075043 0.07529978 0.02132819 
0.00732703 0.03616019 -0.02787679 0.00577987 -0.00769839 0.03575655  0.01106487 -0.03863502 0.00530626 0.00054036 -0.05189167 -0.00985949 -0.04350817 -0.03266506 -0.05305243 0.04269879 0.00413888 0.09197684 -0.1430834 -0.02231732 0.00485006 -0.04609066 0.02866923 -0.04964421 -0.06530974 -0.02780879 -0.01664436 0.00597744 -0.04459874 -0.00832323 -0.01512554 -0.06385756 0.00705586 0.08249059 0.02553608 0.00240903  0.12913159 -0.01043016 0.03332776 -0.03680052 -0.03829417 0.03217671  0.0256395  0.10132861 -0.02183066 -0.04005215 -0.04956926 0.06995333 -0.00476477 -0.04328591 -0.06560455 -0.05081441 0.0640804 -0.0452841 -0.05133725 0.01455201 -0.03370766 -0.0454999 -0.02740946 0.00784327 -0.0467505  0.00372363 0.01729105 -0.00392851 0.08627358 0.05420865  0.02115443 -0.03216184 -0.02127015 0.03131977 0.03973889 -0.03300135  0.05099069 -0.01058948 0.0216548 -0.05800083 -0.08067092 -0.01349217 -0.0252066  0.01056739 -0.01247208 0.00127951 -0.02669834 -0.09353637 -0.05789683 0.00626754 -0.04137331 -0.04055154 -0.03680826 0.05916262 -0.0364424 -0.05011  -0.02123159 -0.00750791 0.07654083 0.00889249  0.00497342 -0.06182595 -0.00834078 -0.00031254 0.0120363  0.03708589 -0.02612826 -0.03562431 0.04610819 -0.01637136 0.01681297 0.03240898  0.01307589 0.04248245 0.00658467 -0.00683135 0.01535754 0.06222529  0.03749891 0.04414243 -0.03645935 0.0399121  0.01027083 0.03718089 -0.09248638 0.02923289 0.1025811  0.00416908 0.04445373 
0.0005441  0.00578946 0.00584725 0.03433261 0.00257525 -0.0112169  0.00275406 -0.02821105 0.00282225 0.00414496 -0.06251765 -0.02889437 -0.00804517 -0.0114916  0.00183883 0.03186384 0.02081966 0.04387056 -0.06356988 -0.02245714 0.00169712 -0.02201123 0.0148654 -0.0349785 -0.03758293 -0.00118719 0.01751691 0.00740568 -0.01980074 0.00088096  0.00022225 -0.02833851 0.00015045 0.06593874 -0.00282464 0.00096713  0.0521319 -0.02134707 0.01123266 -0.02972796 -0.0103305  0.02483276  0.02608941 0.02660984 -0.00316026 -0.04550286 -0.01456469 0.03963322  0.0077233 -0.04773868 -0.02327737 -0.05430514 0.01604208 -0.00637772 -0.03467622 -0.01263492 -0.00961204 -0.00887729 0.01369242 -0.00219427 -0.03294922 0.00556569 0.00842353 -0.00974498 0.051247  0.03588889  0.01626055 -0.00566829 -0.02028877 0.01653817 0.03442137 -0.02426833  0.02435058 0.00425542 -0.01334802 -0.03723301 -0.00461252 0.01589836 -0.01093181 0.00958117 -0.01703662 0.00193951 -0.00399207 -0.03112428 -0.01171039 -0.00260166 -0.03120984 0.00042381 -0.04387636 0.03524068 -0.03583612 -0.02275814 0.00033616 0.01121593 0.0218863  0.02712386 -0.01641947 -0.02600395 0.00385525 0.02361284 -0.00020457 0.03217055  0.00059696 -0.03262253 -0.00281945 0.00140375 0.02807178 0.03281517 -0.01030289 0.02904321 0.0063302 -0.00470093 0.00634792 0.01584663  0.02665099 -0.01459957 -0.03170032 0.01716587 -0.00971608 0.00102161 -0.05357274 0.01475808 0.04729951 0.03312781 -0.00549092 
-0.00172014 0.03249333 0.00969715 0.06872334 -0.02856834 -0.00123212  0.03108755 -0.06631292 0.02476048 -0.02672295 -0.11421778 -0.00715728 -0.05489337 -0.04518627 -0.03979093 0.0443719  0.02527594 0.13790222 -0.12558006 -0.03303805 0.00577035 -0.04175416 0.01556869 -0.08940628 -0.08856493 -0.0043661  0.0114167  0.02585871 -0.04138453 -0.01819788 -0.0143169 -0.05186312 0.04385458 0.09752181 -0.01228492 -0.02761537  0.15586491 -0.01846619 0.01487534 -0.08112989 -0.02853796 0.03404557  0.03019438 0.0759562 -0.02205386 -0.10306551 -0.01614895 0.08415743  0.00808794 -0.09502813 -0.06353848 -0.13728487 0.07397603 -0.05741509 -0.12376921 -0.03516978 -0.0495655 -0.00326613 0.01439289 0.02232037 -0.01890848 0.01735379 0.0145099 -0.01110309 0.10431486 0.06640846  0.04787034 0.00050938 -0.07430466 0.03258731 0.09468699 -0.04135524  0.06690957 0.02113695 0.00317559 -0.04218508 -0.02680444 0.00978427 -0.05387882 0.08705564 -0.02295032 0.0289636 -0.01216445 -0.08305109  0.01799037 0.00643156 -0.08719105 0.02442722 -0.07279214 0.08435557 -0.06855337 -0.04117693 -0.01863582 -0.02562708 0.06199187 0.04289373 -0.00999899 -0.06071435 0.01773586 0.06910553 0.01397986 0.07901898  0.02668115 -0.06901459 0.04538836 -0.04219289 0.00582845 0.08122229 -0.0099976  0.07579888 -0.01259741 -0.02203671 0.01928003 0.07629939  0.09929454 -0.01046801 -0.0569759  0.04441  -0.011598  -0.01438977 -0.11741805 0.04503978 0.09800432 0.05511189 0.02970872 
2.3815341e-02 9.1937780e-03 -1.2978566e-02 3.3116189e-03  4.8180344e-03 -1.3719551e-02 8.6599868e-03 1.2628391e-02 -4.7024186e-03 2.2613645e-02 1.8802935e-03 -4.4962987e-03 -8.6774671e-04 -1.3843418e-02 -1.7857324e-02 1.0846616e-02  9.1965245e-03 3.7047751e-02 -4.0791530e-02 -2.4970774e-02  5.4306164e-03 8.0983900e-03 -3.9762594e-03 -1.2169662e-02 -2.8724639e-02 -4.7301152e-03 1.6620889e-02 5.4840343e-03 -4.1146703e-02 -1.1102421e-02 -1.6018519e-02 -1.5423633e-02  9.6946415e-03 4.2096145e-02 4.3764221e-03 2.0423183e-02  2.2373036e-02 -6.5863784e-03 -1.5301309e-02 -2.6963880e-02 -5.5081830e-03 2.2203358e-02 9.1059012e-03 2.2762189e-02 -2.1764012e-03 4.5924296e-04 -5.1853219e-03 4.3374024e-02  6.7532854e-03 -2.5220199e-02 -1.8146005e-02 -8.8357041e-03  4.2686086e-02 6.2515517e-03 -1.7093144e-02 -5.7275174e-04 -7.1206940e-03 -2.5238181e-02 -6.7366725e-03 1.3123901e-02 -2.8808648e-03 5.3253029e-03 6.2029143e-03 -1.1413337e-02  2.5836997e-02 3.5021558e-02 -1.2971643e-02 1.2280911e-02  3.1899940e-03 1.0377872e-02 1.1309625e-03 4.5499178e-03  2.9028933e-02 6.7452779e-03 1.0308996e-02 3.2274993e-03 -1.2423375e-02 7.0217310e-04 -1.7477784e-02 -1.1710966e-02  1.3011586e-02 2.0303614e-02 -1.9222878e-02 -2.8629927e-02 -4.1985298e-03 2.2848738e-02 8.0844751e-03 -3.4399882e-02  9.4484277e-03 2.0487828e-02 -2.9588072e-03 -8.5991458e-05  6.7467149e-03 -1.1490670e-02 3.6967322e-02 7.7531273e-03  3.0203646e-02 -3.4574989e-02 -1.7846584e-04 -1.0264587e-02 -4.8452471e-03 9.5545705e-03 -8.7034367e-03 -2.6030172e-02  1.2429302e-03 3.5919979e-02 1.0583744e-02 -8.5596452e-03  1.9813199e-02 1.8071659e-02 1.2419446e-02 1.3456882e-02  2.0003932e-02 1.6188934e-02 2.9068993e-02 -1.5682319e-02 -1.3003214e-02 1.9479202e-02 1.3518683e-02 2.5781792e-02 -2.4338605e-02 1.1042846e-02 1.8821785e-02 4.3866350e-03 -1.5416654e-02 
0.00846054 0.00996326 -0.00822829 0.00857493 -0.00282667 0.00713685 -0.00104054 -0.0071052 -0.00074942 -0.0029208 -0.01733803 0.00571879 -0.01744666 -0.01363452 -0.01530232 -0.00018075 -0.00257683 0.02198606 -0.03277674 -0.01131728 -0.00437678 0.00035398 0.00541197 -0.01555801 -0.02539179 0.00457433 -0.00423246 0.0060455 -0.00951076 -0.01667399  0.00349721 -0.00364607 0.00445268 0.02509455 0.00048262 -0.00699282  0.02134687 0.00456651 0.00255509 -0.01497995 -0.00633031 0.01744892  0.01136858 0.01389733 0.00410379 -0.01221842 -0.00382298 0.01701988 -0.00494136 -0.00693856 -0.01225752 -0.00854512 0.01382575 -0.01231202 -0.012674  0.0002473 -0.00592008 -0.01451035 -0.01178597 0.00402477 -0.0058403  0.00382345 0.00162746 -0.00157092 0.02112826 0.01012659 -0.00824013 -0.00459793 -0.0084796  0.00979838 0.00860463 -0.0142851  0.00620416 0.0009437  0.0018205  0.00048515 -0.02305142 -0.00570387 -0.00855094 0.00389512 -0.01409754 0.00811456 0.00062401 -0.00929844 -0.00316776 0.00517147 -0.01135926 0.00806627 -0.01025852 0.00763473 -0.01030742 -0.00537505 -0.00799094 -0.00317719 0.01413528 0.00567129  0.00722935 -0.01757322 -0.00271144 0.00403086 0.00553147 0.01727435  0.00059191 -0.00146363 0.01317231 0.01163489 0.00747076 -0.00334898  0.01049495 0.02475107 0.00403938 -0.01134251 0.00407186 0.00463854  0.02602308 -0.00655637 -0.00324826 0.00707979 0.00801994 0.00326004 -0.01666384 0.00140146 0.0205951  0.00988373 -0.00453916 
-0.00141381 0.00056645 -0.01002293 0.00469503 -0.00483644 0.0037818  0.00586691 -0.00770269 0.00201992 0.00667008 -0.0191396 -0.00408895 -0.00874655 -0.01038226 -0.01409249 0.01015007 0.01184719 0.02967581 -0.03285458 -0.00546737 -0.00488532 0.00980608 -0.00325867 -0.02989143 -0.0115456 -0.00946144 -0.00718392 0.00746412 -0.01536234 -0.01960612 -0.00747472 -0.00936828 -0.00594646 0.01907845 0.00125716 0.00469913  0.01625372 -0.00554647 0.00585838 -0.01634  -0.01199116 0.01271255  0.01127162 0.01290814 -0.00188926 -0.00803743 -0.00264943 0.01892069 -0.00871349 -0.00764811 -0.0133348 -0.01630539 0.02394155 -0.01093478 -0.02529509 0.00113389 -0.00445791 -0.00236807 -0.00912901 -0.00143847  0.0043313 -0.001092  0.02063746 -0.00252711 0.02503556 0.00909425 -0.00062886 -0.00214783 -0.01728499 0.01054902 0.02265001 -0.02164064  0.01693935 0.00448688 -0.00285985 -0.00506046 -0.00547509 -0.00375198 -0.00293587 0.00054901 0.00452353 0.01104639 -0.00135245 -0.02120924 -0.00927128 0.01155695 -0.00140075 -0.00686695 -0.00228944 0.0172573 -0.01734021 -0.00502972 -0.00230191 0.00619681 0.02013455 0.00023132  0.01346806 -0.01929735 -0.00167528 -0.00234853 -0.00785751 0.01212925  0.00056334 -0.0099971  0.01090577 0.00481921 0.00748313 -0.00232885  0.00450199 0.00738447 -0.00135321 0.00355822 0.01101432 0.01737312  0.02689968 0.00095456 -0.00901392 0.01711316 0.00140254 0.01118362 -0.02344733 0.01428688 0.02056662 0.01260725 0.0024798 
0.00393858 0.02816874 0.00940193 0.03681456 -0.0261893  0.01564837  0.00972807 -0.0381289 -0.01134246 -0.01546267 -0.03197557 -0.01540838 -0.03285744 -0.02128252 -0.04026205 0.02973715 0.01545563 0.07807297 -0.05942891 -0.01580168 -0.01047636 -0.00969998 -0.00140569 -0.04962327 -0.07901859 0.00220027 -0.02201558 0.00554971 -0.03137157 -0.03366624 -0.01870963 -0.04512446 0.0281828  0.06943297 0.01702286 -0.02457309  0.10786568 -0.0452776  0.03919807 -0.02766692 -0.00450214 0.01721786  0.02787867 0.05765888 -0.00090785 -0.04911632 -0.00881656 0.05610293 -0.01300892 -0.06006582 -0.04919589 -0.06572723 0.03961713 -0.04432536 -0.06347466 -0.01136074 -0.03229106 -0.02485207 0.00245506 0.01258974  0.00441537 0.00826139 0.03069633 -0.00312703 0.06611742 0.03441763  0.02047374 -0.00814789 -0.0460564  0.04009259 0.05040305 0.00137285  0.05429925 0.02971331 0.00289394 -0.014725  -0.02276062 -0.01556371 -0.01159252 0.03629782 0.00746692 0.00859035 0.00180938 -0.06867341 -0.00396141 0.03034218 -0.03610139 -0.00422555 -0.04082876 0.06015211 -0.01223562 -0.04332131 -0.00377871 -0.02041026 0.05849861 0.01626468  0.00825727 -0.0563897  0.02399736 0.02912982 0.01044195 0.05054723 -0.0010894 -0.023143  0.03387118 0.01672787 0.00964194 0.04792235 -0.00522824 0.04784355 -0.02620084 0.00436039 0.00423504 0.04285176  0.06790061 0.00021745 -0.05710097 0.02067735 0.00705915 0.00956363 -0.04889248 0.02442849 0.03946249 0.03192633 0.00748036 
-0.00660178 0.01951957 -0.00293838 0.03290017 -0.00512349 0.04664788  0.00518903 -0.01378898 -0.00979128 0.02477944 -0.07877462 -0.03519892 -0.0161237 -0.0317472  0.00134919 0.04397143 -0.01071623 0.08851229 -0.10349639 -0.03135959 -0.01842108 -0.02798348 0.02038029 -0.07033113 -0.03721887 -0.00615477 0.00487577 0.01921377 -0.02954446 -0.01426185  0.02131328 -0.01652091 -0.02170984 0.0713237 -0.0014531 -0.02354591  0.06310376 -0.02756811 0.00107514 -0.02579427 -0.04049172 0.02421026  0.02411773 0.05377539 -0.00190084 -0.02328723 -0.03312698 0.06922849  0.00482213 -0.0120185 -0.04103402 -0.0496362  0.0480871  0.00666687 -0.07309408 -0.00656018 -0.03492444 0.00770453 -0.00260531 0.00979677 -0.04707468 -0.01641437 -0.01452359 -0.00311829 0.09642134 0.06743586  0.00491893 -0.02130929 -0.01821811 0.01383489 0.07990351 -0.0541696  0.04229562 0.00022398 0.00896929 -0.0326995 -0.01384789 0.00213026 -0.01941046 0.06267823 -0.02779927 0.01917861 0.01110543 -0.02068697 -0.00448048 -0.00109855 -0.05516124 0.01376614 -0.04316329 0.0520052 -0.07683009 -0.01268452 -0.03211545 0.00697647 0.05315546 0.04481358  0.03263533 -0.0613197 -0.01165783 0.0125938 -0.0119969  0.02307663  0.02119961 -0.04556795 0.02055703 0.00340129 -0.01621108 0.01900393  0.01309284 0.0631458  0.01110465 -0.00223742 0.00908973 0.0401513  0.06923126 -0.00432331 -0.01544585 0.04659089 -0.01167975 0.01719316 -0.05963553 0.02040308 0.0643708  0.04549931 0.00904223 
0.0009726  0.02324381 0.00311791 0.05643617 -0.01965172 -0.01130718  0.00918473 -0.05887521 -0.01225779 -0.00763306 -0.05159178 -0.02121001 -0.0392907 -0.01074133 -0.05542308 0.04465601 0.03419334 0.11294336 -0.12028204 -0.04228681 0.00203663 -0.02887274 0.01541169 -0.07443132 -0.06337047 -0.01417499 -0.00342647 0.00819947 -0.03481182 -0.02797458 -0.00775292 -0.04970052 -0.0054108  0.10749123 0.00690807 -0.00520448  0.12322232 -0.03719225 0.04569269 -0.0515055 -0.02102949 0.04079791  0.02223033 0.07489441 -0.01484269 -0.06922318 -0.03082458 0.0809869  0.00894744 -0.08895331 -0.07409503 -0.07596274 0.04423029 -0.03927853 -0.07551244 -0.02403808 -0.02736967 -0.03084974 0.00046459 0.00864235 -0.01933855 0.0045181  0.02707775 -0.02870997 0.08922538 0.05468446  0.02389584 -0.01456679 -0.05390537 0.03261958 0.05984342 -0.03329301  0.06351037 0.01244704 -0.00124173 -0.04892352 -0.03559614 -0.00816208 -0.02582251 0.02532175 -0.01112476 0.01495132 -0.00558561 -0.06965239 -0.02279815 0.00689637 -0.0489419  0.00484471 -0.05927727 0.04912176 -0.05015181 -0.02515083 0.00073808 0.00588652 0.07485175 0.03002597 -0.00021774 -0.05869002 0.00048742 0.03646542 -0.00107404 0.06510395  0.01123795 -0.04151506 0.03527561 0.00427234 0.02003487 0.03186689  0.0088985  0.05737549 -0.00659765 -0.00029413 0.01236064 0.04967489  0.0822933 -0.01207211 -0.05273505 0.04301904 0.01653583 0.02296864 -0.10691623 0.03364636 0.08472019 0.03424715 0.00819289 
-0.00343938 0.04834978 -0.03175473 0.00531245 0.00572056 0.03719953 -0.00792865 -0.00879958 -0.01281297 0.00083475 -0.03485754 -0.01812822 -0.01795553 -0.00758762 -0.02164336 0.03193839 0.00184324 0.04261675 -0.07220963 -0.02099832 -0.02345514 -0.03099967 0.02353716 -0.02743237 -0.04248418 0.00311053 -0.00148897 0.01312059 -0.03915345 -0.01909455  0.00637176 -0.03173909 -0.01167429 0.04349423 0.02695821 0.00313813  0.05186124 -0.00776154 0.01386955 -0.01356594 -0.00971923 -0.01585955 -0.00062255 0.03358153 -0.01171487 -0.00813063 -0.00230641 0.03771753 -0.00079057 0.00367677 -0.00952087 -0.00881992 0.01917899 -0.00040225 -0.019948  -0.01025064 -0.00799708 -0.0148367 -0.03249318 -0.00410874 -0.02663899 -0.03421178 -0.00741833 -0.02013571 0.02768639 0.0346218 -0.00142856 -0.02400357 -0.01726913 -0.00168493 0.03303466 -0.00334661  0.03836557 -0.00444285 -0.00428597 -0.01035798 -0.0393818  0.01718988  0.00934565 0.04602405 -0.03245152 0.00476008 0.00527959 -0.04179071  0.00079395 0.01496187 -0.02173393 0.01678633 -0.01278215 0.01169652 -0.03270567 -0.03750834 -0.00503689 -0.01010842 0.03205597 0.02238202 -0.00037771 -0.04322565 0.00378433 -0.02414766 0.00811516 0.0262624 -0.00041503 -0.02118705 0.0345346 -0.0043235 -0.01150833 -0.00111243  0.00588134 0.02322003 0.00534986 -0.01193164 -0.00250841 0.03214375  0.03377462 0.02493916 -0.01643974 0.01039947 0.00388862 0.00659942 -0.0465903  0.0137466  0.01198651 0.01283638 0.01748682 
-1.9905373e-02 3.3024881e-02 -9.4152745e-03 3.4443460e-02 -6.5385066e-03 1.0466674e-02 1.5973046e-02 -2.5643939e-02  1.1617220e-02 -1.6834926e-02 -5.7503078e-02 -9.3927579e-03 -3.1431217e-02 9.7528826e-03 -1.2497432e-04 4.3878265e-02  2.3726994e-02 4.8179902e-02 -7.6364644e-02 -3.2756198e-02  9.7940518e-03 2.7956821e-02 4.3183854e-03 -3.8545053e-02 -4.5796920e-02 -7.4741202e-03 1.0598202e-02 1.4641446e-02 -2.9830402e-02 -1.4824779e-02 1.0214657e-02 -9.2695290e-03 -4.3987148e-03 5.9230752e-02 -5.0847642e-03 -3.6311906e-03  3.7134375e-02 -1.4852025e-02 -1.0184341e-02 -1.7590370e-02 -7.7416617e-03 1.7481411e-02 1.6065305e-02 3.7856407e-02 -1.3974299e-02 -3.1716060e-02 1.0237476e-02 4.7515519e-02  2.0201437e-02 -4.1818012e-02 -1.7653666e-02 -4.9490321e-02  2.6918883e-02 3.6484885e-04 -5.1822431e-02 -1.5753284e-02 -8.6070066e-03 1.6533518e-02 7.4890861e-03 1.0701794e-02 -1.1419092e-02 3.9660237e-03 7.9078681e-04 -1.5788810e-02  5.4368846e-02 5.2225363e-02 -2.0739008e-02 -4.2663440e-03 -3.5266254e-02 2.2980643e-03 3.3055969e-02 -2.8783647e-02  5.3788938e-02 -2.6033755e-05 1.1067583e-03 -6.9003655e-03 -3.7986025e-02 2.3229415e-02 -1.1038914e-02 1.0694596e-02  4.6724104e-03 -7.2024303e-04 -1.4331069e-02 -2.2272887e-02 -1.5974371e-03 -4.8990590e-03 -5.4464662e-03 -2.7856624e-04 -1.1766083e-02 1.6789094e-02 -4.5668256e-02 9.9702412e-03  7.8747394e-03 1.7181616e-02 3.3984188e-02 2.4372192e-02  2.7742551e-03 -3.6768049e-02 -1.9752027e-02 8.7271770e-03 -1.6688831e-02 2.4289818e-02 2.6001379e-02 -3.5728317e-02  1.2403037e-02 -6.2352456e-03 1.2408337e-02 1.2230797e-02  1.1776090e-02 1.3426814e-02 3.2722054e-03 2.3166563e-03  1.2975997e-02 1.6497100e-02 6.1193563e-02 -5.6400802e-03 -1.9434361e-02 2.8576249e-02 7.5875637e-03 -1.6911672e-03 -6.4465210e-02 3.1768441e-02 4.3086402e-02 9.2461500e-03  3.7455638e-03 
-0.01443241 0.0391342  0.0043823  0.00835094 0.00879002 0.02031224 -0.01637812 0.00592212 0.00113784 0.00147181 -0.03582821 0.00509388  0.0038867  0.01498   0.00507117 0.02754749 0.00385616 -0.00560447 -0.04299318 -0.01359627 0.02408231 0.00770686 0.00729548 -0.00860162 -0.01616351 -0.0086484 -0.00620739 -0.00423432 -0.0128237 -0.00881617  0.00860439 0.0036121 -0.00375442 0.0485927  0.00209274 -0.02496735  0.00338367 -0.01009956 -0.01227566 -0.00682246 -0.00096949 0.00065656  0.01118584 0.02135288 -0.00522809 -0.01469979 -0.00984925 0.03227141 -0.01179115 -0.01334948 -0.00975762 -0.00495953 0.00128923 0.00898212 -0.00700147 0.00804399 -0.01983601 -0.02745878 0.00129973 0.01173831 -0.02134448 0.00739003 -0.01417361 0.00298052 0.03900522 0.01528745 -0.01572181 -0.01035353 -0.00694873 -0.00174633 0.0028077 -0.02113863  0.01949855 0.00732336 -0.00593947 -0.00244633 -0.02321983 0.01637325  0.00397229 -0.017726  0.0022232 -0.00138494 -0.01465444 -0.00251639 -0.00839833 -0.0062067  0.01966963 -0.01494225 -0.01320309 -0.00384133 -0.03502435 -0.00027839 0.00972472 0.00656982 0.00774528 -0.00268825  0.00176714 -0.02880128 -0.01311284 -0.00616268 -0.00445056 0.00158726  0.01360669 -0.02181569 -0.00437407 -0.00228541 0.00664679 0.00575214  0.01100112 0.03557974 0.01743796 0.01463646 -0.0023042 -0.0030887  0.0275947  0.00449612 -0.01356358 0.03554457 -0.00390358 0.00226721 -0.03620403 0.03261244 0.04097291 0.00651302 0.00550126 
-0.00397441 0.00768657 -0.01985573 0.02899114 -0.02161423 0.00874309 -0.00066224 -0.02934355 -0.00155996 -0.00867139 -0.03329191 0.00135187 -0.00629845 -0.00210644 -0.01125983 0.02535161 0.00429786 0.03445796 -0.0378281  0.00374025 0.00623287 -0.00445603 0.01027574 -0.02132948 -0.02338912 -0.01232198 0.01484035 0.00026271 -0.02785451 -0.0036511 -0.01467512 -0.01801009 0.00337796 0.02799282 -0.00521028 -0.00810392  0.04712135 -0.00875272 0.01266338 -0.02760926 -0.02219998 0.01806757  0.01059233 0.03792034 -0.00685066 -0.03379781 -0.00096455 0.03851546 -0.02080602 -0.02540222 -0.01779874 -0.04289376 0.00943447 -0.02276591 -0.03839801 -0.01308329 -0.01196406 -0.00357958 -0.01276936 0.00021633 -0.01885582 0.00564971 0.00271966 0.00635886 0.04767262 0.01684017  0.00338385 -0.01847801 -0.02152026 0.01291247 0.02218525 -0.01668581  0.02517649 0.00484801 0.00639343 -0.02331507 -0.01508921 -0.00290473 -0.01480185 0.01109297 0.00281168 0.00313397 -0.0161921 -0.03469344 -0.01139394 0.00538116 -0.02940432 -0.01028244 -0.04151298 0.02997738 -0.01885975 -0.01316746 0.00965045 0.01020752 0.02007839 0.01687583 -0.00354176 -0.02445928 0.001827  0.03014501 0.0027647  0.02860627 -0.00993215 -0.01847675 0.0095531 -0.00674186 0.01227965 0.01199353 -0.01254974 0.04132314 0.00649472 -0.01141773 -0.00399544 0.02808185  0.02074508 0.00265289 -0.02623055 0.01339822 0.00249065 0.01692676 -0.04859763 0.02362408 0.05546757 0.01630061 0.00608015 
-3.11925483e-04 -8.07624427e-04 1.03319262e-03 5.44426125e-03 -5.59447845e-03 -2.17060908e-04 8.47804174e-03 -6.39173109e-03  1.05343666e-03 5.53689024e-04 -1.16805146e-02 -4.38711233e-03 -1.01732826e-02 -6.27008872e-03 -6.34036679e-03 2.04261416e-03  2.04004813e-03 1.12547502e-02 -1.96783915e-02 -9.41027515e-03 -3.70024913e-03 5.39078750e-03 -3.87554569e-03 -1.64389201e-02 -9.97491553e-03 8.48629163e-04 -7.76180252e-03 1.44254486e-03 -2.93472083e-03 -6.37716567e-03 -4.04554978e-03 -7.55108101e-03  7.38215109e-04 1.03862761e-02 1.11057621e-03 -2.42814142e-03  1.91102419e-02 -1.67137629e-03 8.45088623e-03 -5.79803903e-03 -1.98757695e-03 9.24851000e-03 7.34746316e-03 1.26448683e-02  3.77258332e-03 -9.52635519e-03 -6.57008216e-03 1.24947065e-02 -1.68559316e-03 -1.21123567e-02 -9.00145248e-03 -1.44607946e-02  1.53281894e-02 -3.29259969e-03 -8.71294923e-03 4.26650140e-03 -7.95819331e-03 -8.53798119e-04 -3.67815234e-03 -4.24793642e-03  9.04752174e-04 1.39027159e-03 8.34167376e-03 5.49601391e-04  1.25703290e-02 7.42091145e-03 -9.90735134e-06 6.31469651e-04 -7.39027606e-03 7.29100499e-03 1.23548284e-02 -1.14525398e-02  1.08603202e-02 4.37414041e-03 -2.16581626e-03 -9.17826220e-03 -8.92666448e-03 4.19880671e-04 1.28370733e-03 9.16499551e-03 -1.34338636e-03 5.56309056e-03 4.62353975e-03 -5.28134499e-03 -1.84557831e-03 5.96841890e-03 -7.12286867e-03 -5.70974044e-06 -4.95032594e-03 5.75886993e-03 -1.27713094e-02 -9.69206914e-03 -8.35869554e-03 5.11057070e-03 1.08825937e-02 -2.32264306e-03 -1.21605280e-03 -6.60971040e-03 -4.46798978e-03 3.59367253e-03 -7.38137926e-04 7.74393836e-03 2.68190773e-03 -7.99545553e-03  1.32885412e-03 -3.15381284e-03 5.45686390e-03 3.09974211e-03  3.35438759e-03 5.36526972e-03 -6.11788407e-03 -5.47563564e-03  4.16311761e-03 8.34369159e-04 1.17558185e-02 -3.13398871e-03 -9.31306370e-03 2.17830297e-03 3.89111810e-03 -4.84096305e-03 -1.52545935e-02 8.78114812e-03 1.16496924e-02 3.24607431e-03 -9.90637927e-04 
-0.00890129 0.03561702 -0.01797197 0.06729845 -0.02044217 0.00294983  0.04022853 -0.04704081 0.01279438 -0.00756059 -0.07929488 -0.01355127 -0.05349247 -0.03340954 -0.05837865 0.0452981  0.03271715 0.11202212 -0.12922107 -0.02782515 0.0257629 -0.00556196 0.0075436 -0.07020354 -0.06824914 -0.01227262 -0.00878611 0.00878015 -0.03175308 -0.04515316 -0.02511542 -0.05121013 0.01888049 0.08896064 0.00829538 -0.00018267  0.12585704 -0.01468314 0.02717904 -0.07751817 -0.03332349 0.01175669  0.04171754 0.060598  -0.02757729 -0.06892384 -0.01638043 0.07097213 -0.00265009 -0.09312012 -0.06302288 -0.08757731 0.0708744 -0.05073644 -0.10775369 -0.01091947 -0.04731706 -0.00409099 0.01720135 0.01530808  0.00998223 0.02383244 0.03011394 -0.01817849 0.09815262 0.05018683  0.02760846 -0.00940994 -0.06818756 0.03304126 0.08683692 -0.01804212  0.08215582 0.03173349 -0.00922479 -0.0308366 -0.03155278 -0.00152774 -0.03767596 0.03802025 -0.00313876 0.02146996 -0.02790917 -0.08512723 -0.00512736 0.00847581 -0.03590656 -0.00212178 -0.02499527 0.05138652 -0.04518202 -0.03405244 0.00328097 0.02026864 0.06926306 0.02487925 -0.00526356 -0.06594976 0.00660279 0.03487803 -0.0018231  0.06496388  0.0173618 -0.05354912 0.04395073 0.00663787 0.01200825 0.03377501  0.01587477 0.06666031 -0.01271556 0.00130828 0.02022605 0.06705675  0.09730519 0.00690358 -0.04726885 0.03762383 -0.00188256 0.032322 -0.1378446  0.03857714 0.09077179 0.03869829 0.01705833 
-0.00772984 0.02480611 0.01272671 0.05145094 -0.01701194 0.01009806  0.01717742 -0.04040778 0.00674604 -0.01085279 -0.06541271 0.00406027 -0.04612305 -0.02379059 -0.05202992 0.02790726 0.02459281 0.08651704 -0.10816506 -0.01807979 0.02526791 -0.02026897 0.01606113 -0.06781595 -0.0599537  0.00264537 -0.00696154 -0.00176398 -0.01896675 -0.02739131 -0.00379316 -0.0317419  0.00539159 0.08310904 0.0027533 -0.0143716  0.11915436 -0.00888699 0.02400577 -0.05465312 -0.01677536 0.00819343  0.03408328 0.04420191 -0.01887373 -0.07351081 -0.00981547 0.08300684  0.00256868 -0.06102515 -0.05145995 -0.07394037 0.04184845 -0.04485945 -0.0816271 -0.00195166 -0.0489395 -0.00786666 0.01679142 0.01025381 -0.00531268 0.01611626 0.01921985 -0.01441804 0.06936744 0.0296377  0.02085117 -0.00899802 -0.06018863 0.03379592 0.07858378 -0.02924338  0.05886843 0.021237  -0.00147327 -0.0253006 -0.01511276 0.00112444 -0.04672227 0.03097719 -0.01668862 0.02010757 -0.00913093 -0.04801621 -0.00622876 0.01437438 -0.03208178 0.00527113 -0.04327988 0.03375675 -0.04254575 -0.04315042 -0.00191798 0.0063821  0.04958778 0.01139776 -0.00094998 -0.05810673 0.00944005 0.04135582 0.00383379 0.04661729  0.02789778 -0.04443997 0.03092438 -0.01400154 0.00775441 0.02470649  0.00672722 0.06214254 -0.0192775 -0.00519085 0.02213711 0.04846885  0.07588901 0.01153073 -0.05167443 0.04705927 0.00526309 0.02452702 -0.09732761 0.03349835 0.08893377 0.0267042  0.01853242 
1.66425165e-02 1.49737354e-02 -1.17312986e-02 1.46359690e-02  6.85768388e-03 7.59236189e-03 1.70825180e-02 -1.56195165e-04 -5.34324907e-04 2.61801630e-02 -3.26295868e-02 -3.45881246e-02 -1.97018795e-02 5.35880262e-03 -3.49306837e-02 2.69883685e-02  1.99209396e-02 4.26737927e-02 -7.45706186e-02 -4.07043612e-04  2.26191711e-04 -3.56107354e-02 1.09245917e-02 -1.84426773e-02 -1.38445674e-02 2.91631091e-03 -3.05684358e-02 1.07206069e-02 -3.14521305e-02 -2.89601944e-02 -2.43235528e-02 -2.02416517e-02 -1.34081962e-02 5.25894091e-02 9.63654928e-03 -5.53932879e-03  5.30553721e-02 -8.64303764e-03 3.65715846e-03 -4.21170145e-02 -1.50139118e-02 2.98983585e-02 4.34773229e-02 4.51576300e-02 -8.97520408e-03 -3.89751531e-02 -2.28881314e-02 2.10465379e-02 -8.62574019e-03 -3.54540721e-02 -3.01697627e-02 -3.24797817e-02  6.09392561e-02 6.22471271e-04 -3.18584628e-02 -4.56339360e-04 -2.91572344e-02 -1.28452918e-02 3.61766154e-03 1.90077554e-02 -2.41494761e-03 -8.16007424e-03 2.81060841e-02 -1.75638217e-02  5.12036532e-02 7.97098037e-03 5.05712256e-03 -1.44553650e-02 -2.15799641e-02 8.80029146e-03 4.68614772e-02 -1.06449425e-02  1.37524372e-02 9.51049570e-03 -1.25880362e-02 -2.62747034e-02 -1.44722369e-02 -3.26262088e-05 -1.21804513e-02 2.06351727e-02 -3.62667255e-03 6.71363110e-03 -1.74505822e-02 -2.71358490e-02 -4.50170785e-03 4.02963161e-03 -2.57070363e-02 -9.98338591e-03  3.74332629e-03 3.64231542e-02 -2.66333818e-02 -1.35539938e-02 -2.55259429e-03 3.89753189e-03 4.73450832e-02 5.18445484e-03  1.22627281e-02 -2.00285856e-02 1.78956073e-02 -1.78546291e-02 -3.13234664e-02 2.74539366e-02 7.15249497e-03 -3.30950022e-02  2.79622059e-02 -8.24602903e-04 5.18817571e-04 1.69131886e-02  2.64996495e-02 2.00345814e-02 7.61446252e-04 9.35151614e-03  2.26569157e-02 3.99008915e-02 6.53081313e-02 -1.89822651e-02 -3.03602777e-02 2.48951819e-02 3.54587124e-03 1.31136961e-02 -5.34997322e-02 1.14645958e-02 3.13165374e-02 1.38751194e-02  4.40705381e-03 
-0.00828326 0.01898126 -0.0294201  0.03026869 -0.02448633 0.01387375  0.01792202 -0.03857949 0.0120277  0.00263034 -0.05691552 -0.01831332 -0.02117665 0.00863718 -0.00697125 0.04658796 0.02325778 0.0659311 -0.0847654 -0.02247253 0.0108835 -0.00089435 -0.00050239 -0.05465513 -0.02287108 -0.04255426 -0.00887203 0.00301908 -0.03508691 -0.01390969 -0.00262434 -0.01781776 -0.00681745 0.07188766 -0.0060608 -0.01167455  0.04157688 -0.03099582 0.01003616 -0.04643171 -0.02977459 0.04299346  0.0358192  0.04995617 -0.00613226 -0.02465233 -0.02010395 0.06747718 -0.00062015 -0.0661353 -0.04709635 -0.06187754 0.05477878 -0.01464708 -0.0893847 -0.04164496 -0.03818065 -0.01040433 -0.00010055 0.0362157 -0.00373009 0.01113976 0.01521032 -0.00459239 0.09033936 0.03425816  0.00597933 0.01110807 -0.03637464 0.01617103 0.03373966 -0.03977284  0.02150213 0.00959709 0.00202355 -0.02345377 -0.00119509 -0.01179897 -0.02408085 0.00775908 -0.00420617 0.03261904 -0.02038355 -0.06050978 -0.01959929 0.00567107 -0.0158307 -0.03007257 -0.0163477  0.01333057 -0.03645081 0.00258279 0.01862313 0.01536461 0.0496917  0.0381115  0.00524751 -0.02035522 0.00945771 0.01980327 -0.02081272 0.02522168  0.00873232 -0.02766193 0.0243926  0.00735093 0.02240796 0.03153414  0.0275837  0.03447396 0.00856564 0.01603363 0.03565917 0.04435839  0.0579397 -0.01944165 -0.02474129 0.0304422  0.00308254 0.03067781 -0.08517625 0.04173579 0.07427321 0.03854135 0.01195208 
0.01616793 0.05846263 0.00715315 -0.00059888 -0.00663861 0.0389255  0.02132729 -0.01787839 -0.00397203 -0.04087362 -0.03379725 -0.00079659 -0.0307824  0.03530363 -0.0009866  0.04939483 -0.00498658 0.03536773 -0.0707984  0.0122788 -0.00284129 -0.02070289 0.00731135 -0.01787379 -0.01590892 -0.0321661 -0.01454778 0.00500419 0.01178012 -0.00144021  0.02612423 -0.02270403 -0.00164989 0.03981106 0.02763647 -0.02121868  0.02891499 -0.03910325 0.0170008 -0.00994153 -0.02771432 0.03121937  0.00986684 0.0456039 -0.01009996 -0.00374884 0.01774816 0.03324987 -0.02515538 -0.02069563 -0.01907399 -0.00261595 0.03798667 -0.01428046 -0.01454943 -0.0012908 -0.00930229 -0.02567524 -0.03543974 0.0220423 -0.02058206 -0.00510256 -0.00906305 -0.01986817 0.05668992 0.01426954  0.01360766 -0.00947739 -0.02028702 0.01504479 0.01469382 -0.03101367  0.00860581 -0.0608137  0.00903427 0.01940345 -0.0392426  0.00307309  0.00514216 0.02776173 -0.00466133 0.02436564 -0.00325397 -0.03228019 -0.02606494 0.01500833 -0.01916687 -0.00171731 -0.01974847 0.01114567 -0.01040403 -0.01510393 -0.01541526 -0.04277036 0.04167609 0.01456533  0.00025019 -0.02232038 0.00826343 -0.02324901 0.00135167 0.01234954  0.00453261 -0.02262316 0.06489121 0.00731827 -0.00266722 0.0111353  0.03824602 0.04330852 0.0036917 -0.00545381 0.01031229 0.03943074  0.03192272 0.01854686 -0.00897469 0.00563644 -0.00211388 0.01482989 -0.04118087 0.03854594 0.01009099 0.03366373 0.04198559 
-0.00634253 0.01328798 0.01542047 0.03820865 0.00546497 0.02194609  0.00377493 -0.01060449 -0.02605589 0.0219961 -0.04310443 -0.03302035 -0.01880676 -0.0325737 -0.03856736 0.00184814 0.01127425 0.05996279 -0.08467439 -0.01851291 -0.02687201 -0.01365787 0.00019291 -0.05994255 -0.05497165 0.01070202 -0.02511234 -0.01184762 -0.01760224 -0.02772154  0.00360156 -0.01940684 -0.01702809 0.04643583 -0.01848151 -0.0219974  0.08750219 -0.03038093 0.02642137 -0.02503506 0.00385106 0.02123828  0.00538737 0.04234418 0.019336  -0.02588935 -0.0292963  0.06215315 -0.01133107 -0.02617061 -0.03378635 -0.03252191 0.06036813 -0.00728211 -0.04126175 -0.02028519 -0.036633  -0.02376765 0.02084464 -0.00650388 -0.00455104 -0.01236201 0.00907254 -0.00915759 0.06382599 0.03711999  0.00058045 -0.01969261 -0.02883755 0.00799005 0.05505179 -0.03201362  0.02422883 0.01677415 0.01013546 -0.04493355 -0.00399354 -0.01573806 -0.00044851 0.04119406 -0.00128252 0.01002198 0.02116444 -0.03559262  0.00605216 0.01680281 -0.03636616 -0.01836558 -0.03109856 0.04162803 -0.0461222 -0.02119706 -0.02570685 0.01222359 0.04832836 0.02441575  0.01554611 -0.02673358 0.01670106 0.0142217 -0.01570656 0.02779648  0.02381892 -0.00843118 0.01384648 0.02180116 0.01459131 0.0350844  0.01635353 0.04413552 -0.01376022 0.02344473 0.00712672 0.02128514  0.05167522 -0.01104256 -0.03860892 0.02687864 -0.00497855 0.01830321 -0.01582614 0.01483703 0.04454314 0.02175558 0.00683968 
-0.01058151 0.02410121 0.00498997 0.01935534 -0.02032575 0.01433866  0.00555172 -0.01295112 -0.00974845 -0.00472042 -0.02519552 -0.00389108  0.00164973 0.00657772 0.00014627 0.02486576 0.01829085 0.02065165 -0.01382278 -0.01408458 0.00843318 -0.00084947 -0.00455079 -0.02493168 -0.02190173 -0.01573096 -0.00397434 -0.00328693 -0.01379896 -0.01633124 -0.00143398 -0.01915581 0.00524493 0.02749453 0.00919912 -0.01758067  0.02346907 -0.02289405 -0.00266576 -0.00140226 0.00243913 -0.0004816 -0.00226121 0.01631009 -0.00621529 -0.01874066 0.00382778 0.0253487  0.00697268 -0.02741054 -0.00195778 -0.02976613 0.00562175 -0.00407615 -0.01934204 -0.01176548 -0.00315934 -0.00237387 -0.00171197 -0.00084377 -0.00333261 -0.00780549 0.00307801 -0.01508339 0.02255868 0.0204674  0.01211583 0.00360618 -0.01925247 -0.00425373 0.01987742 0.00058526  0.02164353 0.01754761 -0.00902499 -0.00967929 0.00496577 0.01694965  0.00727012 0.01605527 0.01301533 0.00264708 0.00551518 -0.02013656  0.00105025 0.01042594 -0.00759632 0.00246061 -0.01781495 0.01674506 -0.01511021 -0.00466087 0.00105051 0.00508626 0.01007021 0.00429819  0.00102052 -0.02238034 0.00264785 0.00741399 -0.00141543 0.01317836  0.01932864 -0.01324401 0.00057805 -0.00269012 -0.00142564 0.02052359 -0.01273193 0.02370303 -0.00352884 -0.00248704 -0.00023501 0.00813281  0.01841276 -0.00102023 -0.01351864 0.0107594 -0.01159763 0.00146735 -0.0276376  0.02075597 0.00304583 0.02332558 0.00108605 
0.00599014 0.02200891 0.00698127 0.03395398 -0.03820222 0.00822446 -0.00395714 -0.04839632 -0.02120884 0.00044065 -0.04601864 -0.00893211 -0.03755902 -0.04028982 -0.04868501 0.02316432 0.02222478 0.0990721 -0.09265619 -0.0424611 -0.00686522 -0.01954747 0.00538068 -0.08088838 -0.08422339 0.00330028 -0.03579025 -0.00305371 -0.03028513 -0.01371515 -0.02872549 -0.06305867 0.02303494 0.08603183 0.01007049 -0.01784531  0.14472772 -0.03781091 0.05061344 -0.03720605 -0.01049696 0.03066485  0.03665635 0.07448293 -0.00146823 -0.05570553 -0.02818155 0.07262812 -0.00306193 -0.0695872 -0.06568478 -0.07322754 0.05162225 -0.04231976 -0.06351801 -0.01406214 -0.01636477 -0.03870349 -0.0150508 -0.00954415 -0.00747446 0.01874022 0.04307381 -0.01461501 0.08022586 0.04791025  0.0378151  0.0057823 -0.03958509 0.05100492 0.06356464 -0.01551513  0.04212434 0.01448417 0.00803972 -0.03435421 -0.02955722 -0.01544073 -0.01495188 0.04279597 0.0014683  0.01394935 0.00156761 -0.06911217 -0.010126  0.04529457 -0.05889739 0.00342699 -0.06132243 0.04429272 -0.02045549 -0.0536469 -0.01287382 -0.00650256 0.06494933 -0.00317494  0.00943826 -0.06749644 0.00673986 0.03293068 0.0164883  0.04570984  0.00961027 -0.03561137 0.02655334 -0.00042941 0.02555285 0.04081425 -0.01843526 0.05978235 -0.03103011 -0.03301007 0.01664282 0.03640981  0.07285993 -0.00551616 -0.0774861  0.03641624 0.01375767 -0.0012783 -0.08915406 0.0435288  0.07447594 0.03374167 -0.00062692 
-0.00605786 0.00787849 0.01143801 0.02327188 -0.00403266 0.00445101 -0.00565585 -0.03778929 -0.00299088 -0.00893549 -0.03753383 0.00335354 -0.02054439 -0.02548061 -0.02759385 0.00847013 0.01583315 0.05311466 -0.04847674 -0.01030758 -0.0001745 -0.00898444 0.00550693 -0.0487737 -0.02710733 -0.00014543 0.00858463 0.00067743 -0.01044396 -0.0036578  0.00142638 -0.02002202 0.01341541 0.03591435 -0.00638263 -0.00597241  0.07034608 -0.01387935 0.01841099 -0.02791281 -0.00533077 0.0018246  0.00428031 0.03773684 0.00140972 -0.02960498 -0.00210243 0.04667243  0.01042998 -0.02936138 -0.02279137 -0.03637095 0.00838135 -0.03543502 -0.0431218 -0.01269683 -0.02114075 -0.01229268 -0.0013706 -0.00556915 -0.01707301 0.00871963 0.01669101 -0.00208997 0.03170675 0.01827706  0.0144368 -0.0060575 -0.02865605 0.01456934 0.03651158 -0.01866257  0.03642347 0.00577482 0.00784708 -0.01502335 -0.00123941 -0.00564063 -0.02771303 0.02124139 -0.01114121 0.01142135 -0.0046156 -0.03324327  0.00050331 0.02141845 -0.02539898 0.00330558 -0.04156965 0.02398481 -0.02002907 -0.0128794 -0.01074995 -0.00413293 0.01778313 0.01360012 -0.00313082 -0.03238913 0.00169309 0.0356407  0.01842733 0.02583374  0.01314933 -0.02200794 0.02129439 -0.0106998  0.00387493 0.01952977 -0.01770015 0.03496157 -0.01610539 0.00208903 -0.00036907 0.01777982  0.03821105 -0.00267419 -0.01840919 0.01537964 -0.00406399 0.00653523 -0.04161263 0.02449008 0.03666747 0.01565426 0.01889314 
-0.01412935 0.00556855 -0.0129227  0.03695402 -0.02819856 -0.00767235 -0.00228252 -0.03240973 -0.00142691 0.00279795 -0.04626585 -0.0267786 -0.02087233 -0.01691633 -0.01089771 0.03507484 0.02845117 0.07524973 -0.08592714 -0.02514806 -0.01543399 -0.03670667 0.01375627 -0.06522664 -0.02338421 -0.00863801 0.0055362  0.03036753 -0.03525171 -0.00924129 -0.01514891 -0.02160396 -0.00455031 0.07016863 -0.01420283 -0.00534252  0.0634665 -0.00352614 0.00915079 -0.03381562 -0.01427771 0.00885798  0.01631884 0.04130478 -0.02829734 -0.05483229 -0.03216533 0.04212407  0.01972657 -0.06875562 -0.07748174 -0.05850023 0.01438591 -0.01223452 -0.07469512 -0.03558876 -0.03837389 -0.01208758 -0.00557512 0.0561533 -0.01151951 -0.00099175 0.0288861  0.00181343 0.05924709 0.04518217  0.01195887 -0.01899671 -0.01506191 0.0120395  0.05650165 -0.04466888  0.03097956 0.01188999 -0.00343026 -0.03490732 -0.00584088 -0.00712244 -0.03736471 0.01093676 -0.01421269 0.01283825 0.00052902 -0.05758394 -0.00249029 0.00850248 -0.02411754 -0.00118963 -0.03184925 0.04347561 -0.05421047 -0.01436953 -0.00205226 -0.00568892 0.06326438 0.05084638  0.01745937 -0.03969679 -0.01128899 0.03088412 -0.01327236 0.03118379  0.00979245 -0.01740761 0.01493407 -0.01934555 0.02186025 0.02966266  0.01650994 0.02730635 0.00307732 0.0225231  0.02357804 0.04102079  0.05502772 -0.00599091 -0.02983441 0.03021541 0.00820065 0.02763011 -0.06218426 0.03745151 0.05273493 0.02748232 -0.00090613 
-0.02723992 0.01886839 0.02165138 0.08900244 -0.05301142 0.00711543  0.03096896 -0.07324798 -0.00445548 0.00497611 -0.09181661 -0.01240303 -0.05278143 -0.02348619 -0.05645833 0.03738998 0.04053507 0.15158914 -0.14402609 -0.05710673 0.03768154 -0.03864764 0.01179365 -0.10678566 -0.08301547 -0.02376551 -0.00958736 0.02244077 -0.03345971 -0.03681134 -0.02338402 -0.07312781 0.01208755 0.13694115 -0.00416839 -0.03330044  0.15731879 -0.02683828 0.0201797 -0.07540383 -0.04577999 0.04361349  0.05447508 0.07990074 -0.02854899 -0.10727586 -0.02031128 0.11036851  0.00378714 -0.11465618 -0.10078854 -0.11828076 0.07840839 -0.06158044 -0.13901882 -0.03195098 -0.07108165 -0.00091097 0.01464331 0.02997228  0.00046264 0.02244284 0.03203942 -0.02430863 0.1399992  0.05856835  0.03633346 -0.0095333 -0.06641806 0.05113177 0.11332326 -0.04491754  0.08632844 0.03052844 -0.02435709 -0.05312288 -0.01376056 0.0167774 -0.05479847 0.05893358 -0.00566611 0.04088838 -0.01089105 -0.07297696  0.00406393 0.01178184 -0.075249  0.01778367 -0.06948291 0.05982478 -0.07413965 -0.04325052 0.0134821  0.02280946 0.1022594  0.03144437  0.00717282 -0.09881803 0.01587993 0.05212889 -0.03006798 0.083855  0.03915321 -0.05991894 0.03541249 0.00542864 0.00034718 0.04044457  0.01093782 0.08730801 -0.02227817 -0.00118511 0.05436491 0.07189803  0.10911323 -0.0094448 -0.07549916 0.04565098 -0.00769354 0.03735599 -0.14308499 0.04026715 0.12108302 0.06681955 0.00255109 
-0.02445138 0.02722079 -0.0039655  0.0696666 -0.03424873 -0.00125365  0.02390785 -0.05479179 0.01368171 -0.00363266 -0.10706022 -0.02592929 -0.04601766 -0.02676944 -0.05078288 0.06606987 0.03859359 0.12799865 -0.1554397 -0.03466507 0.01993114 -0.02304126 0.02726275 -0.10524741 -0.09467416 -0.01552179 0.00492999 0.01724752 -0.05150673 -0.03631841 -0.01491213 -0.0631821  0.00438497 0.14036477 0.00211928 -0.01196585  0.16303302 -0.01945861 0.03058946 -0.07015748 -0.03620386 0.02887963  0.04786542 0.08573852 -0.03423667 -0.10318495 -0.02551996 0.10662146  0.01996439 -0.10883389 -0.06582087 -0.1240714  0.06283702 -0.03817786 -0.13338128 -0.00206615 -0.04391104 -0.00505005 0.02423911 0.01822169 -0.01115553 0.02567303 0.02702498 -0.01823041 0.11500506 0.06925453  0.0289351 -0.01069833 -0.07654552 0.04719378 0.09689217 -0.05808774  0.08350098 0.03116387 -0.00912671 -0.0655077 -0.04472242 0.00354386 -0.05162608 0.02087901 -0.00230878 0.01824155 -0.02784295 -0.08538486 -0.01872287 0.00520689 -0.04812247 -0.00205447 -0.05095054 0.0743843 -0.08009712 -0.03433226 -0.00609171 0.01926485 0.08160781 0.03485745  0.00891915 -0.08467016 -0.01302158 0.0610684 -0.00879616 0.05980996  0.02708596 -0.06709103 0.02819906 -0.0174199  0.01956319 0.04725629  0.00975273 0.07617968 -0.01371965 -0.01931486 0.02276319 0.05792044  0.11259197 0.00424119 -0.06979051 0.05599204 0.01899579 0.02885316 -0.1776009  0.07578493 0.11987002 0.04813873 0.0117507 
-9.35806136e-04 1.42165404e-02 8.30184016e-03 1.22650070e-02 -1.30681247e-02 -2.04545446e-03 -3.28002207e-04 -1.77549291e-02 -7.26418197e-03 6.97564567e-03 -2.01196279e-02 -5.60939265e-03 -1.55457417e-02 -7.31654093e-03 -2.56070513e-02 8.51009600e-03  9.40077938e-03 4.34345677e-02 -4.22063917e-02 -1.06117697e-02 -3.88198392e-03 -4.82316967e-03 -6.61549275e-04 -2.62929872e-02 -3.01968418e-02 5.92895085e-04 -9.68749635e-03 1.63692562e-03 -7.80732743e-03 -7.27340579e-03 -1.17461570e-02 -2.14929096e-02  3.07476707e-03 2.64079049e-02 1.71397608e-02 -6.34403713e-03  4.76484373e-02 -2.31955238e-02 1.75296683e-02 -5.59910061e-03 -4.31114947e-03 1.30096395e-02 9.08620842e-03 3.40866931e-02 -5.95222227e-03 -1.90493762e-02 -1.13807637e-02 1.94729082e-02 -1.67354364e-02 -3.47512960e-02 -3.04511636e-02 -2.73726415e-02  2.21173912e-02 -1.69140939e-02 -1.75153203e-02 -1.01894327e-02 -9.59808193e-03 -1.27018020e-02 -1.17849223e-02 -2.34969519e-03 -8.78422335e-03 -1.29222719e-03 2.23470479e-02 -9.01341625e-03  4.13250476e-02 1.93350725e-02 1.51238460e-02 -1.32605163e-02 -8.89156479e-03 2.23621596e-02 1.85563825e-02 -5.69447828e-03  1.51149472e-02 -2.86865747e-03 3.12790275e-03 -1.16303433e-02 -6.48313900e-03 -7.10857566e-03 3.98869673e-03 1.29287243e-02  9.57603008e-03 1.17188017e-03 -1.70860847e-04 -3.45530398e-02  3.74767929e-04 1.59440450e-02 -1.95774194e-02 -2.62379646e-03 -3.21509242e-02 2.70165820e-02 -8.74258112e-03 -8.99057649e-03  2.42036255e-03 -9.97489318e-03 3.43524963e-02 -8.98240483e-04  3.53111140e-03 -2.21468098e-02 8.69716750e-05 4.01470438e-03 -4.15869243e-03 1.91293899e-02 6.23146188e-05 -8.77116527e-03  1.46884592e-02 1.20263277e-02 6.31377706e-03 1.45942643e-02 -6.71403483e-03 1.80308409e-02 -1.44881122e-02 -1.13233895e-04  4.69166506e-03 1.56575646e-02 2.91339979e-02 -5.18897315e-03 -3.06220390e-02 1.45924883e-02 5.82843600e-03 6.93296688e-03 -1.68514680e-02 1.06416512e-02 1.87437888e-02 1.59944072e-02 -9.15960118e-04 
-1.18126636e-02 6.53132424e-02 -2.02610660e-02 8.20615664e-02 -2.03942489e-02 2.42233966e-02 -2.05801125e-03 -5.79253994e-02  9.55197401e-03 -3.23843546e-02 -1.14088185e-01 -1.84952002e-02 -5.28391860e-02 1.04879336e-02 -2.15223487e-02 7.64581412e-02  2.63567492e-02 8.87024924e-02 -1.71261325e-01 -8.98526795e-03  5.64633030e-03 -3.42292227e-02 1.93099193e-02 -9.66671854e-02 -6.94388449e-02 -7.38900155e-03 -5.59693389e-03 1.21237952e-02 -4.40170094e-02 -1.65296197e-02 -6.54828316e-03 -5.98335937e-02  1.83799062e-02 1.11180291e-01 -2.98027089e-03 -2.17929557e-02  1.39281213e-01 -3.79655957e-02 2.50740107e-02 -7.89066106e-02 -3.90100293e-02 1.65481921e-02 3.29800509e-02 7.44500682e-02 -2.92837173e-02 -7.49452040e-02 -9.82732978e-03 1.02777041e-01 -7.24713458e-03 -7.65380412e-02 -8.03064704e-02 -1.17687643e-01  5.84111325e-02 -4.02532294e-02 -1.05212100e-01 -1.74088031e-02 -4.18764763e-02 -8.20173137e-03 4.88860644e-02 1.84395127e-02 -2.20279116e-02 9.96196736e-03 1.74793806e-02 -1.75549388e-02  1.19919874e-01 6.20461293e-02 2.58036982e-02 5.39174210e-03 -8.66505355e-02 3.79606821e-02 9.61628854e-02 -3.99115644e-02  8.49067569e-02 3.95697262e-03 2.69752345e-05 -2.35373490e-02 -5.05694151e-02 7.94516224e-03 -4.20190804e-02 5.01389802e-02 -2.08852943e-02 4.25759237e-04 -2.40591429e-02 -8.66670087e-02 -1.86822433e-02 -3.42114130e-03 -4.20856178e-02 -4.20917012e-03 -5.84883578e-02 5.26781194e-02 -5.65629043e-02 -4.71562967e-02 -9.07976180e-04 -4.99336608e-03 6.81183189e-02 4.36621271e-02 -2.05790773e-02 -5.68828881e-02 9.70651023e-03 4.50930633e-02  1.05206165e-02 4.14366946e-02 3.68295424e-02 -7.18590617e-02  7.37696290e-02 -7.82719441e-03 2.33587585e-02 6.23439141e-02  2.12466959e-02 1.11514002e-01 -3.04215890e-03 5.31748822e-03  2.76558977e-02 6.38952851e-02 1.06174171e-01 -1.02137551e-02 -6.37052655e-02 7.70725012e-02 9.30765737e-03 2.23203320e-02 -1.32104531e-01 6.31012693e-02 9.04236883e-02 4.60432656e-02  3.36836688e-02 
-0.01275555 0.03169891 -0.02719634 0.03323085 0.0212737  0.01100778  0.00234929 0.00109369 0.00784717 0.0053235 -0.04050726 -0.00080604 -0.00818623 -0.04032462 -0.06108018 0.03975105 0.02112313 0.05667587 -0.10644986 -0.01772467 -0.00738379 0.00300526 0.01704222 -0.04046254 -0.061935  0.01044308 -0.02092122 -0.02186056 -0.0215466 -0.02221142  0.00589277 -0.01694362 -0.00417375 0.03517108 0.01303278 -0.00542704  0.0582774 -0.02876876 0.01230674 -0.04785699 -0.02060481 0.00260295  0.0349876  0.04604735 -0.00089918 -0.02885924 -0.03466547 0.02890573 -0.03027476 -0.02543773 -0.02776863 -0.01561159 0.05546847 -0.02817473 -0.03684623 -0.01266215 -0.03161909 -0.04031561 -0.01589358 -0.00317356 -0.00261131 -0.01065204 0.02618082 -0.00572056 0.04604334 0.04877319  0.00740424 -0.03467163 -0.00883829 0.00936384 0.05550396 -0.01843437  0.03931078 0.00984141 0.00274143 -0.01658653 -0.04862157 -0.01545193  0.01502885 0.02377114 0.00070689 0.00613776 -0.03161065 -0.04987419 -0.01414615 0.01464541 -0.01648504 -0.00299539 -0.01140562 0.03665339 -0.0534925 -0.01619173 -0.00778276 -0.00317542 0.04523237 -0.01536698  0.01092562 -0.02884482 -0.00124017 -0.00812957 -0.0056426  0.03012993 -0.00497112 -0.036544  0.03838959 -0.01706702 0.01026795 0.03029176  0.01551793 0.01888613 -0.00387718 -0.00170755 -0.00721727 0.05318755  0.06835262 0.00750635 -0.0228706  0.04208173 -0.00592522 0.00566226 -0.05795679 0.02832919 0.04190317 0.02995954 0.01348796 
0.00426031 0.0061484 -0.03033224 0.04519881 -0.0127691  0.02648292  0.01688519 -0.02747556 -0.00394599 0.01369125 -0.01821255 -0.02441867 -0.03438079 -0.00542064 -0.00890155 0.03522963 0.01006923 0.04933479 -0.0800183 -0.03827886 0.00357513 -0.01253467 -0.00461253 -0.04976352 -0.04210926 -0.02500111 -0.00974897 0.02516584 -0.02622544 -0.03863569  0.00595923 -0.0167347 -0.01788647 0.08432395 -0.01184421 0.00770565  0.04137683 -0.0201179  0.00113313 -0.03786312 -0.0324786  0.05588406  0.02256869 0.04284915 -0.00169552 -0.02205965 -0.02613624 0.04936664  0.00437077 -0.03052223 -0.04934718 -0.04224452 0.03336567 0.00045496 -0.0708447 -0.01277639 -0.02920967 -0.00360812 -0.00244029 0.04615233 -0.00636006 -0.01083013 0.02455995 -0.01810672 0.06477436 0.04887073 -0.00524851 -0.00433027 -0.02634605 0.02179266 0.05037546 -0.03743181  0.01978182 -0.00035359 -0.00669337 -0.02072268 -0.01791953 -0.01060589 -0.02207136 0.01708509 -0.0143664  0.02587595 -0.01144638 -0.02618792 -0.02589786 -0.00686521 -0.036555  -0.02010044 0.00302924 0.02358665 -0.00703859 -0.01929251 -0.01593813 0.00737143 0.04524728 0.06712173  0.02132632 -0.03801534 0.00650715 0.00425475 -0.01582055 0.03382352  0.01113673 -0.01560463 0.03466525 0.01070031 0.00143793 0.00300431  0.02575856 0.04443724 0.03129338 0.01074238 0.02791145 0.04457404  0.06398262 -0.02024948 -0.01442267 0.03328012 0.00968776 0.03169764 -0.06990092 0.01195204 0.05666286 0.01720677 -0.00628835 
-5.54414000e-03 2.22242214e-02 -9.05477908e-03 2.98771937e-03 -1.88152995e-02 -6.08537951e-03 1.23602590e-02 -1.17110191e-02  4.60844859e-03 -4.89052013e-03 -3.45050171e-02 -4.11443226e-03 -1.05526308e-02 -2.00131368e-02 -2.62918714e-02 1.89779811e-02  1.66601464e-02 5.23034595e-02 -4.98060063e-02 -2.36894041e-02 -5.91448834e-03 -1.92667209e-02 1.12890815e-02 -3.59170884e-02 -4.74446230e-02 5.81742171e-03 -1.10566057e-02 -5.16810082e-03 -2.22566500e-02 -1.49214473e-02 -5.10471826e-03 -2.45802272e-02  9.18207399e-04 3.35269086e-02 7.54127186e-03 -1.11362841e-02  6.13129996e-02 -1.90497153e-02 1.43213822e-02 -1.83265880e-02  2.68389657e-03 1.36625599e-02 5.24512678e-03 4.00527120e-02 -2.67917756e-03 -2.68420111e-02 -1.56733543e-02 3.08497660e-02  1.77016214e-03 -4.06383127e-02 -2.04117186e-02 -3.39796357e-02  3.59290093e-02 -1.38643747e-02 -3.64230610e-02 -1.56208342e-02 -1.05465669e-02 -2.53259912e-02 -2.10947171e-02 -8.04936455e-04 -5.50442236e-03 -7.46961311e-03 1.42299952e-02 -4.63180710e-03  3.29433531e-02 2.42052209e-02 9.67850816e-03 -9.34546907e-03 -1.99492630e-02 1.15564261e-02 2.87122615e-02 -6.48133317e-03  1.63437072e-02 1.34698013e-02 1.17432019e-02 -2.25551091e-02 -1.74662154e-02 -8.05668533e-03 -8.34174827e-03 2.67762374e-02  9.66688525e-03 1.24038858e-02 1.58298411e-03 -4.97746244e-02 -8.76770914e-03 2.10839137e-02 -1.99539214e-02 -1.47999730e-03 -2.68661287e-02 3.23908217e-02 -2.62189824e-02 -1.04657505e-02 -1.11176968e-02 -9.77929775e-03 3.45639922e-02 1.01271830e-02  3.40574281e-03 -1.73549149e-02 5.20018954e-03 3.94850504e-03  2.12584855e-05 2.14507338e-02 -3.61398794e-03 -1.10958461e-02  2.75053680e-02 -1.85516998e-02 1.05949799e-02 2.66202390e-02  2.70891096e-03 1.42254010e-02 -1.48367491e-02 -1.43467085e-02  2.30829674e-03 3.63302492e-02 3.17793041e-02 6.93770312e-03 -3.87437493e-02 2.18593534e-02 -7.15911714e-03 6.41914783e-03 -4.50026877e-02 3.34558785e-02 3.31385061e-02 1.63673479e-02  6.83515985e-03 
0.0003596  0.02653836 -0.02057083 0.0297715 -0.0231343 -0.00129821 -0.0082979 -0.05117625 0.00621311 -0.02528563 -0.04621579 -0.01592274 -0.02477674 -0.02275782 0.0042922  0.03144469 -0.00406729 0.07669241 -0.05022405 -0.05057139 -0.00868631 -0.00745734 0.00735529 -0.06213055 -0.05698793 -0.0286166  0.00637667 0.03503796 -0.03250809 -0.03299494 -0.00590393 -0.02597316 0.00116994 0.06079108 -0.00780593 0.00089104  0.03702376 -0.01342372 0.03174191 -0.03070063 -0.03460409 0.04299392 -0.00062293 0.03614104 -0.00988989 -0.02082562 -0.01449496 0.03601532  0.01851777 -0.03484116 -0.04634907 -0.04897824 0.0306744 -0.01546826 -0.06347961 -0.00993424 -0.0074212 -0.01373385 -0.00935106 0.01411418 -0.00821754 0.00769449 0.00751782 -0.00026192 0.07184345 0.0426093  0.00210338 0.00089286 -0.02788038 0.01447834 0.03448211 -0.02977953  0.02522349 0.00958064 0.01327972 -0.01951754 -0.02882603 -0.0061466 -0.00223489 0.01602763 -0.0106016 -0.01387495 -0.00574305 -0.05709513 -0.01405955 -0.00891788 -0.0269687  0.01423555 -0.01599133 0.05340641 -0.03126647 0.00269341 -0.011332  0.01688373 0.02485992 0.04070949  0.01233803 -0.04185705 -0.01611739 0.00776075 0.00858909 0.03720854 -0.00443044 -0.02613229 0.017451  -0.00158804 0.0099814  0.02173704  0.00901594 0.03539712 0.01256965 -0.00406631 -0.00949506 0.02269302  0.03558427 0.0151699 -0.02268079 0.00985002 0.00354479 -0.00868976 -0.08893045 0.02110224 0.06160484 0.03980036 -0.00140117 
0.01157933 0.01761974 -0.01687094 0.03943814 -0.02290387 -0.00226914  0.04178098 -0.05040563 0.02083655 -0.00043735 -0.08186559 -0.00966865 -0.04315421 -0.03282592 -0.01967164 0.03483747 0.01756238 0.10186392 -0.1015349 -0.02156983 0.00514855 -0.02725646 0.01276329 -0.06177323 -0.0520805 -0.01361176 0.02058665 0.04171071 -0.03957121 -0.00996744 -0.02732529 -0.02676307 0.04169438 0.07056878 -0.00927351 -0.01808894  0.10791512 0.00390168 0.00611472 -0.04803469 -0.02686381 0.04039451  0.02714032 0.05705635 -0.01142296 -0.07585092 -0.00882133 0.04693126  0.01034451 -0.07849507 -0.04214629 -0.12141696 0.05683996 -0.03847547 -0.09496494 -0.01906481 -0.02839589 0.01843577 0.00809245 0.0229781 -0.02760557 0.01066148 0.00876104 -0.01952877 0.08821909 0.05924377  0.0440471  0.01059321 -0.05683319 0.023411  0.06498799 -0.02469343  0.04593597 0.01722956 -0.00723269 -0.0358056 -0.027808  0.0187222 -0.04141934 0.05754698 -0.01819006 0.01449564 -0.00068697 -0.06116737  0.01564903 0.00131424 -0.06763786 0.009569  -0.05363489 0.06674831 -0.03954849 -0.03018152 -0.01971927 -0.01118497 0.05689106 0.032314 -0.00278682 -0.05139565 0.01485174 0.05231994 0.01157219 0.05923339  0.02340391 -0.04854443 0.01300338 -0.02818568 0.01359007 0.0572242 -0.01756354 0.04580316 -0.00616981 -0.01905783 0.02461734 0.04515615  0.07061166 -0.01004307 -0.03726739 0.02033695 0.00399258 -0.021825 -0.08829211 0.01589568 0.08181542 0.03588483 0.01128635 
-1.17232306e-02 1.45594990e-02 -5.83525840e-03 3.28183286e-02 -1.47060761e-02 1.87595692e-02 8.62766430e-03 -2.44744290e-02 -2.32353825e-02 3.23769310e-03 -3.32848392e-02 -1.69500429e-02 -1.22852894e-02 -4.72783716e-03 5.96786093e-04 1.67876333e-02  2.60281041e-02 4.54178341e-02 -6.01687916e-02 -3.38721313e-02  4.38578706e-03 -9.59867146e-03 -3.14733887e-04 -5.47176413e-02 -2.32728440e-02 -7.73888035e-03 9.81582422e-03 8.34727846e-03 -2.72994097e-02 -9.64488368e-03 -1.84309985e-02 -3.08834091e-02 -1.04041947e-02 4.51086797e-02 2.38794321e-03 2.29209266e-03  3.92108820e-02 -8.26981943e-03 9.18810721e-03 -7.33477250e-03 -2.28601526e-02 2.15245225e-02 -7.80746923e-05 2.13785805e-02 -1.11327814e-02 -2.44458113e-02 -2.62261857e-03 3.38699929e-02  2.42077447e-02 -3.14486399e-02 -2.03983504e-02 -3.63629796e-02  1.78282540e-02 5.29013807e-03 -2.26691756e-02 -6.62932917e-03 -2.67259427e-03 1.13956565e-02 1.66713144e-03 -8.95523839e-03 -1.64079797e-02 3.32750566e-03 7.86210131e-03 -1.47864111e-02  3.67406793e-02 4.90302518e-02 8.08396656e-03 7.41646020e-03 -2.27518976e-02 -3.89132812e-03 3.84779014e-02 -1.12890163e-02  4.27335203e-02 4.62397467e-03 -1.11380294e-02 -3.50183025e-02 -2.20519621e-02 2.87361126e-02 -9.96431569e-04 1.56638343e-02 -1.32176583e-03 -6.36150176e-03 2.36229098e-04 -3.39665934e-02 -3.87558504e-03 -1.53438272e-02 -1.53286755e-02 -5.07851737e-03 -2.29537860e-02 2.30028331e-02 -2.06691176e-02 2.01610778e-03 -4.55406588e-03 2.20226720e-02 2.52296664e-02 2.39979029e-02  2.78691109e-03 -4.56404127e-02 6.70500216e-04 2.08263882e-02 -6.11002278e-03 1.87066104e-02 1.56597719e-02 -2.34490782e-02 -5.89371007e-03 1.15766060e-02 1.33647835e-02 3.69402138e-03 -5.42937871e-03 3.61381024e-02 1.95808560e-02 1.20175385e-03  2.52529904e-02 9.69130080e-03 2.23887563e-02 -8.22537392e-03 -1.07624074e-02 4.25625406e-03 -1.24406675e-03 1.02651529e-02 -5.18289655e-02 9.91672557e-03 2.08684951e-02 1.79817248e-02 -3.09533440e-03 
-0.01083059 0.03073922 0.0056985  0.02970806 -0.0137295  0.0064888 -0.00648147 -0.02253468 0.00133803 -0.00131163 -0.04207171 -0.0093578 -0.01237304 0.0078494 -0.01790093 0.03291635 0.00484704 0.03284511 -0.04751685 -0.01396511 -0.00323431 -0.00063678 0.00691484 -0.02840562 -0.03134885 -0.00628321 -0.01456379 -0.00228629 -0.01428576 -0.02054989 -0.01515034 -0.02923123 -0.001294  0.04529038 0.00940125 -0.02372659  0.05627409 -0.01838123 0.01875914 -0.01947401 -0.01044693 0.00056044  0.00732524 0.03389996 0.00710498 -0.01408241 -0.02021208 0.04105294 -0.00693894 -0.02331626 -0.01975355 -0.01678221 0.02134949 -0.01916154 -0.03091047 -0.02046321 -0.03118571 -0.03064611 -0.00544877 -0.00080238 -0.00950972 0.00212806 -0.00538605 -0.01002832 0.0449346  0.022947  0.00323017 -0.01709601 -0.01374605 0.01029051 0.0321907 -0.01436082  0.01824067 -0.00269516 0.00682534 -0.01004853 -0.0147383 -0.0110258  0.00406436 0.0279773  0.00062869 0.01968742 -0.00166632 -0.02380875  0.01723535 0.00805348 -0.02573297 0.01155195 -0.02541641 0.01246725 -0.01868442 -0.02006348 -0.00121535 -0.01756395 0.02611195 0.01563508 -0.01443376 -0.02351777 -0.00371566 0.00354001 -0.00117226 0.03099518 -0.00737555 -0.02415592 0.02530665 0.00567679 -0.00044128 0.0152238  0.00475449 0.04789894 -0.00472269 -0.01511545 -0.00149025 0.00616734  0.0415313  0.00949344 -0.02624887 0.01755845 -0.00498574 0.01907711 -0.0317461  0.0153085  0.02812503 0.01256296 0.00511225 
-2.66780797e-02 4.47765552e-02 -3.72013450e-03 6.15789331e-02 -1.04120681e-02 7.43036717e-03 3.80817950e-02 -3.89341116e-02  1.77362673e-02 2.82847676e-02 -9.11491662e-02 -6.52622944e-03 -3.92831191e-02 -7.70342499e-02 -8.21616203e-02 5.25272861e-02  3.92339118e-02 1.36870444e-01 -1.83567032e-01 -6.21448420e-02  3.82858468e-03 -1.36685483e-02 2.19002105e-02 -1.24227129e-01 -1.20928094e-01 1.74116939e-02 -3.95623688e-03 1.04377407e-03 -5.80488667e-02 -3.46866474e-02 -2.56200209e-02 -7.45406225e-02  8.63869395e-03 1.00943297e-01 1.89623535e-02 -1.54613098e-03  1.52544007e-01 -3.12092267e-02 4.71489737e-03 -6.77657649e-02 -4.56552692e-02 3.19056436e-02 3.72124054e-02 1.01788871e-01 -2.41965018e-02 -9.09266397e-02 -4.48681824e-02 7.44815767e-02 -1.54049229e-02 -8.93084407e-02 -8.60501975e-02 -8.38364065e-02  9.78990421e-02 -4.53992337e-02 -1.10863611e-01 -7.32534425e-03 -3.88225652e-02 -9.00278334e-03 -1.26298135e-02 -5.12194820e-03 -1.67128965e-02 2.04823576e-02 7.58756548e-02 -3.16565782e-02  1.21863648e-01 1.04419112e-01 4.02463377e-02 -4.06554937e-02 -4.69363742e-02 4.05884609e-02 1.06090121e-01 -4.74907979e-02  9.37543809e-02 1.73659269e-02 1.79609470e-03 -6.04247563e-02 -5.59180789e-02 -5.84047753e-03 -1.34219369e-02 4.69543561e-02  6.44545117e-03 1.13869524e-02 -3.78753096e-02 -1.05675749e-01 -1.42523013e-02 1.45523055e-02 -7.11705685e-02 3.89082986e-03 -6.06284291e-02 9.52079371e-02 -7.90872648e-02 -3.08054946e-02  1.60011696e-04 1.62687376e-02 8.56801420e-02 1.61221940e-02  1.93895288e-02 -6.89644888e-02 1.04296440e-03 3.29817273e-02 -3.01443897e-02 6.00829236e-02 1.70544237e-02 -5.08398227e-02  4.66622300e-02 -2.12748721e-02 8.04439839e-03 4.58337292e-02  4.00343258e-03 5.15165217e-02 4.25587874e-03 -1.96466148e-02  2.18735393e-02 8.14707130e-02 9.86804366e-02 -3.61837074e-03 -6.80422634e-02 5.08787744e-02 -7.61076715e-03 1.89305432e-02 -1.41584858e-01 6.38935938e-02 1.16138615e-01 5.29169217e-02  1.17265247e-02 
-8.85130372e-03 6.13249652e-02 2.52704080e-02 2.96839476e-02  8.23575188e-04 2.18885001e-02 1.33461663e-02 -6.77803473e-04  9.36486613e-05 1.20157087e-02 -4.52882759e-02 1.05774961e-02 -6.38219947e-03 -2.88403481e-02 -5.52957281e-02 5.79119325e-02  1.59517899e-02 4.89507988e-02 -9.31116939e-02 -2.82449946e-02  2.23427601e-02 -4.26781800e-04 1.06299436e-02 -5.34025356e-02 -8.89327601e-02 -2.90332572e-03 -1.03117479e-02 -2.62354538e-02 -1.35971084e-02 -1.07186195e-02 -2.19226815e-02 -3.07245199e-02 -5.89814549e-03 6.04252480e-02 2.06547398e-02 -1.44163892e-02  8.03010613e-02 -4.12689038e-02 9.01727658e-03 -2.57047880e-02 -1.39423262e-03 9.86415427e-03 5.08133380e-04 5.77829331e-02 -1.40978266e-02 -4.65918146e-02 -2.24260204e-02 4.70086522e-02 -3.13267158e-03 -4.97058444e-02 -1.57156009e-02 -2.52716113e-02  4.29796278e-02 -2.38678306e-02 -3.72475572e-02 -9.48114786e-03 -3.12629044e-02 -3.43639404e-02 1.60055666e-03 -8.79044086e-03 -9.24728531e-03 5.51487645e-03 3.32370698e-02 -2.71466356e-02  6.92953989e-02 5.29799983e-02 2.04151645e-02 -4.22069617e-02 -2.95997616e-02 1.19985817e-02 3.86212245e-02 -1.29137887e-02  3.75925936e-02 -1.35958055e-03 5.82885370e-03 -3.16880085e-02 -1.55374892e-02 -3.21227033e-03 -3.17871571e-03 1.39595177e-02  8.24847817e-03 -5.26795443e-03 -2.34754384e-02 -4.88624498e-02 -2.84067206e-02 -4.88064857e-03 -4.81971130e-02 -1.17148245e-02 -3.96178588e-02 5.07628918e-02 -2.65748017e-02 -2.66639646e-02 -3.14663304e-03 1.20012183e-02 3.64601873e-02 -3.86711676e-03  2.09788028e-02 -3.22177261e-02 -1.73040805e-03 -1.99489947e-02 -1.17159802e-02 1.35041429e-02 1.73398200e-02 -4.74096946e-02  1.48753859e-02 -3.17618810e-02 -1.21176373e-02 5.06063998e-02 -1.31787816e-02 3.53090465e-02 -8.01328663e-03 -8.15671124e-03 -1.49243260e-02 4.59595211e-02 5.65561242e-02 1.02397436e-02 -4.34140041e-02 5.42136319e-02 -2.41217893e-02 5.73934894e-03 -5.27292043e-02 4.14900556e-02 5.60454689e-02 1.44931925e-02  2.94325454e-03 
0.01287711 0.01808452 0.00022506 0.03416655 -0.01633888 0.01110472  0.02126741 -0.05414338 -0.00649074 -0.00542802 -0.04972972 -0.01988693 -0.05559094 -0.01850427 -0.03205863 0.04122098 0.02304654 0.08404538 -0.09002905 -0.02525644 -0.00964401 -0.01120562 -0.00485331 -0.06440704 -0.04813951 -0.00314721 -0.01550715 0.01586305 -0.01125911 -0.02475794 -0.01939483 -0.04657111 0.00287095 0.06177342 0.02517647 -0.00847176  0.08558785 -0.04126481 0.04306706 -0.04267497 -0.02917759 0.04832854  0.03029629 0.06489028 -0.01734383 -0.05409769 -0.0320241  0.04930779 -0.0097396 -0.06645185 -0.07622138 -0.06494153 0.04982372 -0.03854159 -0.0564523 -0.01439348 -0.02798678 -0.0105004 -0.02536463 0.00810228 -0.01750521 0.01176003 0.05230513 -0.00733542 0.09582345 0.05774155  0.03483284 -0.02957498 -0.03162823 0.04108937 0.06951609 -0.0279335  0.03694145 0.00306019 0.00499204 -0.02999199 -0.02734997 -0.02092099 -0.01386961 0.03171858 -0.01875207 0.01152335 -0.01237321 -0.06857354 -0.01734346 0.00460164 -0.05362425 0.00604927 -0.04789748 0.0592948 -0.03018744 -0.01712781 0.00587393 -0.00568043 0.06658494 0.0209402  0.00959814 -0.03957057 0.00078129 0.0267729 -0.00614982 0.04823911  0.00596701 -0.02844188 0.04104754 0.00675126 0.00521052 0.02823034 -0.00613399 0.03257629 -0.01056896 -0.00355165 0.01814683 0.05596474  0.06394965 -0.01383567 -0.02745129 0.02868971 0.00313377 0.01722513 -0.05601839 0.00861069 0.06401907 0.03705999 0.00566504 
-0.00489572 0.02276981 0.01349361 0.03642135 -0.00714862 0.0189523  0.01715316 -0.0362132 -0.01544003 -0.00940051 -0.05039859 -0.01197341 -0.02796054 -0.02548071 -0.03252666 0.02861205 0.01692252 0.06179523 -0.06164628 -0.02570999 0.00941752 -0.00318809 0.00510286 -0.04327774 -0.05561337 -0.0021881 -0.01698505 -0.01328083 -0.00958037 -0.02077128 -0.00647794 -0.03704332 0.01483113 0.06345918 -0.0008918 -0.02839918  0.09199683 -0.02580323 0.02771419 -0.03106813 -0.01153477 -0.00099197  0.02838527 0.05040373 0.00839121 -0.03407731 -0.02255066 0.06040585 -0.00919909 -0.05339556 -0.04195436 -0.04549905 0.0385021 -0.03990713 -0.05357745 -0.01646995 -0.044797  -0.01374984 -0.00553632 -0.00437536 -0.01011129 0.01255991 0.01306716 -0.01120071 0.0646611  0.02972622  0.01736988 -0.00978773 -0.0366128  0.0156881  0.05453377 -0.01155545  0.0437762  0.01533625 0.00025942 -0.0082501 -0.01434611 -0.00067114 -0.01403513 0.04247584 -0.000936  0.01733709 0.0074799 -0.04469385  0.00707265 0.03243046 -0.03909437 0.00487528 -0.0387544  0.02380876 -0.02267569 -0.04404229 0.00061027 0.00635026 0.03899843 0.00962301 -0.00757039 -0.0486188  0.01066707 0.01434455 0.00477436 0.04550679  0.0110434 -0.02582972 0.02480572 0.00642098 0.01001158 0.03119208 -0.006952  0.04897815 -0.02542809 -0.0062608  0.00672468 0.01817884  0.05049241 0.00200843 -0.0387322  0.0169366 -0.01133231 0.0073509 -0.05424047 0.01703059 0.06192942 0.02280958 0.01534916 
-0.01598433 0.05828184 -0.02734124 0.04039049 -0.01379606 0.04862726  0.00586337 -0.03471973 0.00746476 0.03357991 -0.09544846 -0.02306257 -0.02461579 -0.02875003 -0.00598539 0.06944922 0.0243154  0.08198048 -0.14302701 -0.03455457 0.01380398 -0.03537689 0.00726584 -0.07088506 -0.08507631 -0.03342504 0.01735093 0.03743448 -0.08360276 -0.02456878  0.02314138 -0.03522466 0.00894842 0.15423228 -0.00033971 -0.0312661  0.10858922 -0.02821494 -0.01833949 -0.06475352 -0.02862223 0.02927011  0.05585698 0.09299998 -0.03010124 -0.07284332 -0.04007003 0.11279289  0.00344098 -0.0459211 -0.05765149 -0.10390382 0.07035646 -0.01474671 -0.10805485 -0.0230179 -0.05724277 -0.02995818 0.02427384 0.01797417 -0.06114158 -0.01199685 -0.02562879 -0.01535733 0.12124346 0.09383843  0.00088021 -0.03750869 -0.05507144 0.03543865 0.09073686 -0.05751272  0.08929252 0.03211448 -0.00556812 -0.04024914 -0.04423651 0.02329086 -0.04643841 0.04341573 -0.03342668 0.01871605 -0.03182666 -0.06067058 -0.01388804 0.00762844 -0.04648405 -0.03727454 -0.05146996 0.05897383 -0.10426758 -0.01563846 0.015963  -0.00237355 0.07502928 0.02833181  0.00748471 -0.10632718 -0.01053639 0.03423399 -0.00562309 0.04634694  0.01966684 -0.08067661 0.01366692 -0.01327565 0.00149748 0.03303457  0.00437743 0.07853255 0.01051731 0.0114179  0.00817046 0.07071739  0.09672488 0.01883679 -0.03484091 0.09893167 -0.00478905 0.03713355 -0.14475957 0.04803888 0.13640775 0.04661352 0.01446731 
-1.3643184e-02 1.8339781e-02 -8.0648521e-03 3.3663090e-02 -2.4105258e-02 6.0526473e-03 -4.9751997e-03 -3.5918273e-02 -2.1132533e-03 8.2069160e-03 -3.8062759e-02 -2.3143616e-02 -2.1001352e-02 -4.8515704e-03 -9.4139371e-03 2.1255182e-02  1.5031792e-02 5.8667399e-02 -8.5082449e-02 -9.1837021e-03  9.2266127e-03 -2.3217052e-02 8.7074833e-03 -5.7708256e-02 -3.7408680e-02 -1.8159529e-02 -2.1343732e-02 8.5912943e-03 -4.1774135e-02 -1.8896382e-02 -3.0837070e-02 -2.8116304e-02 -4.0972955e-03 7.2354577e-02 -3.1476838e-03 -1.3965770e-02  8.2815841e-02 -1.9858796e-02 1.9824019e-02 -4.3320213e-02 -2.3240276e-02 4.3299403e-02 4.5981884e-02 4.3687530e-02  7.2416929e-03 -4.7326606e-02 -1.5922520e-02 4.6224527e-02 -1.3306998e-02 -4.5830477e-02 -4.3463446e-02 -6.0282394e-02  3.7476700e-02 9.7722246e-04 -7.4161187e-02 -2.8403116e-02 -2.1084402e-02 -1.9954460e-02 2.5667498e-02 1.2221454e-02 -4.9258745e-04 2.2306102e-03 1.5672108e-02 1.9037806e-03  6.4123474e-02 2.3723548e-02 9.1231603e-05 7.0689060e-03 -3.6802195e-02 2.9695122e-02 4.8475709e-02 -3.0404119e-02  2.4986215e-02 2.3809215e-02 -1.6200945e-02 -4.2511918e-02 -2.3309758e-02 -1.1139449e-02 -2.6738796e-02 4.0582407e-04  3.9327797e-03 1.3978284e-02 -1.0463538e-02 -5.1955484e-02  3.9177067e-03 -3.9828545e-03 -1.4195593e-02 -1.4651036e-02 -2.4551429e-02 3.2801542e-02 -3.1412289e-02 -1.6048307e-02 -3.8514978e-03 9.2686461e-03 4.7967460e-02 3.3229254e-02  2.0162612e-03 -4.2902626e-02 2.4686771e-02 2.3431733e-02 -1.2357694e-02 2.7857305e-02 1.5556497e-02 -9.9471956e-03  1.1873771e-02 -7.6791836e-04 1.0428896e-02 2.1869864e-02  1.7793905e-02 4.5218967e-02 -3.2249778e-03 1.2089778e-04  2.7144693e-02 4.3675486e-02 5.9282079e-02 -1.7019274e-02 -5.4523088e-02 3.7146959e-02 1.1154904e-02 1.4625053e-02 -7.6782405e-02 2.6091471e-02 6.0860477e-02 1.7768292e-02 -8.4487337e-04 
-0.00053188 0.02398883 -0.01149105 0.01792643 -0.00716867 0.01157722  0.00206047 0.00079481 -0.00170159 0.015601  -0.03241605 -0.00799542 -0.00430701 -0.01102011 -0.01829876 0.01084704 0.01329849 0.02259922 -0.0574147 -0.02009432 0.00675332 0.00982215 0.00517275 -0.02405373 -0.03540942 -0.0085738 -0.00889238 0.00120002 -0.02819498 -0.02949702 -0.01511491 -0.01851095 0.00363024 0.04352141 0.00151233 -0.01357808  0.02908251 -0.01568672 -0.00448197 -0.02277466 -0.00299014 -0.0026619  0.02397159 0.03570778 0.00075076 -0.02200041 -0.01823717 0.035416 -0.01818108 -0.04185084 -0.01552788 -0.02393815 0.03603645 -0.01430318 -0.03981913 -0.01144884 -0.02983374 -0.006021  0.00596028 0.0134928 -0.00208298 0.00211956 0.00733443 -0.00836689 0.04493965 0.02775367 -0.00310599 -0.00381809 -0.01624375 0.01071221 0.0171348 -0.00874995  0.02545706 0.01997273 -0.00953704 -0.01200796 -0.00967442 0.00655957  0.0014282  0.00249378 0.00514122 0.01836972 -0.00347408 -0.02969437  0.01221509 0.02581956 -0.00060754 -0.00953393 -0.01154836 0.00885266 -0.01828486 -0.0307297  0.00576797 0.00685461 0.01524339 0.01514818  0.00621188 -0.03099866 -0.0028014 -0.00335661 -0.00717138 0.02217054  0.01287407 -0.01326706 0.00766213 0.01124363 0.01614841 0.00876795  0.00632988 0.02762878 -0.00498521 0.0035441  0.01315056 0.00885839  0.02560782 0.00314315 -0.02477216 0.01920223 -0.00049031 0.01914206 -0.03434069 0.02003744 0.03730384 0.01765893 -0.00522619 
-7.04221101e-03 1.31618502e-02 2.29303315e-02 4.29169051e-02 -1.15177613e-02 1.91755116e-03 3.64058912e-02 -6.11577462e-03 -7.26623833e-03 2.09261337e-03 -5.06169274e-02 -1.11825159e-02 -1.43422065e-02 -1.88224502e-02 -2.73126569e-02 1.64731909e-02  9.39778984e-03 5.59742749e-02 -5.14433123e-02 -3.45838070e-02  9.52916220e-03 -1.00484705e-02 1.13182310e-02 -2.62809638e-02 -5.37595749e-02 -5.05889114e-03 8.19307577e-04 1.09428419e-02 -2.07990613e-02 -2.54530925e-02 -2.17216392e-03 -1.84834674e-02  1.41357426e-02 6.79004565e-02 -2.69752136e-03 -9.83806979e-03  6.51891381e-02 -2.01433315e-03 7.93789327e-03 -6.39903871e-03  1.15634324e-02 -3.33835836e-04 1.86575130e-02 3.70266810e-02 -2.05064509e-02 -4.90078330e-02 -2.33021639e-02 5.18737175e-02  2.82977913e-02 -4.92009670e-02 -1.29446071e-02 -4.56919707e-02  4.19835933e-02 -2.38095224e-02 -4.64186221e-02 1.02883112e-03 -2.74713151e-02 -1.08022718e-02 -1.17267668e-02 1.35336323e-02  5.68946917e-03 -5.96825994e-05 -7.43745174e-03 -5.06656570e-03  3.62065732e-02 3.25172022e-02 1.77332349e-02 -2.34779473e-02 -3.36748734e-02 7.77777517e-03 4.90829982e-02 -3.30314487e-02  3.10234651e-02 1.50173251e-02 8.68704077e-03 -2.86520012e-02 -1.72284357e-02 -2.18177424e-03 -1.60330050e-02 2.35780738e-02  4.94387513e-03 2.08108015e-02 -5.58670145e-05 -2.07652953e-02  1.25632193e-02 2.11287998e-02 -2.85098087e-02 -5.30612329e-03 -1.87297668e-02 3.55531126e-02 -4.16175090e-02 -2.26645358e-02 -1.45707494e-02 -1.47889704e-02 3.45334411e-02 2.68719438e-03  8.20523873e-03 -3.72123420e-02 -2.18521375e-02 2.20378228e-02 -4.41767450e-04 3.79969180e-02 2.24737823e-02 -2.56959125e-02  4.26696148e-03 -1.81413740e-02 4.93276305e-03 2.41289902e-02 -1.10404077e-03 1.69258229e-02 -1.40611976e-02 -1.26633756e-02 -4.78865765e-03 1.19132008e-02 4.66529429e-02 2.06845272e-02 -3.10024787e-02 2.65051387e-02 -4.04079212e-03 2.06872951e-02 -4.40867208e-02 2.79977694e-02 6.03807792e-02 2.90137846e-02 -3.02881422e-03 
0.0005295  0.03048476 -0.00768482 0.02317005 -0.01976642 0.00805568  0.00599678 -0.03937059 0.01127111 -0.0006566 -0.04180166 -0.01583762 -0.01676972 -0.01094837 -0.00316863 0.04395326 -0.01707613 0.0378892 -0.07277902 -0.03262404 -0.00893922 -0.02446857 0.01588379 -0.05868408 -0.06360947 0.01556206 0.0050931  0.0298492 -0.01235052 -0.0089345 -0.01080699 -0.04400237 -0.0056394  0.05985233 0.00314696 -0.01720701  0.06949177 -0.02821423 0.02766211 -0.0379096 -0.01851506 0.01759266  0.0175941  0.0415837 -0.01192294 -0.0235834 -0.01127154 0.03569477  0.00279138 -0.03501327 -0.03697429 -0.04066983 0.03248753 -0.00743556 -0.05100203 -0.01447102 -0.01374625 0.00811286 0.01157903 -0.01332111 -0.03549872 -0.00476666 0.01133068 -0.02222483 0.06472761 0.04923759  0.01484514 -0.01115288 -0.04043108 0.02022031 0.0388303 -0.02269934  0.01587796 -0.00910058 -0.00118373 -0.02331596 -0.01317704 -0.00871693 -0.03087301 0.03499728 -0.03312607 -0.01847633 0.01170208 -0.04953039 -0.03114281 -0.00311313 -0.05102986 0.00506861 -0.0449031  0.0292266 -0.0194127 -0.02012231 0.00634133 0.01295443 0.03439147 0.0611093  0.00155744 -0.03747711 0.00380152 0.01396951 0.00406147 0.01979221 -0.00444763 -0.01900767 0.01650581 0.01326409 0.01420551 0.02940151 -0.00224953 0.03738066 -0.0067633 -0.0185803  0.01021998 0.02036006  0.04024542 -0.00331649 -0.01878433 0.03121302 0.01286937 0.00998442 -0.06957   0.00087584 0.06891538 0.02160829 -0.01681383 
0.00030782 0.03627516 0.00128323 0.07201795 -0.02554707 -0.01290752  0.0208062 -0.05234719 -0.00467896 -0.01143946 -0.07997025 -0.01288362 -0.05752103 -0.0430458 -0.07373629 0.03518037 0.03749134 0.14722152 -0.14348876 -0.04754961 0.01185801 -0.01969184 0.01125052 -0.07797343 -0.09564688 -0.00439189 -0.01448095 0.00611249 -0.03507609 -0.04524193 -0.02273776 -0.05252326 0.00403037 0.11156201 0.012589  -0.01018003  0.14341207 -0.03002717 0.0426394 -0.06566165 -0.02622603 0.03288157  0.03871104 0.07596383 -0.02251055 -0.08822833 -0.03622621 0.0809347 -0.00539276 -0.1150792 -0.08949471 -0.0895661  0.07181712 -0.05787612 -0.09815968 -0.01618108 -0.03641543 -0.0372139  0.00246944 0.01416588 -0.00967159 0.01322924 0.02855705 -0.02428076 0.1089646  0.07069843  0.03087983 -0.03270354 -0.0583171  0.03988462 0.08600657 -0.02564146  0.06587522 0.02806189 -0.00175263 -0.04555879 -0.03948909 -0.00993445 -0.02686783 0.04235857 -0.0010309  0.02268029 -0.01704319 -0.09008402 -0.00798952 0.0093305 -0.05074153 0.01373784 -0.06288397 0.07229719 -0.06310395 -0.02890306 0.00112972 0.00230856 0.087711  0.0197024  0.00547846 -0.08354319 -0.0013689  0.03254458 -0.01159649 0.07542025  0.01548441 -0.04413145 0.04477244 0.00959809 0.01370862 0.03595572  0.01994666 0.07452485 -0.00441676 -0.00530967 0.01465628 0.06526672  0.10055126 0.01032084 -0.06749143 0.05130564 0.01273608 0.03420443 -0.13330151 0.02653562 0.10994034 0.04672199 0.00661199 
-3.25500332e-02 5.61170951e-02 -1.59543063e-02 4.33698297e-02 -1.80766303e-02 3.63467932e-02 -3.37741268e-03 2.08686851e-03 -7.62295444e-04 1.63443796e-02 -7.82300755e-02 -2.01594383e-02  4.91321087e-03 8.79795756e-03 -5.46833733e-03 4.77250814e-02  3.22295018e-02 4.15131673e-02 -1.03394575e-01 -2.58470438e-02  2.61051729e-02 -8.34050030e-03 5.52565930e-03 -5.32799736e-02 -5.24910800e-02 -2.61399839e-02 5.46285557e-03 -1.50963792e-03 -4.95222136e-02 -1.32899312e-02 -1.15419170e-02 -4.36034873e-02 -5.73776010e-03 9.72871035e-02 1.17732389e-02 -3.31472009e-02  5.00207655e-02 -4.16803062e-02 -1.20974872e-02 -2.04449464e-02 -1.88446585e-02 3.66293779e-03 2.49890350e-02 7.21095279e-02 -2.06287615e-02 -5.07192314e-02 -1.71417221e-02 5.61558306e-02 -1.28912916e-02 -6.38856366e-02 -4.21331748e-02 -3.45737562e-02  3.71143706e-02 -1.28125260e-02 -6.46862909e-02 -1.11688720e-02 -3.35056596e-02 -1.54955378e-02 6.41342718e-03 2.41981391e-02 -2.76112929e-02 2.92150071e-04 6.92641735e-03 -5.53521467e-03  9.21758041e-02 6.48747981e-02 6.05359068e-03 -2.36422885e-02 -3.41051109e-02 1.02983285e-02 3.82019468e-02 -4.22072858e-02  4.56584543e-02 1.46795192e-03 -2.85178553e-02 -3.81137468e-02 -3.00245620e-02 1.87294036e-02 5.82787162e-03 4.51508164e-03  1.15440479e-02 6.99584791e-03 -2.84285899e-02 -4.82245386e-02 -1.22897914e-02 9.71227855e-05 -9.16174706e-03 -2.51083355e-02 -3.93190533e-02 3.29300389e-02 -4.25183252e-02 -2.09275819e-02  1.80843137e-02 2.08386369e-02 5.13790697e-02 3.98515947e-02  1.14900200e-02 -5.01348116e-02 3.06445151e-03 2.95577862e-04 -2.37820297e-02 2.44080275e-02 4.22415091e-03 -4.21920009e-02  1.34746898e-02 -2.62825517e-03 5.55415219e-03 3.17733958e-02  2.55180034e-03 6.09775074e-02 2.76638325e-02 1.29692703e-02  1.37940785e-02 3.12276762e-02 4.83430699e-02 -2.81058601e-03 -3.46565135e-02 4.12739553e-02 3.08827730e-03 3.41923423e-02 -8.57909247e-02 5.55242896e-02 6.81042448e-02 2.94987094e-02 -1.90255651e-03 
0.0076252  0.01036017 0.01107027 0.01688377 -0.01253532 -0.00352962  0.00316517 -0.02291869 -0.01055619 0.002486  -0.01806573 -0.00864829 -0.01813847 -0.01286488 -0.02845696 0.00829826 0.01084533 0.04560118 -0.03991528 -0.01244956 -0.00297924 -0.00631139 -0.00314614 -0.02634764 -0.03450579 0.00286016 -0.00973596 -0.00535643 -0.00539848 -0.01346695 -0.01715997 -0.02664727 0.00112418 0.0332659  0.01681362 -0.01137201  0.05470648 -0.02307373 0.03060618 -0.01491483 -0.00706674 0.02283786  0.0166706  0.03464504 -0.00233587 -0.02908898 -0.0191308  0.02447766 -0.01328637 -0.04064911 -0.0337928 -0.02621309 0.02543206 -0.0206934 -0.0176803 -0.0081187 -0.01408316 -0.01969106 -0.01351103 -0.00483216 -0.00826502 0.00471312 0.02147229 -0.00571147 0.04214801 0.02232355  0.01874996 -0.01598546 -0.01065547 0.0218286  0.02508871 -0.00641127  0.01297973 0.00459749 0.00347334 -0.01891244 -0.0064451 -0.0102168 -0.00160502 0.01525907 -0.00099229 0.00897546 -0.00102066 -0.03140189 -0.00634316 0.01367027 -0.02769503 0.00128696 -0.03410218 0.02391095 -0.0100325 -0.01214372 0.00145698 -0.00692767 0.03084257 -0.00107574  0.000451  -0.02858396 0.00320243 0.00997839 -0.00112822 0.02686555 -0.00541851 -0.01435577 0.01125065 0.01171499 0.00751868 0.015986 -0.00827728 0.02591253 -0.01024842 -0.00490356 0.00801119 0.01675051  0.03189716 -0.00845964 -0.03015754 0.01611539 0.00524497 0.01044445 -0.02386111 0.0037997  0.03082169 0.01909962 -0.00760107 
-0.00839611 -0.01213192 -0.010403  0.03267884 -0.00047799 0.01154403  0.02992796 -0.0208465 -0.00599017 0.01166694 -0.04556287 -0.02169221 -0.0128459 -0.02736843 -0.02277087 0.01813306 0.01634773 0.07486945 -0.07971978 -0.01752478 0.01163529 -0.03230289 0.00700939 -0.05160386 -0.03631371 0.00483157 -0.00684275 0.01011717 -0.03513649 -0.01240228 -0.01463713 -0.02039095 -0.00686203 0.06252679 -0.00994462 -0.00246851  0.05712078 -0.00380313 0.0009231 -0.04569161 -0.03612687 0.03198349  0.03424875 0.03783554 -0.01675397 -0.05370641 -0.02910766 0.06390021 -0.0046067 -0.03705818 -0.04677758 -0.06910421 0.0584116 -0.01626615 -0.05879657 -0.01917484 -0.04177014 0.01440208 0.00900578 0.01590078 -0.00417224 0.00741555 0.0214381  0.00267775 0.06641436 0.0258968  0.01018678 -0.01376896 -0.02281079 0.02041342 0.07084139 -0.03305403  0.03579438 0.01130184 -0.01217564 -0.04310688 -0.01815954 0.00102939 -0.04323957 0.02329532 -0.01463305 0.0204977 -0.01973025 -0.04717656  0.00230189 -0.01255908 -0.0362977 -0.00121858 -0.0092792  0.04209587 -0.04521251 -0.01015381 0.02260338 0.00984387 0.06244837 0.01606558  0.00907949 -0.03582092 0.02346892 0.02975757 -0.02869292 0.03673601  0.02826628 -0.02569198 0.01154964 -0.00720624 0.00077721 0.01397341  0.01777893 0.03112684 0.00437617 0.00563361 0.03986561 0.05495535  0.05726791 -0.01839596 -0.02301672 0.028197  0.00062643 0.02477094 -0.06982987 0.01689396 0.06538126 0.02266739 0.00950975 
9.20876767e-03 1.47549771e-02 -1.99558455e-02 1.74080431e-02 -9.93057247e-03 1.30212689e-02 2.57419236e-02 -2.08126437e-02  1.30280294e-02 -3.92452162e-03 -5.48264980e-02 -2.14742254e-02 -1.72009189e-02 -3.40370461e-02 -3.96428853e-02 4.38326150e-02  7.67087191e-03 9.69332382e-02 -9.06707495e-02 -3.03216279e-02  5.66567015e-03 -3.92174423e-02 2.28630863e-02 -5.13258353e-02 -4.84328382e-02 -1.67453270e-02 2.60846387e-03 3.65771493e-03 -2.05682348e-02 -1.85388755e-02 4.08895139e-05 -5.61191067e-02  7.47726858e-03 8.08474272e-02 1.03815412e-02 1.81589294e-02  6.74951971e-02 -1.17214173e-02 7.73652410e-03 -4.94291708e-02 -2.83879861e-02 2.32069269e-02 4.37057689e-02 5.63043915e-02 -1.41510377e-02 -3.93455215e-02 -2.22705770e-02 5.65509871e-02  7.00491387e-03 -6.30493239e-02 -2.02922523e-02 -3.94871384e-02  3.67560126e-02 -1.65536478e-02 -6.59612641e-02 -1.44491615e-02 -1.22400215e-02 -2.56723892e-02 -3.74514312e-02 -6.11379859e-04 -1.13943405e-02 1.65440154e-03 2.84967069e-02 -3.33782658e-03  4.57209833e-02 4.30323631e-02 1.41539462e-02 -2.10152008e-02 -2.71431804e-02 1.60913020e-02 4.39710394e-02 -4.11538482e-02  2.75522061e-02 -1.27893565e-02 1.57770223e-03 -4.13716212e-02 -2.98283678e-02 -1.37450891e-02 -2.13301312e-02 7.18690269e-03 -2.07275972e-02 2.49231141e-02 -2.18068063e-02 -6.08133376e-02 -2.32621413e-02 1.77094433e-02 -3.99487838e-02 1.35516822e-02 -1.16932951e-02 4.41220514e-02 -3.33185606e-02 -2.38103755e-02 -1.92768387e-02 -1.64128803e-02 4.08686735e-02 1.82195622e-02 -9.68979672e-03 -3.83063257e-02 1.49657973e-03 1.35461232e-02  3.21594591e-04 5.14669716e-02 -1.20184124e-02 -2.56081112e-02  2.97453515e-02 -1.63310971e-02 5.94000099e-03 1.74371954e-02  1.46526909e-02 1.13615338e-02 4.34556103e-04 -2.25738138e-02  1.35945976e-02 5.30469790e-02 6.52960464e-02 -5.18620992e-03 -3.14170755e-02 1.75016075e-02 3.18824733e-03 2.51314752e-02 -9.66373608e-02 3.75443399e-02 7.44215176e-02 3.68523970e-02  9.15593561e-03 
-9.97447525e-04 1.78972743e-02 2.84609646e-02 3.43080461e-02 -1.69417448e-02 -2.13836832e-03 1.81212034e-02 -2.29879078e-02 -1.12933144e-02 -8.94089695e-03 -3.35112140e-02 -1.61950812e-02 -3.25568691e-02 1.17960554e-02 -1.80811044e-02 2.94883233e-02  1.64253358e-02 4.12513576e-02 -5.01505584e-02 -5.46657061e-03  7.83952186e-04 -1.75380018e-02 -1.18561555e-02 -2.81931702e-02 -2.50938591e-02 2.51173857e-03 -1.69750154e-02 1.16262194e-02  1.61549309e-03 -9.74033494e-03 -4.30942466e-03 -3.57226618e-02  2.02245952e-04 3.83546390e-02 2.02632230e-02 -1.12728132e-02  5.82382903e-02 -3.30652446e-02 2.26732343e-02 -2.05196086e-02  5.17356722e-03 3.03315017e-02 9.59961768e-03 3.58422361e-02 -8.59168917e-03 -3.37871350e-02 -2.59331451e-03 3.28795500e-02  5.82493003e-03 -5.05305193e-02 -3.74578722e-02 -2.89637800e-02  3.21205333e-02 -9.72856209e-03 -1.56730507e-02 4.31074575e-03 -1.64654423e-02 -2.11633909e-02 -1.06281871e-02 1.64749601e-03 -1.51899261e-02 8.45648907e-03 1.98211316e-02 -1.87426955e-02  3.80730964e-02 3.10318954e-02 1.80566274e-02 -1.63817927e-02 -1.50781143e-02 2.46609058e-02 3.14226598e-02 1.72836939e-03  2.91013550e-02 -9.36566736e-04 -2.87860050e-04 -1.73506588e-02 -1.38952525e-03 6.86954008e-03 2.37936783e-03 2.61206739e-02 -2.42354872e-05 2.87241442e-03 9.37018660e-04 -3.61951254e-02 -5.25079994e-03 8.64000805e-03 -2.50810124e-02 5.84611087e-04 -3.16099934e-02 2.69034095e-02 -1.67894810e-02 -7.10457657e-03 -5.95573243e-03 -1.08901775e-02 4.09671478e-02 1.26595926e-02 -1.32618239e-02 -2.45221220e-02 2.46253191e-03 2.02157777e-02 -4.85541392e-03 2.99850721e-02 8.41998588e-03 -1.58495456e-02  2.09326949e-02 2.00942215e-02 5.32585778e-04 2.02710498e-02 -3.84763069e-03 3.03362403e-02 -9.41951666e-03 4.00071358e-03  1.82959600e-03 1.83148440e-02 3.25025134e-02 -6.74763974e-03 -2.87997480e-02 6.25568489e-03 -1.15288747e-03 7.72394706e-03 -2.75155418e-02 4.61376412e-03 1.26450416e-02 2.58623622e-02 -7.26688537e-04 
-0.00570316 0.04764866 -0.02292601 0.03192434 -0.02014671 0.01922908  0.00125704 -0.01966626 -0.01048932 0.00319038 -0.06171957 -0.03170241 -0.00382903 -0.02544338 -0.03199409 0.04038941 0.02441747 0.09075803 -0.09257098 -0.02637157 -0.00181571 -0.03184757 0.0025386 -0.06398994 -0.06311182 -0.02667082 -0.00645852 0.009077  -0.03300354 -0.03844876 -0.02753592 -0.05525936 -0.00201911 0.07517035 0.01891428 -0.00955013  0.10637117 -0.02735389 0.03239477 -0.04333792 -0.0241773  0.02403949  0.01892347 0.05284945 -0.00877089 -0.0384634 -0.01755748 0.04861907 -0.00942369 -0.06469171 -0.01966522 -0.05014049 0.04709179 -0.01614085 -0.07417016 -0.00371275 -0.01414265 -0.02321375 -0.00324883 -0.02116372 -0.00348041 0.00427652 0.00757141 -0.02470918 0.06799009 0.03552787  0.03103504 -0.00830956 -0.04604624 0.02210976 0.0653433 -0.01064203  0.04563211 0.01883576 -0.00370121 -0.05109254 -0.00863952 0.0247189  0.00391558 0.02999623 0.01125292 0.01018058 -0.01547806 -0.07917316 -0.01305741 0.01454035 -0.03281628 0.0089627 -0.02072884 0.05511346 -0.03720822 -0.02989596 -0.02735534 0.02321715 0.02751222 0.01106911 -0.01373251 -0.06000571 0.00405457 0.01345546 -0.00029873 0.05007733 -0.00814765 -0.03825932 0.00617753 -0.00142196 0.02216762 0.03169364 -0.021385  0.04659541 0.00897779 -0.01942338 -0.00468155 0.03017581  0.06522476 0.0084697 -0.05805914 0.01633438 -0.01849275 0.01603192 -0.11394162 0.0503666  0.055963  0.05235071 0.00965329 
-0.01429658 0.04667874 -0.0479457  0.06392817 0.0079196 -0.00031279  0.01623331 -0.04945354 -0.00990564 0.02993971 -0.1221149 -0.023884 -0.04806304 -0.09048166 -0.12294954 0.03926973 0.04102854 0.19515139 -0.2431461 -0.07300648 0.0244217 -0.01137456 0.0452046 -0.12444876 -0.1342641 -0.00619451 -0.01401123 -0.03209981 -0.08612151 -0.0233908 -0.04737002 -0.07661921 -0.00830093 0.15828314 0.00403501 0.01111852  0.2236586 -0.02603194 0.05000293 -0.09374647 -0.07548155 0.05583808  0.07811534 0.13941474 -0.02539307 -0.10769512 -0.06618384 0.09841528 -0.02973752 -0.10756645 -0.09176294 -0.11566633 0.13636379 -0.06684277 -0.1423275 -0.02548978 -0.04906363 -0.04671924 -0.00809752 -0.01300015 -0.03040939 0.00225099 0.06310932 -0.01492627 0.16416055 0.08859794  0.04003934 -0.04068206 -0.07849342 0.04322002 0.12485226 -0.06178918  0.09524826 0.03430005 -0.01536585 -0.09398377 -0.11171933 -0.01680484 -0.01904629 0.04454856 -0.0068937  0.03217389 -0.05042525 -0.16138266 -0.0140018  0.01151322 -0.05832816 -0.03719725 -0.05820449 0.10755006 -0.1108528 -0.06235738 0.01431583 0.02223539 0.10753995 0.00335314  0.03099632 -0.11065398 0.01897736 0.02601168 -0.0254244  0.08684141  0.00750495 -0.07886807 0.04828499 -0.02181393 0.03426646 0.05548211  0.02374161 0.09752068 0.01769054 -0.02319743 0.02209059 0.13536464  0.14937986 0.01364187 -0.09554211 0.08138023 0.01877421 0.02180192 -0.20677522 0.09558287 0.16560549 0.04915705 0.03059912 
-0.01391488 0.01236903 0.00341786 0.05179885 -0.02096623 -0.00413308  0.0262256 -0.02801276 0.00741466 -0.00445809 -0.05403875 -0.00442904 -0.02893303 -0.01699896 -0.03528915 0.02378473 0.02106293 0.06979846 -0.0900271 -0.01646831 0.02521627 -0.01459099 0.01042021 -0.0436179 -0.04625202 -0.00396782 -0.00286556 0.00695  -0.02235123 -0.02658266 -0.0078612 -0.0268842  0.00437777 0.0727928 -0.00305573 -0.01041733  0.09004804 -0.01008525 0.01109188 -0.0444986 -0.01776685 0.00577144  0.03033556 0.03998509 -0.0211357 -0.05666998 -0.00755274 0.05668617  0.00800448 -0.06197422 -0.04076839 -0.06055709 0.04617365 -0.03483418 -0.07219312 0.00245172 -0.03279943 -0.00167166 0.01997524 0.01406627  0.00114782 0.01247376 0.00581001 -0.01540187 0.06318094 0.02787004  0.01831169 -0.00790173 -0.04654903 0.02709535 0.06310945 -0.02057544  0.04979591 0.02145523 -0.00574007 -0.02588898 -0.01558302 0.00362365 -0.03100525 0.02337697 -0.00303858 0.0136135 -0.01447896 -0.03691322 -0.00056971 0.00793288 -0.0211873  0.0042706 -0.0257765  0.03049154 -0.0433083 -0.02016295 0.00232861 0.0102294  0.04707581 0.01182199  0.00297217 -0.04900763 -0.00507108 0.02989111 -0.00745862 0.0355064  0.02274659 -0.03496539 0.02260529 -0.00505254 0.00396743 0.02003833  0.01954239 0.04823725 -0.01134214 -0.00383984 0.01725501 0.04018492  0.0607458  0.01423764 -0.03728217 0.03701057 0.00947355 0.02766093 -0.0905151  0.02670516 0.06560146 0.02642094 0.00625975 
